svm_type c_svc
kernel_type linear
nr_class 2
total_sv 489
rho -0.999799
label 1 -1
nr_sv 258 231
SV
0.01283887460029826 1:1 2:2 3:1 4:1 5:1 6:1 7:1 8:1 9:5 10:1 11:2 12:1 13:1 14:3 15:1 16:4 17:1 18:1 19:1 20:2 21:2 22:5 23:1 24:1 25:1 26:2 27:3 28:1 29:1 30:1 31:1 32:1 33:2 34:1 35:1 36:8 37:1 38:5 39:2 40:2 41:1 42:5 43:1 44:1 45:3 46:1 47:2 48:1 49:2 50:2 51:1 52:1 53:1 54:1 55:5 56:1 57:1 58:2 59:1 60:1 61:1 62:3 63:1 64:2 65:5 66:3 67:2 68:2 69:1 70:1 71:2 72:1 73:2 74:1 75:1 76:1 77:2 78:1 79:1 80:1 81:1 82:1 83:1 84:1 85:1 86:1 87:1 88:1 89:1 90:1 91:1 92:1 93:2 94:1 95:2 96:4 97:1 98:1 99:1 100:2 101:1 102:11 103:2 104:1 105:1 106:1 107:2 108:2 109:1 110:4 111:1 112:1 113:1 114:5 115:2 116:3 117:2 118:2 119:5 120:5 121:1 122:1 123:3 124:1 125:1 126:1 127:2 128:1 129:1 130:1 131:1 132:1 133:1 134:1 135:1 136:3 137:1 138:1 139:1 140:1 141:2 142:1 143:7 
0.008100281072686353 12:2 35:1 37:1 62:1 65:3 95:1 110:1 113:1 143:1 144:1 145:1 146:1 147:1 148:1 149:1 150:1 151:1 152:2 153:1 154:1 155:1 156:1 157:1 158:1 159:1 160:2 161:2 162:1 163:1 164:1 165:1 166:1 167:1 168:1 169:2 170:1 171:1 172:1 173:1 174:1 175:1 176:1 177:1 178:1 179:1 180:1 181:2 182:1 183:1 184:1 185:1 186:1 187:1 188:4 189:1 190:1 191:1 192:1 193:1 194:1 195:1 196:1 197:2 
0.0009112331563286163 1:1 12:5 26:2 35:4 42:1 46:1 54:1 65:1 71:2 83:1 95:2 96:1 101:1 102:5 105:2 110:2 113:1 118:2 121:1 133:2 143:13 146:3 150:4 151:5 165:1 170:1 177:1 181:2 184:4 187:1 188:7 198:1 199:2 200:3 201:1 202:3 203:1 204:1 205:1 206:1 207:1 208:2 209:1 210:1 211:1 212:1 213:1 214:1 215:2 216:1 217:1 218:1 219:2 220:1 221:1 222:1 223:1 224:1 225:1 226:1 227:1 228:1 229:2 230:1 231:1 232:1 233:2 234:2 235:1 236:1 237:1 238:1 239:1 240:1 241:1 242:1 243:2 244:1 245:1 246:1 247:1 248:2 249:1 250:2 251:3 252:1 253:1 254:1 255:1 256:2 257:1 258:1 259:1 260:1 261:1 262:1 263:1 264:2 265:1 266:1 267:1 268:2 269:1 270:1 271:1 272:2 273:1 274:3 275:1 276:2 277:2 278:1 279:1 280:1 281:4 282:1 283:1 284:1 285:1 286:1 287:3 288:1 289:1 290:1 291:1 292:5 293:1 294:1 295:1 296:1 297:1 298:1 299:1 300:5 301:1 302:1 303:1 304:1 305:1 306:1 307:1 308:1 309:1 
0.008288214565629528 1:1 7:1 9:1 12:4 25:1 35:1 42:1 46:1 55:1 65:3 71:1 96:1 99:2 101:1 102:1 105:1 108:2 113:1 115:1 118:2 133:3 143:3 146:2 150:1 181:1 184:1 187:4 188:6 214:1 218:1 241:1 243:1 259:1 261:1 268:1 287:2 292:1 304:1 310:1 311:1 312:1 313:3 314:2 315:1 316:1 317:1 318:1 319:1 320:1 321:1 322:1 323:1 324:1 325:1 326:2 327:1 328:1 329:1 330:1 331:1 332:1 333:1 334:2 335:1 336:1 337:1 338:1 339:1 340:1 341:1 342:2 343:1 344:1 345:1 346:1 347:2 348:1 349:1 350:1 351:1 352:1 353:1 354:2 355:1 356:1 357:1 358:1 359:1 360:1 361:1 362:1 363:1 364:1 365:1 
0.00201561595732507 7:1 12:4 26:2 35:1 42:1 46:1 54:1 55:1 62:1 65:1 71:2 96:1 102:4 105:1 107:1 108:2 110:1 113:1 118:1 146:1 181:3 185:1 188:6 214:1 216:3 235:1 243:1 258:1 259:1 274:1 281:2 287:1 292:1 337:1 365:1 369:1 370:1 385:3 407:2 457:1 482:1 494:1 495:1 496:1 497:1 498:1 499:1 500:3 501:1 502:3 503:1 504:1 505:1 506:1 507:1 508:1 509:1 510:1 511:1 512:1 513:1 514:1 515:1 516:1 517:1 518:1 519:1 520:1 521:1 522:1 523:1 524:1 525:1 526:1 527:1 528:1 529:1 530:1 531:1 532:2 533:1 534:1 535:1 536:1 537:1 538:1 
0.009081110522279811 7:1 11:1 21:1 26:1 35:1 42:3 50:1 55:1 65:1 90:1 96:1 102:1 113:4 115:1 117:1 121:2 133:1 143:1 151:2 184:1 187:1 188:1 229:1 243:3 259:2 268:1 312:1 332:1 333:2 354:1 370:1 407:1 485:2 494:1 510:1 521:1 642:1 732:1 751:1 752:1 753:1 754:1 755:1 756:1 757:1 758:3 759:1 760:1 761:1 762:2 763:1 764:1 765:1 766:1 767:1 768:1 769:1 770:1 771:1 772:1 773:1 774:1 775:1 776:1 777:1 778:1 779:1 
0.01990586921058931 1:1 12:3 26:3 32:1 34:1 35:2 42:3 54:1 55:5 62:2 65:6 71:1 96:5 101:1 102:3 105:3 110:6 115:1 118:1 121:3 133:6 143:14 144:4 145:2 146:5 151:5 159:1 181:1 187:1 188:3 207:2 231:2 242:2 243:2 244:1 250:1 257:1 259:1 263:1 268:2 278:1 291:1 292:1 294:1 307:1 323:1 337:2 345:1 355:1 380:1 392:1 413:1 414:1 422:1 428:1 445:1 447:1 483:2 493:1 499:9 501:1 510:1 531:1 553:3 554:1 573:1 595:1 596:3 599:1 612:5 620:1 634:1 642:2 649:1 705:1 706:2 707:1 708:1 709:1 710:2 711:1 712:2 713:1 714:1 715:2 716:1 717:1 718:1 719:1 720:3 721:1 722:1 723:4 724:1 725:1 726:1 727:1 728:1 729:2 730:1 731:2 732:1 733:1 734:3 735:1 736:1 737:1 738:1 739:2 740:2 741:1 742:1 743:1 744:1 745:2 746:2 747:1 748:1 749:3 750:1 768:1 797:1 806:1 807:1 808:1 809:1 810:1 811:1 812:1 813:2 814:1 815:1 816:3 817:2 818:1 819:1 820:1 821:2 822:1 823:1 824:1 825:1 826:2 827:1 828:1 829:1 830:3 831:1 832:1 833:1 834:1 835:1 836:1 837:2 838:1 839:2 840:2 841:1 842:1 843:1 844:1 845:1 
0.04814001033899207 7:1 12:2 13:1 42:1 46:1 71:1 77:2 102:1 110:1 113:1 133:2 135:1 143:2 146:1 184:1 188:2 224:2 261:1 281:1 292:2 364:1 366:1 404:1 407:1 461:2 494:1 501:2 536:1 545:1 720:1 803:1 846:1 847:1 848:1 849:1 850:1 851:2 852:1 853:1 854:1 855:1 856:1 857:1 858:1 859:1 860:1 861:1 
0.006166403908746506 12:9 26:3 42:1 55:3 62:1 65:5 96:5 101:1 102:6 105:5 110:2 126:1 133:4 134:1 137:1 143:12 144:2 151:8 154:1 173:1 181:2 184:1 188:4 207:1 218:1 227:1 235:1 236:1 250:1 278:2 287:4 292:2 301:1 316:1 319:1 336:1 345:2 355:1 368:1 374:1 379:1 393:6 409:1 414:1 438:1 440:1 451:2 482:4 499:1 500:1 517:1 526:1 555:1 571:6 573:1 592:3 596:1 642:3 650:1 664:1 669:1 686:1 720:1 755:1 765:1 774:1 811:2 851:1 894:1 895:1 896:1 897:1 898:3 899:1 900:1 901:1 902:1 903:4 904:3 905:1 906:1 907:1 908:1 909:1 910:1 911:1 912:1 913:1 914:2 915:1 916:1 917:4 918:1 919:1 920:2 921:1 922:1 923:1 924:1 925:1 926:1 927:1 928:1 929:2 930:1 931:2 932:1 933:1 934:1 935:1 936:1 937:1 938:1 939:1 940:6 941:2 942:1 943:1 944:6 945:2 946:1 947:1 948:2 949:1 950:1 951:1 952:1 953:1 954:1 955:2 956:2 957:1 958:1 959:1 960:1 961:1 962:1 963:1 964:1 
0.01766828071706715 26:1 35:1 42:1 46:1 65:1 102:1 105:1 110:1 126:1 133:1 143:1 146:1 151:3 188:3 199:1 204:1 236:1 264:1 281:1 287:2 292:1 332:1 366:1 455:1 494:1 499:1 580:1 821:1 946:1 978:1 979:1 980:1 981:1 982:1 983:1 984:1 985:1 986:1 987:1 988:1 989:1 990:1 991:1 992:1 993:1 994:1 
0.007720905815598668 12:4 25:1 62:2 65:3 77:1 105:1 133:2 143:4 144:1 146:2 151:1 161:1 173:1 181:1 188:3 204:1 225:1 227:1 229:1 236:1 243:1 268:1 292:1 301:1 316:1 337:1 354:1 355:1 407:1 413:2 420:1 455:1 500:1 531:1 571:1 667:1 701:1 784:1 790:1 887:1 924:1 978:1 995:1 996:1 997:1 998:1 999:1 1000:1 1001:1 1002:2 1003:1 1004:1 1005:1 1006:1 1007:1 1008:2 1009:2 1010:2 1011:1 1012:1 1013:1 1014:1 1015:1 
0.0105911330492145 42:1 102:1 143:1 188:2 224:1 230:1 261:1 388:1 501:1 639:1 720:1 760:1 772:1 1054:1 1055:1 1056:1 1057:1 1058:1 1059:2 1060:1 1061:2 1062:2 1063:1 
0.02701418487768848 46:2 62:1 71:1 77:2 101:1 108:1 135:1 144:1 151:2 181:1 184:1 188:4 200:1 229:1 231:1 261:1 266:1 274:1 287:1 300:1 354:1 388:1 526:1 558:2 720:3 1031:1 1127:1 1128:3 1129:1 1130:1 1131:1 1132:1 1134:1 1135:1 1136:1 1137:2 1138:1 1140:1 1141:1 1142:1 1143:1 1144:1 1145:1 1146:1 1147:1 1148:1 1149:1 1150:1 
4.310440697330844 
0.01803387286960642 7:1 13:1 25:1 42:3 46:1 55:1 65:3 71:1 102:1 105:1 108:1 110:2 111:1 133:1 135:1 143:1 144:1 148:1 184:1 185:1 187:1 188:4 224:1 257:1 274:1 287:3 292:2 340:1 354:2 388:2 392:1 480:1 485:1 501:1 767:1 803:1 919:1 1056:1 1170:1 1171:1 1172:1 1173:1 1174:1 1175:1 1176:1 1177:1 1178:1 1179:1 1180:1 1181:1 1182:1 1183:1 1184:1 1185:1 1186:1 1187:1 1188:1 1189:1 1190:1 
0.01455294988393818 1:1 7:1 42:1 50:1 54:1 65:1 105:1 133:1 177:1 259:1 264:1 274:1 287:1 313:1 388:1 393:1 580:1 803:1 1311:1 1312:1 1313:1 1314:1 1315:1 1316:1 1317:1 1318:1 1319:1 1320:2 1321:1 1322:1 
0.004113142265627001 1:5 11:2 12:3 21:1 26:1 35:3 42:3 55:3 62:1 65:5 71:1 75:1 77:2 96:2 101:2 102:10 105:5 107:4 108:4 110:5 113:1 115:1 118:2 133:5 135:1 143:9 144:2 146:2 150:1 151:1 153:1 163:1 184:1 188:1 207:1 211:4 213:1 229:2 236:3 242:1 268:5 281:1 287:5 291:4 292:6 295:1 299:1 301:1 312:1 319:1 323:10 337:1 345:1 355:6 364:10 447:1 451:2 458:2 462:5 481:1 488:1 499:1 500:1 531:1 570:1 594:1 612:2 624:1 634:2 642:2 679:1 680:1 683:1 684:1 686:1 687:2 688:1 690:1 692:1 693:1 694:1 696:2 697:2 884:2 939:1 1192:2 1200:1 1201:1 1204:1 1207:1 1212:1 1214:1 1216:1 1225:3 1226:1 1227:2 1298:2 1342:1 1343:1 1344:1 1345:1 1346:1 1347:1 1348:1 1349:1 1350:2 1351:1 1352:2 1353:2 1354:1 1355:1 1356:1 1357:2 1358:1 1359:1 1360:2 1361:1 1362:3 1363:1 1364:2 1365:1 1366:2 1367:1 1368:2 1369:1 1370:1 1371:1 1372:2 1373:1 1374:3 1375:1 1376:1 1377:3 1378:1 1379:1 1380:1 1381:2 1382:1 1383:1 1384:1 1385:1 1386:12 1387:1 1388:1 
0.002775856520258063 1:5 12:5 26:1 32:1 35:4 42:2 55:1 65:4 75:1 83:2 90:1 101:1 102:6 105:2 107:2 108:1 110:3 113:1 118:1 133:3 143:16 144:5 146:2 151:3 159:1 188:2 204:3 207:1 211:1 216:2 224:1 229:2 236:1 243:3 250:1 257:2 258:1 268:2 274:1 281:1 287:6 292:5 304:1 325:1 337:1 355:3 388:1 407:1 414:1 416:1 462:1 465:1 485:1 499:1 500:1 531:1 558:1 583:1 588:1 612:3 624:2 666:1 688:1 708:1 717:1 729:1 801:1 935:1 1083:1 1115:1 1128:1 1162:1 1192:2 1199:1 1201:1 1204:2 1207:8 1211:3 1214:1 1216:2 1223:4 1224:1 1225:4 1226:1 1227:3 1233:1 1294:1 1298:2 1327:1 1347:1 1352:2 1361:1 1363:1 1364:2 1367:1 1368:3 1369:1 1371:1 1376:1 1381:1 1385:2 1386:4 1389:1 1390:2 1391:1 1392:1 1393:1 1394:1 1395:1 1396:3 1397:1 1398:1 1399:1 1400:1 1401:1 1402:1 1403:1 1404:1 1405:1 1406:2 1407:1 1408:1 1409:1 1410:1 1411:1 1412:1 1413:2 1414:1 1415:1 1416:1 1417:1 1418:2 1419:1 1420:1 1421:1 1422:2 1423:2 1424:1 1425:1 1426:1 1427:1 1428:1 1429:1 1430:1 1431:1 1432:1 1433:1 
0.003099775162767973 1:2 11:2 12:3 26:2 35:1 42:1 52:1 55:2 65:3 71:2 77:1 96:2 102:2 105:4 110:4 113:2 118:4 133:5 143:11 144:1 146:1 150:1 151:5 159:1 165:1 173:1 181:1 188:2 207:2 214:1 216:1 217:1 224:1 236:4 243:6 258:1 259:1 263:3 268:3 278:2 287:1 292:5 301:2 319:1 360:1 368:1 388:1 393:1 397:1 398:2 399:2 400:1 401:1 402:1 403:1 404:1 405:1 406:1 407:2 408:1 409:1 410:2 411:1 412:4 413:3 414:3 415:1 416:1 417:3 418:1 419:2 420:1 421:1 422:1 423:1 424:3 425:1 426:1 427:1 428:2 429:3 430:3 431:1 432:2 433:7 434:4 435:1 436:2 437:1 438:1 439:3 440:2 441:1 442:1 443:2 444:1 445:1 446:2 447:1 448:3 449:2 450:1 451:2 452:1 453:2 454:2 455:1 456:4 457:1 458:1 459:1 460:1 461:4 462:1 463:1 464:5 465:1 466:1 467:1 468:2 469:1 470:2 526:1 561:1 707:1 757:1 1200:1 1205:1 1328:1 1434:1 1435:1 1436:1 1437:1 1438:1 1439:1 1440:1 1441:1 1442:1 1443:2 1444:1 
0.02319126022872827 35:1 36:2 42:2 60:1 65:1 71:1 108:1 109:2 110:4 116:4 133:3 143:3 150:1 184:1 207:2 222:2 230:2 242:2 253:1 319:1 333:1 345:3 425:1 451:1 474:1 510:1 698:1 728:1 766:1 798:1 801:2 803:1 813:1 1016:1 1018:1 1020:2 1021:1 1022:1 1024:1 1025:1 1027:1 1030:1 1031:1 1032:2 1033:1 1034:1 1035:1 1038:1 1042:1 1043:1 1049:1 1050:1 1051:2 1052:1 1053:1 1328:1 1382:1 1445:2 1446:1 1447:2 1448:1 1449:1 1450:2 1451:2 
0.03747089325419175 7:1 12:2 26:1 35:1 42:1 55:1 65:2 102:2 110:1 111:1 133:1 143:1 185:1 188:1 243:1 265:1 313:2 333:1 347:1 355:1 488:1 499:1 501:1 612:1 651:1 671:2 714:1 766:1 774:2 887:1 1046:1 1115:1 1191:1 1286:1 1315:1 1393:1 1452:1 1453:1 1454:1 1455:2 1456:2 1457:1 1458:1 1459:1 1460:1 1461:1 1462:1 1463:1 1464:1 1465:1 
0.02282718510610956 12:2 25:1 35:2 46:1 65:2 102:3 105:2 110:1 133:5 143:1 144:1 146:3 151:1 163:1 164:1 170:1 181:1 184:2 187:1 188:1 231:1 243:1 287:2 291:1 292:1 316:1 351:1 388:1 392:1 494:2 499:1 526:1 531:1 595:3 633:1 686:1 884:1 1005:1 1188:1 1292:1 1466:1 1467:1 1468:1 1469:2 1470:1 1471:1 1472:1 1473:1 1474:1 1475:1 1476:1 1477:1 1478:1 1479:1 1480:1 1481:1 1482:1 1483:1 1484:1 1485:1 1486:1 
0.03245709578308448 7:1 12:3 35:1 42:1 54:1 55:1 102:1 105:1 110:1 111:1 113:3 115:2 133:1 143:4 182:1 187:1 188:2 241:1 243:2 259:1 287:1 337:1 338:1 350:1 354:1 363:1 393:1 473:1 501:1 508:1 521:1 534:1 619:1 855:1 1001:1 1114:1 1487:1 1488:1 1489:1 1490:1 1491:1 1492:1 1493:1 
0.02391197381099681 7:1 35:1 42:2 54:1 62:1 75:1 102:1 113:1 115:1 133:1 143:1 173:1 188:1 189:1 243:1 268:1 411:1 580:1 671:1 884:1 1589:1 1590:1 1591:1 1592:2 1593:1 1594:1 1595:1 1596:1 1597:1 1598:1 1599:1 
0.01304392061604124 7:1 12:3 42:2 65:1 105:2 110:2 113:1 143:1 146:1 150:1 154:1 181:1 185:1 188:4 224:1 230:1 231:1 236:1 261:1 281:1 333:2 345:1 392:1 425:1 457:1 494:1 501:1 515:1 555:1 720:1 1065:1 1099:1 1218:2 1464:1 1600:1 1601:1 1602:1 1603:1 1604:1 1605:1 1606:1 1607:1 1608:1 1609:1 1610:1 1611:2 1612:1 1613:1 1614:1 
0.01010545372815168 1:1 12:1 35:1 65:1 110:1 111:1 133:1 143:3 165:1 178:1 184:1 188:3 259:1 267:1 268:1 287:1 310:1 428:1 554:1 977:1 985:1 1593:1 1615:1 1616:1 1617:1 1618:1 
0.01036297885400846 12:7 42:1 46:1 55:1 71:1 75:1 101:1 102:1 105:2 111:2 113:1 133:5 143:3 144:3 145:1 146:2 181:1 183:1 187:1 188:7 199:1 214:1 217:1 233:2 236:2 261:2 268:3 274:2 285:1 287:1 301:2 316:1 337:1 338:1 355:1 365:1 374:4 404:1 494:1 499:1 501:1 521:1 526:1 531:1 784:1 924:1 939:1 1019:1 1036:1 1188:1 1196:1 1197:1 1214:1 1300:1 1330:1 1662:1 1730:2 1747:1 1748:1 1749:1 1750:2 1751:1 1752:1 1753:1 1754:1 1755:1 1756:1 
0.00033127222787855 11:1 12:4 26:2 42:1 65:4 83:2 102:4 105:3 110:1 133:1 143:9 144:1 146:1 151:2 165:1 173:1 181:1 184:1 188:9 199:1 204:1 207:1 215:2 235:1 236:2 242:1 244:1 248:2 253:1 268:2 274:1 294:1 295:1 297:1 301:2 307:1 325:1 337:1 354:1 368:1 372:1 374:1 457:1 482:1 483:3 531:1 536:2 542:1 573:1 594:1 832:1 860:1 866:1 884:1 908:2 968:2 975:1 1000:2 1401:1 1491:1 1501:1 1596:1 1653:1 1702:1 1730:5 1752:2 1812:1 1813:1 1814:2 1815:1 1816:2 1817:1 1818:1 1819:1 1820:1 1821:1 1822:1 1823:1 1824:1 1825:1 1826:1 1827:1 1828:1 1829:1 1830:1 1831:1 1832:1 1833:2 1834:1 1835:1 1836:1 1837:1 1838:1 1839:2 
0.02095792722856245 11:1 12:4 25:1 26:1 42:1 45:1 55:1 62:2 65:1 71:1 102:1 105:2 110:1 113:2 118:2 133:3 143:1 144:3 150:2 151:3 188:3 199:1 207:1 233:1 242:1 281:1 287:1 354:1 355:1 399:1 413:1 427:1 485:1 499:1 501:1 510:2 521:1 526:1 536:1 554:2 571:4 664:1 701:1 720:1 760:2 866:3 887:1 1046:1 1084:1 1109:3 1186:1 1201:1 1218:1 1575:1 1612:1 1629:1 1641:3 1736:1 1816:1 1840:1 1841:1 1842:1 1843:1 1844:1 1845:1 1846:2 1847:1 1848:1 1849:1 1850:1 1851:2 1852:1 1853:1 1854:1 1855:1 1856:1 1857:1 
0.01802413486606589 12:1 42:1 65:1 71:1 134:1 151:1 157:1 184:1 248:1 253:1 337:1 355:1 474:1 510:1 531:1 612:4 658:1 710:2 714:1 718:1 729:2 737:1 749:1 833:1 838:1 839:1 937:1 1200:1 1442:1 1577:1 1640:1 1658:1 1916:2 1917:1 1918:1 1919:1 1920:1 1921:2 1922:1 1923:1 1924:1 1925:1 1926:1 1927:1 1928:1 1929:1 1930:1 1931:4 1932:1 
0.003312351443945212 7:1 12:3 16:1 35:2 42:6 55:2 65:7 92:1 96:1 102:9 105:7 108:1 110:3 118:3 133:8 137:1 143:11 150:2 151:6 173:1 184:3 188:1 207:1 212:1 215:1 224:1 227:1 231:1 241:2 243:5 259:2 265:2 268:2 281:1 287:1 291:1 292:4 311:1 316:1 330:1 342:3 345:1 355:1 366:1 368:1 370:3 375:1 379:1 389:1 392:2 458:1 482:1 506:1 511:1 517:1 526:1 531:1 565:1 571:1 599:2 606:1 618:1 623:1 625:1 658:1 671:1 677:1 692:1 755:1 801:1 824:1 851:1 866:1 935:1 1036:1 1059:1 1201:1 1208:1 1235:2 1261:1 1271:1 1317:1 1368:2 1374:1 1393:1 1491:1 1547:1 1720:1 1793:1 1826:1 1899:1 1906:2 1933:1 1934:2 1935:1 1936:1 1937:1 1938:1 1939:1 1940:1 1941:3 1942:1 1943:2 1944:1 1945:2 1946:1 1947:2 1948:1 1949:2 1950:1 1951:1 1952:1 1953:1 1954:1 1955:2 1956:3 1957:1 1958:1 1959:2 1960:3 1961:2 1962:1 1963:1 1964:1 1965:1 1966:1 1967:2 1968:1 1969:1 1970:1 1971:1 1972:1 1973:1 1974:1 1975:1 1976:2 1977:2 1978:3 1979:1 1980:1 1981:2 1982:2 1983:1 1984:4 1985:1 1986:1 1987:1 1988:1 1989:1 1990:1 1991:1 
0.01878782804108541 11:1 12:2 13:3 42:1 46:1 62:2 65:4 71:1 77:1 95:1 96:1 102:2 105:5 108:2 110:3 118:1 133:3 135:3 143:8 144:1 146:1 150:2 151:7 154:1 181:2 184:2 188:4 194:1 199:1 229:2 231:1 235:1 236:1 242:1 243:1 259:2 261:1 268:1 274:1 278:1 281:1 287:2 289:1 292:3 294:1 301:1 304:2 316:1 333:1 337:2 344:1 351:1 388:1 390:1 404:1 407:2 425:2 446:1 451:1 455:1 485:1 488:1 493:1 499:1 501:2 515:1 531:1 556:1 582:1 595:1 612:1 662:1 720:1 901:1 905:1 906:1 1000:1 1031:2 1066:2 1161:1 1180:1 1501:2 1512:1 1521:1 1522:2 1526:1 1618:2 1646:1 1754:1 1786:1 1898:1 1962:1 2040:1 2044:1 2049:1 2052:2 2054:4 2055:1 2057:1 2064:1 2065:1 2067:1 2068:1 2071:1 2073:1 2074:1 2075:1 2076:1 2077:1 2078:2 2079:1 2080:1 2081:1 2082:1 2083:1 2084:1 2085:1 2086:1 2087:1 2088:1 2089:1 2090:1 2091:1 2092:1 2093:1 2094:1 2095:1 2096:1 
0.01451719524822908 2:1 12:2 42:2 55:2 71:1 73:1 95:1 101:1 102:2 107:1 111:1 113:3 133:1 137:1 143:4 144:1 146:2 150:2 153:1 184:1 187:1 188:4 243:1 257:1 258:1 261:1 268:3 274:1 281:1 338:1 345:1 354:1 392:1 447:1 486:1 494:1 506:1 521:1 538:1 558:1 567:1 671:1 720:1 803:1 951:1 1044:1 1086:1 1188:1 1209:1 1226:1 1496:1 1889:1 1896:1 1897:1 1959:2 1975:1 2105:1 2106:1 2107:1 2108:1 2109:1 2110:1 2111:1 2112:1 2113:2 2114:1 2115:1 2116:1 2117:1 2118:1 2119:2 2120:1 
0.006910139906928316 7:2 12:6 26:3 34:1 35:2 42:4 48:1 71:3 102:5 105:4 108:1 110:5 118:1 121:1 133:1 137:1 143:8 146:2 150:1 151:3 154:2 165:1 176:1 181:1 184:2 188:7 199:1 204:1 207:1 215:1 216:1 217:3 225:4 229:1 231:1 235:1 242:1 243:2 253:1 254:1 259:1 261:1 265:2 268:2 281:2 287:1 292:3 304:1 332:1 345:1 366:1 367:1 368:2 381:1 392:2 406:1 407:1 413:1 414:1 433:2 499:1 500:3 526:1 536:2 538:1 554:1 571:3 650:1 666:1 762:1 767:1 769:1 774:2 781:1 837:1 851:1 924:2 966:1 985:1 1005:1 1018:1 1028:1 1059:1 1061:3 1073:1 1088:1 1095:1 1120:1 1171:1 1186:1 1212:1 1409:1 1570:1 1577:2 1728:1 1739:1 1793:1 1873:1 1996:1 1997:1 1998:2 2001:1 2002:1 2005:1 2009:1 2011:1 2013:1 2017:1 2018:1 2020:1 2022:1 2027:1 2238:1 2239:1 2240:1 2241:1 2242:1 2243:1 2244:1 2245:1 2246:1 2247:1 2248:1 
32 
0.03367352618808599 7:1 12:1 25:1 71:1 102:1 105:1 108:1 110:2 143:3 146:1 151:2 184:2 188:2 218:1 263:2 310:1 345:1 376:1 393:1 416:1 433:1 499:1 500:1 523:1 688:1 978:1 1570:1 1793:1 1895:1 2282:1 2283:1 2284:1 2285:1 2286:1 2287:1 2288:1 2289:1 2290:1 2291:2 2292:1 2293:1 
0.001031810072001702 2:1 12:2 42:1 62:1 71:1 75:1 105:1 113:1 115:1 133:3 143:1 146:1 188:1 243:1 261:1 287:1 332:1 354:1 355:1 378:1 639:1 720:1 767:1 1001:1 1060:1 1204:1 1210:1 1223:1 1378:1 1789:1 2413:1 2414:1 
0.01107492513937429 12:3 21:1 32:1 101:1 102:2 110:1 113:2 133:3 143:4 146:1 151:1 165:1 187:1 188:4 216:1 243:2 244:1 261:1 268:1 278:1 287:1 290:1 294:1 307:1 310:1 316:1 319:1 325:1 345:1 416:1 428:2 458:1 526:1 536:1 617:1 630:1 667:1 688:1 766:1 776:1 806:1 828:1 942:1 1047:1 1065:1 1105:1 1115:3 1192:2 1213:2 1240:1 1464:4 1489:2 1596:1 1676:1 1793:1 1887:1 1906:1 1947:1 2017:4 2334:3 2415:1 2416:1 2417:1 2418:1 2419:1 2420:1 2421:1 2422:1 2423:1 2424:2 2425:1 2426:1 2427:1 2428:2 2429:1 2430:1 2431:1 2432:1 2433:1 2434:1 
0.01837896459418937 7:1 42:1 55:1 65:2 71:1 102:1 113:1 118:1 133:1 143:1 150:3 151:1 188:2 204:1 236:1 243:1 259:1 261:1 281:1 301:1 355:1 368:1 493:2 501:1 560:1 662:1 708:1 720:1 729:1 1019:1 1048:1 1273:1 1445:1 1474:1 1593:1 1873:1 2435:1 2436:3 2437:1 2438:1 2439:1 2440:1 2441:1 2442:1 2443:1 2444:1 2445:2 2446:2 2447:1 2448:1 2449:2 2450:1 2451:1 
0.001007303492537615 2:1 7:1 12:3 27:2 36:2 39:1 40:1 42:1 46:1 55:1 64:1 65:2 71:3 87:1 93:1 102:3 105:2 107:2 110:3 116:2 123:1 133:2 136:1 143:1 144:1 146:1 181:1 187:2 188:3 204:1 227:1 229:1 231:2 243:1 316:1 333:2 344:1 355:1 393:1 407:1 438:1 473:1 485:1 493:1 499:1 536:1 555:1 559:1 638:1 729:2 766:1 769:1 845:1 851:1 855:2 1056:1 1068:1 1313:3 2012:1 2114:1 2452:1 2453:1 2454:3 2455:1 2456:1 2457:1 2458:1 2459:1 2460:1 2461:1 2462:1 2463:2 2464:1 2465:1 2466:1 
0.02285546535675235 12:4 26:1 35:1 55:1 71:3 96:1 110:1 113:2 133:3 143:5 173:1 181:1 187:1 188:2 194:1 215:1 216:1 243:3 261:1 287:1 291:1 310:1 316:1 354:1 366:1 404:1 458:1 494:1 501:1 521:1 595:2 599:1 694:1 762:1 790:1 924:1 1005:1 1047:1 1488:3 1808:3 1977:2 2051:1 2473:1 2474:3 2475:1 2476:1 2477:1 2478:1 2479:1 2480:1 
0.02479831151998855 42:1 62:2 65:3 102:2 108:1 110:2 133:3 172:1 188:2 194:2 204:1 224:1 246:1 261:1 281:1 291:1 316:1 319:1 332:1 354:1 413:2 501:1 693:1 720:1 767:1 801:1 916:1 937:1 1201:1 1218:1 1516:1 1569:1 1577:1 1895:1 1899:1 2203:1 2224:1 2500:1 2501:1 2502:1 2503:1 2504:1 2505:2 2506:1 2507:1 2508:1 2509:1 2510:1 2511:1 2512:1 
0.03392230629288811 12:5 15:1 42:1 55:3 65:1 71:1 95:1 96:1 101:1 102:2 110:1 133:1 143:3 146:1 151:1 153:1 167:1 177:1 199:1 216:2 233:1 236:4 243:2 245:1 287:1 292:3 296:1 307:1 337:1 351:1 355:2 392:1 413:1 482:1 494:1 500:2 525:2 572:1 612:6 659:1 688:1 714:1 851:3 884:1 981:1 995:1 1028:1 1040:2 1105:2 1218:1 1364:1 1604:1 1612:1 1634:1 2714:1 2715:1 2716:1 2717:1 2718:1 2719:1 2720:1 2721:1 2722:1 2723:1 2724:1 2725:1 2726:2 2727:1 2728:1 2729:1 2730:1 2731:1 2732:1 2733:1 2734:1 2735:1 2736:1 2737:1 2738:1 2739:1 2740:1 2741:1 2742:3 2743:2 2744:1 
0.01121037615017132 1:2 2:4 7:1 11:2 12:30 26:3 35:2 42:11 45:2 47:1 48:1 50:1 55:13 59:1 62:3 65:13 71:3 75:2 77:3 84:1 92:1 95:1 96:6 101:3 102:17 105:22 108:2 110:8 111:2 113:1 115:2 118:4 119:3 120:1 121:4 126:4 128:1 131:1 132:1 133:18 135:1 143:40 144:23 146:4 150:1 151:13 154:5 161:1 163:1 181:2 182:1 184:8 187:2 188:13 193:1 194:5 199:1 211:2 213:2 215:1 216:1 217:1 220:1 224:8 229:2 230:1 231:5 232:1 236:4 241:1 243:3 249:1 250:1 259:2 261:3 264:1 268:11 274:2 281:8 287:3 289:2 291:3 292:22 295:1 301:2 308:1 312:1 314:2 316:2 317:1 325:1 331:1 337:1 339:2 345:6 352:1 355:7 359:1 362:4 368:2 370:1 371:2 374:2 381:1 393:1 404:1 411:1 413:3 422:1 425:2 457:2 458:4 459:1 471:1 482:2 483:1 493:9 499:2 500:1 501:1 503:1 507:1 512:1 526:2 535:1 536:1 540:3 560:2 571:1 573:3 579:1 581:1 610:1 612:1 625:1 634:3 642:2 654:1 658:1 662:1 677:1 707:1 732:1 735:1 774:1 790:2 803:1 806:1 813:3 851:5 855:1 866:5 884:1 902:1 906:2 937:1 965:1 980:3 987:1 990:1 995:1 999:1 1014:2 1031:5 1033:1 1037:2 1046:1 1084:1 1129:1 1192:1 1200:1 1208:1 1210:1 1233:2 1269:6 1277:1 1288:1 1296:1 1304:1 1326:1 1330:1 1359:3 1391:1 1395:2 1412:1 1428:1 1483:1 1489:1 1490:1 1536:2 1544:1 1562:1 1563:1 1576:1 1577:3 1581:3 1612:1 1635:1 1638:1 1644:1 1656:2 1673:1 1678:4 1715:1 1720:3 1774:1 1782:1 1802:1 1840:1 1843:1 1872:1 1895:7 1901:3 1963:3 1976:7 1980:1 1987:2 2087:2 2120:3 2146:1 2147:1 2273:4 2283:1 2316:23 2324:2 2351:1 2360:1 2361:1 2365:1 2381:1 2408:1 2415:1 2591:3 2596:1 2605:1 2658:1 2681:2 2711:1 2728:2 2734:1 2744:2 2765:1 2791:1 2811:2 2853:1 2860:1 2897:1 2906:1 2920:1 2924:1 2946:1 2989:1 3004:1 3006:1 3007:1 3008:1 3009:1 3010:1 3011:1 3012:1 3013:1 3014:1 3015:1 3016:1 3017:1 3018:1 3019:1 3020:1 3021:1 3022:1 3023:1 3024:1 3025:1 3026:4 3027:1 3028:1 3029:1 3030:1 3031:2 3032:2 3033:5 3034:1 3035:1 3036:1 3037:1 3038:1 3039:2 3040:2 3041:2 3042:1 3043:1 3044:1 3045:1 3046:1 3047:1 3048:1 3049:1 3050:1 3051:1 3052:1 3053:1 3054:1 3055:1 3056:1 3057:1 3058:1 3059:1 3060:1 3061:1 3062:1 3063:1 3064:1 3065:1 3066:1 3067:1 3068:1 3069:2 3070:6 3071:1 3072:1 3073:1 3074:4 3075:1 3076:1 3077:1 3078:1 3079:1 3080:1 3081:1 3082:1 3083:1 3084:3 3085:1 3086:1 3087:1 3088:1 3089:1 3090:1 3091:1 3092:1 3093:1 3094:2 3095:1 3096:1 3097:1 3098:1 3099:1 3100:1 3101:3 3102:1 3103:1 3104:1 3105:1 3106:1 3107:1 3108:1 3109:13 3110:1 3111:1 3112:1 3113:1 3114:1 3115:1 3116:1 3117:9 3118:1 3119:3 3120:1 3121:4 3122:1 3123:3 3124:2 3125:1 3126:2 3127:6 3128:1 3129:1 3130:1 3131:1 3132:5 3133:2 3134:1 3135:1 3136:1 3137:1 3138:1 
0.1085159284747826 11:1 45:2 55:1 119:1 243:1 308:1 503:1 612:1 1182:1 1327:1 1782:1 3138:1 3139:1 
0.01489979962584876 2:2 7:1 12:5 34:1 46:1 55:2 65:1 71:1 96:1 102:5 105:1 110:1 118:1 133:4 143:2 188:4 214:1 224:1 243:2 259:1 265:1 268:1 274:2 281:1 354:2 365:1 375:1 379:1 392:1 413:2 480:1 485:1 494:2 499:3 510:1 526:1 531:3 560:1 571:4 613:1 658:1 667:1 732:1 760:1 781:1 790:1 887:1 1077:1 1120:1 1177:1 1231:1 1271:1 1284:1 1288:1 1347:1 1752:1 1799:1 1848:1 1997:1 2076:1 2394:1 2414:2 2583:1 3140:1 3141:1 3142:2 3143:1 3144:1 3145:1 3146:1 3147:1 3148:1 3149:1 3150:2 3151:1 3152:1 
0.002314671781100049 1:1 12:4 26:1 34:1 35:2 42:1 51:1 62:1 65:3 71:1 77:3 96:1 100:4 101:2 102:3 108:1 110:3 121:1 133:3 143:5 146:1 151:4 181:5 184:1 188:7 215:2 217:1 224:1 227:1 229:1 231:1 236:1 243:1 246:1 250:1 259:1 263:6 268:1 270:1 274:1 278:1 291:1 292:2 296:1 301:1 310:2 318:1 388:1 419:2 422:1 433:1 469:1 471:1 473:1 493:1 499:1 500:1 501:1 506:1 526:3 531:1 554:1 612:1 618:1 620:2 634:1 639:1 643:1 649:1 797:1 859:1 860:1 884:1 917:1 1184:1 1191:1 1194:1 1200:1 1330:1 1337:2 1342:1 1405:1 1425:1 1442:1 1471:1 1480:1 1513:3 1539:1 1570:1 1761:2 2351:1 2839:1 2852:3 2886:1 3159:1 3160:1 3161:1 3162:1 3163:1 3164:1 3165:1 3166:1 3167:1 3168:1 3169:1 3170:1 3171:1 3172:1 3173:1 3174:2 3175:1 3176:2 3177:1 3178:1 3179:1 
0.004082524445893974 102:1 110:1 118:1 121:1 133:1 144:2 166:1 281:1 292:1 526:1 1084:1 1109:1 1641:1 1736:1 1780:1 2768:1 3180:1 3181:1 3182:1 3183:1 3184:1 3185:1 3186:2 
0.04403110728683308 1:1 7:1 35:2 42:2 65:1 71:1 77:1 101:1 105:1 113:1 121:1 133:1 143:1 151:1 173:1 181:1 188:3 214:1 259:1 268:4 289:1 332:1 342:1 347:1 354:1 439:1 469:1 501:2 571:3 777:2 866:3 939:1 1109:1 1796:1 3123:1 3222:1 3223:1 3224:1 3225:1 3226:1 3227:1 3228:1 3229:1 
0.03540710650709824 2:1 7:1 12:2 42:2 71:1 102:1 143:3 154:1 188:2 257:1 268:1 281:1 332:1 354:1 374:2 393:2 803:1 1137:1 1223:1 1767:1 1791:1 1798:1 1972:1 1977:1 2061:1 2477:1 3251:1 3318:1 3319:1 3320:1 
0.07626084225731374 7:1 13:1 46:1 65:1 71:1 110:2 113:1 135:1 143:1 150:1 261:1 268:1 355:1 365:1 374:1 475:1 501:1 510:2 720:1 759:1 1170:1 1182:1 1750:1 3127:1 3321:1 3322:1 3323:1 3324:1 3325:1 3326:1 
0.03071868702184053 7:1 12:1 42:1 105:3 110:1 113:1 118:1 143:1 151:2 185:1 231:2 259:1 287:1 407:1 501:1 506:1 582:1 720:1 887:1 907:1 995:1 1789:1 1880:1 1886:1 1894:1 1895:1 1900:1 
0.004467455688296148 7:1 12:3 26:2 32:1 42:3 55:1 65:1 95:1 101:1 102:5 105:3 108:2 110:2 133:8 135:1 143:11 144:2 146:1 150:3 151:1 184:2 187:1 188:2 204:1 207:1 211:1 221:1 224:1 231:1 236:1 242:1 248:1 274:1 281:1 287:4 292:1 369:1 388:1 392:1 405:1 407:1 413:1 428:1 451:2 494:1 624:4 642:1 709:1 720:1 832:1 895:1 991:1 1114:1 1128:1 1204:1 1212:1 1226:2 1288:3 1391:2 1576:1 1604:1 1682:1 1796:1 2120:1 2273:1 2284:2 2309:2 2468:1 2501:2 2649:1 2886:1 3083:1 3327:1 3328:1 3329:1 3330:1 3331:1 3332:1 3333:1 3334:1 3335:1 3336:1 3337:1 3338:3 3339:1 3340:1 3341:1 3342:1 3343:1 3344:2 3345:1 3346:1 3347:6 3348:1 3349:1 3350:1 3351:1 3352:1 3353:1 3354:1 3355:2 
0.007557712666303579 1:1 12:8 26:3 35:2 42:1 65:1 71:1 75:2 83:2 102:9 105:3 110:4 118:7 133:2 143:9 146:1 148:2 150:1 151:2 167:1 181:1 184:4 188:6 207:1 215:4 224:1 229:2 231:1 236:2 242:1 243:2 248:2 263:4 268:3 287:1 292:3 337:3 345:3 355:4 374:1 392:1 445:1 451:2 487:1 510:1 526:1 538:1 553:2 554:1 571:1 572:1 574:1 612:1 642:2 650:1 686:2 725:1 729:3 786:1 812:1 831:1 893:5 1031:1 1073:1 1076:2 1099:1 1161:1 1183:1 1218:1 1233:2 1278:1 1288:2 1322:1 1373:1 1432:1 1441:1 1469:1 1489:3 1856:1 1976:2 2067:1 2102:1 2178:1 2244:1 2329:1 2362:1 2870:1 2900:1 2918:1 3105:1 3152:1 3356:7 3357:1 3358:1 3359:1 3360:2 3361:1 3362:1 3363:1 3364:2 3365:1 3366:7 3367:1 3368:1 3369:1 3370:1 3371:3 3372:1 3373:1 3374:1 3375:2 3376:1 3377:1 3378:2 3379:1 3380:1 3381:1 3382:1 3383:1 3384:2 3385:1 3386:1 3387:1 3388:1 3389:1 3390:3 3391:1 3392:1 3393:1 3394:1 
0.001380045836535667 12:1 13:1 21:1 26:1 35:1 42:2 47:5 50:1 62:1 65:11 102:4 105:1 110:1 111:1 119:2 120:2 127:1 135:1 143:3 181:1 287:1 292:1 313:4 332:1 407:1 485:1 486:1 500:1 510:1 533:1 671:1 686:2 757:3 765:3 766:1 779:7 841:1 855:1 922:3 1086:3 1143:2 1186:1 1425:1 1465:2 1662:1 1782:1 2076:1 2273:1 2293:1 2380:1 2494:1 2657:4 2708:1 2834:1 2900:1 2902:1 3018:1 3109:1 3117:1 3394:1 3403:1 3404:2 3405:1 3406:1 3407:3 3408:2 3409:1 3410:1 3411:2 3412:2 3413:1 3414:5 3415:6 3416:2 3417:1 3418:1 3419:2 3420:1 3421:1 3422:1 3423:2 3424:2 3425:1 
0.01185300191931062 12:3 35:1 42:3 65:5 77:1 101:1 105:1 126:1 133:4 143:6 146:1 151:1 154:1 181:2 187:1 188:6 210:1 261:1 268:3 281:1 316:1 332:1 347:1 355:3 388:1 399:2 400:1 407:1 416:1 434:1 435:1 454:1 482:2 488:1 501:1 526:1 531:1 536:2 560:1 571:2 650:2 720:1 803:1 852:1 853:1 859:1 936:1 942:1 1114:1 1204:1 1219:1 1223:1 1262:1 1300:1 1628:3 1630:2 1638:1 1720:2 1815:1 1949:1 2479:1 3426:1 3427:1 3428:1 3429:1 3430:1 
0.008657775729935539 12:5 26:2 29:1 35:2 41:1 42:5 54:1 55:1 65:5 71:3 82:1 84:1 95:1 96:1 101:1 102:2 105:7 108:2 110:3 113:1 125:1 133:5 143:13 144:2 151:3 159:2 181:2 185:3 188:1 194:1 199:3 207:2 236:1 243:1 259:1 261:1 263:2 268:2 272:2 281:1 287:1 292:2 307:1 355:1 366:4 379:2 381:1 404:2 427:1 451:1 483:1 485:1 501:1 523:1 526:1 545:1 560:1 610:2 612:1 654:1 663:1 686:1 688:1 720:1 738:2 798:4 1017:1 1182:1 1276:1 1327:1 1431:1 1488:1 1563:1 1567:1 1600:1 1781:1 1890:1 1947:1 2128:1 2134:1 2149:1 2162:2 2346:1 2534:1 2709:1 2768:1 2886:1 3431:1 3432:1 3433:5 3434:2 3435:1 3436:1 3437:1 3438:1 3439:1 3440:1 3441:2 3442:1 3443:1 3444:2 3445:1 3446:1 3447:1 3448:2 3449:1 3450:1 3451:1 3452:1 
0.0002724656052456757 12:1 42:1 101:2 102:1 105:1 133:2 143:1 151:2 187:1 188:1 199:1 207:1 243:1 263:1 268:1 272:2 278:1 292:1 352:1 493:2 499:1 612:1 634:1 642:1 749:1 752:1 806:1 839:1 942:1 1153:1 1218:1 1324:1 1428:1 1623:1 2059:1 2839:1 3480:1 3481:1 3482:1 3483:1 3484:1 3485:1 3486:1 
0.01093010752259134 71:1 96:1 143:1 150:1 151:1 230:1 244:3 253:2 274:1 281:1 287:1 337:1 374:3 451:4 475:4 478:1 485:2 535:1 670:1 671:1 691:1 893:1 908:4 1014:1 1033:2 1057:1 1184:1 1192:1 1260:1 1302:1 1382:1 1580:1 1612:1 1622:1 1782:3 1854:1 2273:1 2280:1 2316:2 2330:1 3017:1 3229:1 3292:1 3493:3 3502:1 3503:2 3504:1 3505:1 3506:1 3507:2 3508:1 3509:1 3510:1 3511:1 3512:3 3513:1 3514:1 3515:3 3516:1 3517:1 3518:1 3519:1 3520:1 3521:1 3522:1 3523:3 3524:1 3525:3 3526:1 
0.01049575772348443 26:1 32:1 35:1 42:2 55:2 62:1 102:2 105:1 108:1 110:1 133:1 143:2 144:1 150:4 151:2 173:1 177:1 188:1 204:2 215:1 243:2 268:1 281:2 289:1 292:1 325:1 342:1 440:1 482:1 624:1 634:1 691:1 849:2 966:2 991:1 1014:1 1033:2 1120:1 1225:1 1603:5 1739:1 1784:4 1787:5 2067:1 2176:1 2334:1 2390:2 2403:1 2801:1 3030:1 3487:2 3527:1 3528:1 3529:1 3530:3 3531:2 3532:1 3533:1 3534:1 3535:1 3536:1 3537:1 3538:1 3539:1 3540:1 
0.008865212819933379 10:1 12:3 13:2 21:1 35:1 42:1 46:2 47:3 55:4 62:2 65:2 102:1 105:1 110:2 115:1 118:2 133:7 135:1 143:2 144:2 146:1 151:4 184:3 187:1 188:11 194:1 214:1 216:1 224:1 227:1 230:1 236:1 259:1 261:2 263:1 268:2 274:4 280:1 281:2 287:3 292:1 301:1 321:1 332:1 344:1 349:1 366:2 374:1 390:2 404:1 407:1 501:1 510:1 511:1 536:2 571:1 617:1 671:1 707:1 714:1 848:1 855:1 957:2 985:2 1037:1 1128:1 1160:1 1170:1 1182:1 1226:1 1269:1 1283:1 1288:1 1300:1 1317:3 1359:1 1366:1 1378:1 1593:1 1596:1 1752:1 1753:2 1761:1 2076:1 2137:1 2200:1 2239:1 2316:1 2369:1 2659:1 3147:1 3559:1 3581:1 3582:1 3583:1 3584:3 3585:1 3586:1 3587:1 3588:1 3589:1 3590:1 3591:1 3592:1 3593:1 3594:1 3595:1 3596:1 3597:1 3598:1 3599:4 3600:1 3601:1 3602:1 3603:2 3604:1 3605:1 
0.001697343909808352 12:5 33:1 42:1 60:2 65:5 102:1 105:1 108:1 113:1 115:3 117:3 118:1 124:1 133:1 143:7 154:1 181:1 188:4 214:1 280:1 292:1 319:1 332:1 333:3 337:2 345:1 354:1 378:1 379:1 404:1 413:1 451:1 457:1 521:1 526:1 639:1 688:1 714:2 732:1 765:2 803:1 828:1 962:1 966:1 1640:1 1780:1 2076:1 2206:1 2274:1 2580:1 3101:1 3416:1 3448:1 3594:1 3606:1 3607:1 3608:1 3609:2 3610:1 3611:1 3612:1 3613:1 3614:1 3615:1 3616:1 3617:1 3618:2 3619:1 3620:2 3621:1 3622:1 3623:1 3624:1 3625:1 
0.01375036370600039 12:5 26:1 42:1 55:1 65:1 102:1 105:2 113:1 133:4 143:3 151:1 163:1 181:1 187:2 188:4 216:2 236:1 259:1 278:1 295:1 333:1 338:1 345:1 354:1 355:2 404:1 458:1 484:1 494:1 526:2 531:1 536:2 542:1 599:1 642:1 678:3 686:1 766:1 769:1 961:1 1014:1 1201:1 1576:1 1646:1 1762:1 1898:4 2453:1 2600:1 3535:1 3626:2 3627:1 3628:2 3629:1 3630:1 3631:1 3632:1 3633:2 3634:1 3635:1 3636:1 3637:1 3638:1 3639:1 3640:1 3641:3 3642:1 
0.01545399588731323 12:1 45:1 71:1 133:1 231:1 243:1 307:1 347:1 363:1 473:1 499:1 565:1 612:1 757:1 762:2 981:1 1044:1 2741:1 3840:1 3841:1 3842:1 3843:1 3844:1 3845:1 3846:1 3847:1 3848:1 
0.003764476498145813 1:1 7:1 12:3 13:1 21:1 42:2 54:1 55:2 65:2 71:1 77:2 102:3 105:3 111:1 113:1 133:4 135:2 143:4 184:3 187:1 188:3 194:1 214:1 243:1 261:1 268:1 287:1 312:2 332:1 354:1 366:3 369:1 413:1 494:1 500:1 501:1 540:1 550:1 571:1 712:2 720:1 757:1 766:1 767:1 779:1 1000:1 1003:1 1046:1 1156:1 1296:1 1330:1 1360:1 1480:1 1640:1 1795:2 2609:1 3661:1 3865:2 3866:1 3867:2 3868:1 3869:1 3870:1 3871:2 3872:1 3873:1 3874:1 3875:1 3876:1 3877:1 3878:1 3879:1 3880:1 3881:1 
0.04526063479406001 7:1 13:1 65:1 113:1 143:1 150:1 173:1 184:1 229:1 261:1 319:1 337:1 345:1 457:1 634:1 709:1 769:1 803:1 916:1 1001:1 1031:1 1091:1 1186:1 2879:1 2911:1 3916:1 3917:1 3918:2 3919:1 3920:2 3921:1 3922:1 3923:1 3924:1 3925:1 3926:1 3927:1 3928:1 3929:1 3930:1 3931:1 
0.04143421681251911 7:1 12:2 42:1 47:1 55:1 65:1 92:1 113:1 150:1 165:1 173:1 187:1 188:1 189:1 291:1 313:1 338:1 354:1 365:1 371:1 395:1 493:3 521:1 539:1 686:1 767:1 779:1 907:1 990:1 1949:1 2296:1 2657:1 4034:1 4035:1 4036:1 4037:1 4038:1 4039:1 
0.00700402258804496 7:1 12:4 15:3 26:1 32:1 35:3 42:1 62:1 65:3 95:1 101:1 102:3 105:1 108:2 110:2 118:1 130:1 133:4 143:1 144:1 151:1 156:1 165:1 181:1 184:2 185:1 188:3 229:1 236:1 257:1 263:1 264:1 268:2 274:1 278:1 281:2 285:1 365:1 368:1 369:1 374:1 388:1 393:1 399:1 400:1 404:1 413:1 416:1 425:1 433:1 438:1 447:1 450:1 488:1 517:1 581:1 585:1 595:2 628:1 709:1 732:1 987:1 1005:1 1064:2 1086:1 1177:3 1214:1 1262:1 1300:3 1382:1 1571:1 1697:1 1782:1 2181:1 2182:3 2286:1 2591:1 2662:1 2665:1 2860:2 2886:1 3070:2 3259:3 3824:1 4046:1 4047:1 4048:1 4049:1 4050:1 4051:1 4052:1 4053:1 4054:1 4055:1 4056:1 4057:2 4058:1 4059:1 4060:1 4061:1 
0.01561608193997267 2:1 7:1 12:2 13:1 26:1 42:1 46:1 47:1 62:1 65:1 75:1 96:1 102:2 105:1 110:1 133:2 135:1 143:4 173:1 188:1 243:1 259:1 280:1 281:1 287:1 321:1 339:1 344:1 349:1 350:1 369:1 393:1 407:1 612:1 671:1 691:1 695:1 720:1 803:1 887:1 939:1 1497:1 1571:1 1799:1 1976:1 2120:1 2155:1 2220:1 2422:1 2527:1 2574:1 2588:1 2610:1 2890:1 3018:1 3188:1 3690:1 3886:2 4032:1 4062:1 4063:1 4064:1 4065:1 4066:1 4067:1 4068:1 4069:1 4070:2 4071:1 
0.01331966831083057 1:1 12:7 25:1 26:6 35:5 42:1 45:2 46:1 55:1 62:1 65:3 77:1 82:1 83:1 96:1 102:3 105:7 108:6 110:1 113:1 117:1 118:1 121:1 133:7 143:12 144:2 146:2 148:1 151:6 167:1 173:2 181:1 182:1 184:2 187:2 188:6 211:4 217:1 222:1 236:4 243:2 248:1 259:3 261:1 263:1 268:5 274:2 278:1 287:7 292:10 297:1 301:3 305:1 310:3 337:1 339:1 342:1 392:5 404:1 414:2 422:1 471:1 493:2 499:1 500:1 501:2 531:1 536:1 538:2 545:1 553:1 554:2 582:2 586:1 588:3 612:1 627:3 634:2 642:1 643:1 649:1 650:2 667:2 674:1 688:1 703:1 762:1 794:1 797:1 803:1 851:2 855:2 860:1 868:2 893:1 942:1 995:1 1010:1 1017:1 1028:1 1067:1 1088:1 1157:1 1192:1 1208:1 1212:1 1269:2 1488:1 1497:1 1550:1 1610:1 1612:3 1616:1 1678:1 1744:1 1752:1 1825:1 1995:1 2033:1 2067:1 2335:1 2583:2 2816:1 3026:1 3035:1 3074:1 3111:1 3138:1 3143:1 3545:1 3580:1 3643:1 3715:1 4025:3 4116:1 4117:1 4118:1 4119:1 4120:1 4121:1 4122:1 4123:1 4124:1 4125:1 4126:1 4127:1 4128:2 4129:1 4130:1 
0.01481676388139026 1:1 7:1 12:3 13:1 35:1 42:1 54:1 55:4 65:5 69:1 76:1 96:5 101:3 102:6 105:4 110:3 115:2 133:2 135:1 136:1 143:10 150:1 188:1 243:1 274:1 319:1 355:1 418:1 485:1 634:1 686:2 747:1 765:1 798:1 806:1 1037:1 1414:1 1435:1 1501:1 1684:1 1770:1 1980:1 2067:1 2076:1 2132:1 2181:1 2193:1 2247:1 2494:1 2536:1 2652:1 2831:1 3211:2 3254:1 4170:1 4171:3 4172:1 4173:1 4174:1 4175:1 4176:1 4177:1 4178:1 4179:1 4180:1 4181:1 4182:1 4183:2 4184:1 4185:1 4186:1 4187:3 4188:1 4189:1 4190:1 4191:1 4192:1 4193:1 4194:1 4195:1 4196:1 
0.01682299284227141 7:1 42:1 65:3 133:3 135:1 143:1 150:1 187:1 188:3 215:1 224:1 243:1 261:1 274:1 281:1 287:2 332:1 353:1 354:1 388:1 501:1 658:1 707:1 1056:1 1082:1 1359:1 1450:1 1753:1 1782:1 1854:1 2128:2 2146:1 2273:1 3432:2 4287:1 4288:1 4289:1 4290:1 4291:1 4292:2 4293:1 
0.0135792315026086 10:1 12:1 26:1 55:1 62:1 65:4 77:1 102:2 105:2 108:1 110:2 118:1 133:5 143:9 150:2 151:3 153:1 173:2 181:1 188:2 207:1 214:1 242:1 243:1 248:1 253:1 263:1 268:2 291:1 404:1 407:2 413:1 493:1 515:1 526:1 530:1 544:1 571:1 612:1 627:1 636:1 649:1 658:1 688:1 709:1 736:1 757:1 855:1 893:1 1160:1 1188:1 1366:1 1384:1 1535:1 1706:1 1858:1 2135:1 2316:1 2331:1 2357:1 2659:1 2822:1 3532:2 3646:1 3704:1 3888:2 3893:1 3900:2 3903:1 3904:2 3909:1 3913:1 3915:1 3989:1 4352:1 4353:1 4354:1 4355:1 4356:1 4357:1 4358:1 4359:1 4360:1 4361:1 4362:1 4363:1 4364:1 4365:1 4366:2 4367:1 
0.03651884387446279 10:1 12:1 46:1 105:1 143:1 146:1 188:2 236:1 243:2 258:1 272:1 301:1 316:1 499:1 536:1 553:1 582:1 978:1 1229:1 1612:1 2056:1 2234:1 3278:1 4433:1 4434:1 4435:1 
0.04313026231845033 7:1 9:1 12:1 42:1 62:1 65:4 71:2 108:2 110:1 113:2 133:3 143:4 146:2 181:1 187:1 188:5 208:1 224:1 227:1 235:2 236:1 246:1 248:1 261:2 263:1 268:1 281:1 287:1 292:1 301:1 332:1 345:1 354:1 355:1 366:3 369:1 390:1 404:1 413:2 416:1 425:1 493:1 501:1 535:1 538:1 574:1 595:2 674:1 688:1 720:1 803:1 1047:1 1128:1 1208:1 1374:1 1501:1 1753:1 1793:1 2070:1 2120:1 2244:1 2734:1 2811:1 2816:1 3236:1 3416:1 3715:1 4436:1 4437:1 4438:1 4439:1 4440:1 4441:1 4442:2 4443:1 
0.015113191906248 2:1 7:1 10:1 12:4 25:1 35:1 42:2 55:2 65:1 90:1 96:1 102:3 105:2 108:2 110:3 113:1 118:3 121:1 133:5 143:5 148:1 151:1 166:1 173:1 177:1 185:1 187:1 188:1 229:2 259:1 261:1 268:2 286:1 287:1 345:1 366:1 392:1 405:2 494:2 499:1 510:1 521:1 536:1 570:1 581:2 595:1 627:1 650:1 686:2 732:1 765:2 798:1 803:1 852:1 966:1 1019:1 1046:1 1086:1 1188:2 1212:1 1338:1 1632:2 1799:1 1901:1 2116:1 2279:1 2281:1 2568:1 2662:1 3545:1 3569:1 3651:1 4373:1 4450:1 4451:2 4452:1 4453:1 4454:1 4455:1 4456:1 4457:1 4458:1 4459:1 4460:3 
0.007799728011876185 1:1 7:1 12:8 26:2 35:2 42:1 46:1 59:2 65:11 71:2 75:1 90:2 101:1 102:7 105:5 108:2 110:5 113:1 118:4 133:5 143:31 144:4 146:3 151:7 184:2 185:1 187:1 188:8 189:1 215:1 229:1 231:1 232:1 236:1 243:3 257:3 259:2 261:2 263:1 268:4 274:1 281:3 285:2 287:3 319:1 337:1 345:1 353:1 355:3 376:1 392:3 393:6 405:1 407:1 413:1 425:1 447:1 494:1 499:7 501:2 508:1 517:1 531:4 536:2 540:1 571:2 594:1 595:8 599:11 627:1 628:1 634:1 642:1 649:1 650:1 686:1 765:1 803:1 896:1 997:1 1037:1 1060:2 1116:1 1126:1 1138:1 1212:1 1233:1 1328:1 1338:1 1391:1 1414:1 1431:2 1551:2 1565:1 1592:1 1640:1 1741:4 1843:2 2186:4 2266:1 2277:3 2284:2 2387:2 2415:1 2534:1 2591:1 2709:1 2739:1 2861:2 2897:1 3070:2 3334:2 3795:1 3897:1 4257:1 4461:1 4462:1 4463:3 4464:1 4465:1 4466:2 4467:1 4468:1 4469:1 4470:1 4471:6 4472:1 4473:2 4474:1 4475:1 4476:1 4477:3 4478:2 4479:1 4480:1 4481:1 4482:1 4483:1 4484:1 4485:2 4486:2 4487:1 4488:1 
0.006375565086908262 7:1 11:1 12:4 35:4 42:2 55:1 62:1 65:4 71:1 77:2 102:3 105:1 110:5 113:1 121:1 133:7 143:10 144:1 146:1 150:1 151:1 170:1 181:2 185:1 188:6 208:1 215:2 227:2 236:2 248:1 258:1 261:1 265:1 268:2 281:2 287:2 291:3 301:1 345:1 366:3 368:2 374:1 378:2 407:2 420:1 434:1 475:4 478:2 483:1 485:1 494:1 501:2 526:1 536:1 546:4 570:1 624:1 654:1 720:1 797:1 803:1 853:1 924:2 966:1 977:3 1053:1 1212:2 1214:1 1226:3 1317:1 1501:1 1615:2 2059:1 2219:1 2746:1 3078:1 3154:2 3206:1 3829:1 4509:1 4510:1 4511:1 4512:1 4513:1 4514:1 4515:1 4516:1 4517:1 4518:3 
0.01142703904781853 1:1 7:1 11:1 12:5 13:1 32:1 34:2 42:3 46:1 51:2 55:2 71:3 101:1 105:5 110:3 113:3 121:1 133:3 143:5 144:1 146:1 150:2 151:1 181:1 184:1 185:1 187:1 188:2 224:1 231:2 236:2 243:1 261:1 274:1 337:2 338:1 349:1 350:1 390:1 393:2 457:1 469:1 485:1 499:1 501:1 521:1 526:1 531:3 535:1 571:6 625:2 627:1 630:3 642:1 659:1 760:2 777:1 781:1 784:1 803:1 851:1 980:1 996:1 1074:3 1109:2 1186:1 1246:1 1271:1 1335:1 1522:1 1641:5 1846:2 1851:2 1936:1 1970:1 2051:2 2076:1 2700:1 2709:1 2860:1 3145:1 3188:1 3588:1 3727:1 4527:2 4529:4 4536:2 4573:1 4574:1 4575:1 4576:1 4577:1 
0.006026710288570536 12:1 55:1 62:2 65:1 77:1 102:4 105:3 110:1 111:1 133:3 135:1 136:1 143:9 144:1 150:2 151:1 178:1 204:1 243:2 250:1 268:1 287:2 292:2 345:1 404:1 451:1 458:1 488:1 531:1 571:11 579:1 720:1 965:2 1009:2 1013:11 1014:11 1056:1 1132:1 1204:2 1226:4 1391:2 1501:1 1774:1 1802:1 1899:2 1996:1 2741:1 2897:1 2962:1 3334:2 4057:2 4160:1 4162:1 4167:2 4249:1 4340:1 4578:1 4579:1 4580:1 4581:1 4582:1 4583:1 4584:1 4585:1 4586:1 4587:1 4588:1 4589:1 4590:1 4591:1 4592:1 4593:1 4594:1 4595:1 
0.01586017138807016 12:2 65:1 71:2 83:1 108:1 109:1 110:1 118:1 121:1 143:4 144:1 146:1 151:2 163:1 165:1 184:2 188:2 263:1 316:2 455:1 471:1 483:1 510:1 573:1 609:1 613:1 634:2 720:1 733:2 767:1 834:1 1169:1 1204:1 1215:1 2316:1 2743:1 3225:1 3555:1 4609:1 4610:1 4611:1 4612:1 4613:1 4614:1 4615:1 4616:1 4617:1 4618:1 4619:1 
0.04247779972643398 7:1 10:1 12:2 13:1 26:3 46:2 55:1 65:1 75:1 102:2 105:1 108:1 110:1 113:1 133:1 135:1 143:2 144:3 151:1 183:1 187:1 188:3 214:1 224:1 230:1 265:2 268:1 274:2 281:1 285:1 287:3 295:1 338:1 339:1 340:1 345:1 366:1 392:1 494:1 499:1 501:1 521:1 536:1 720:1 781:1 887:1 1037:1 1177:1 1214:1 1328:1 1600:1 1747:1 1752:1 4380:1 4620:1 4621:1 
0.0107702246364703 2:1 12:2 42:2 62:1 65:2 71:1 75:1 105:1 110:1 113:1 115:1 133:3 143:2 146:1 188:1 207:1 242:1 243:1 253:1 261:1 280:9 287:5 296:2 323:15 332:1 354:1 355:1 378:1 407:4 571:12 611:6 639:1 720:1 731:1 767:1 776:6 908:2 911:1 957:1 1001:1 1013:4 1060:1 1204:1 1210:1 1223:1 1276:2 1378:1 1755:3 1789:1 2238:3 2316:6 2413:1 2414:1 2523:1 2526:2 2533:1 2534:3 3127:1 4093:1 4622:1 4623:1 4624:2 4625:1 4626:1 4627:1 4628:2 4629:1 4630:1 4631:2 4632:1 4633:1 4634:1 4635:1 4636:4 4637:1 4638:1 4639:1 4640:1 4641:2 4642:2 4643:1 4644:1 4645:1 4646:1 4647:1 4648:2 4649:1 4650:4 4651:1 4652:1 
0.03071299887755347 26:1 35:1 42:3 54:1 65:1 71:1 102:1 105:1 110:2 113:1 118:3 146:1 151:3 188:1 194:1 207:1 222:1 231:2 253:1 259:1 287:1 291:1 292:2 316:2 332:1 333:1 345:1 351:2 355:1 379:1 407:1 455:1 485:1 501:1 536:1 560:2 571:3 572:1 612:3 659:1 670:2 693:1 720:1 801:1 864:1 865:2 866:1 868:1 870:1 871:1 873:2 874:1 875:1 879:1 880:1 882:1 883:1 884:1 886:1 887:1 888:1 891:1 893:1 963:2 1276:1 1368:2 1414:1 1488:2 1707:1 2657:1 2825:1 3617:1 4653:1 4654:1 4655:1 4656:2 4657:1 4658:2 4659:1 4660:2 4661:2 4662:1 4663:2 4664:1 
0.002644172995996623 7:1 11:1 42:2 55:1 65:1 102:1 133:1 143:2 144:1 146:1 150:1 184:1 187:1 188:3 199:1 268:1 304:1 332:1 338:1 407:1 411:1 427:2 501:1 521:1 536:2 634:1 674:1 803:1 1087:1 1275:1 2052:1 2394:1 2771:1 4788:1 4789:1 4790:1 
0.003981776659372299 12:3 13:1 35:1 42:1 46:1 55:1 65:4 102:3 105:1 110:5 113:2 121:1 133:5 136:2 143:8 144:1 146:1 150:2 151:1 184:1 194:1 213:1 236:1 256:1 259:1 263:1 268:3 278:3 281:1 291:1 379:1 416:1 451:1 458:1 474:1 526:1 611:1 620:1 633:1 650:1 654:1 666:1 689:1 720:1 747:1 811:1 852:2 938:1 1005:1 1192:1 1204:1 1218:1 1288:6 1360:1 1391:2 1661:1 2076:1 2334:1 2803:1 3448:1 4097:1 4102:1 4248:1 4791:1 4792:1 4793:1 4794:3 4795:2 4796:1 4797:1 4798:1 4799:1 4800:1 4801:2 4802:1 4803:1 4804:2 4805:2 4806:1 4807:1 4808:1 4809:3 
0.01708006607685684 7:1 12:2 13:1 46:1 65:1 102:2 110:2 113:1 133:1 150:2 185:1 188:1 229:1 259:1 281:1 287:1 292:1 337:1 451:1 474:1 485:1 501:1 560:1 666:1 708:1 760:1 1074:1 1292:1 2076:1 2414:1 2803:1 3448:1 3829:1 4088:1 4792:1 4796:1 4799:1 4800:1 4802:1 4804:2 
0.01603114487583828 35:1 42:2 110:3 133:2 143:2 243:1 268:1 274:1 281:1 357:1 413:1 488:1 560:1 580:1 595:1 658:1 831:1 855:1 887:1 961:1 1169:1 1373:1 1414:1 1598:1 1780:1 2334:1 2379:2 3255:1 4577:1 4877:1 4878:1 
0.04818951373357962 7:1 12:1 102:2 110:3 115:1 118:1 137:1 143:3 151:1 185:1 188:3 215:1 224:1 236:1 248:1 261:1 263:1 281:1 287:1 337:1 376:1 404:1 482:2 485:1 634:1 896:1 1028:1 1046:1 1277:1 1442:1 1489:1 1563:1 1704:1 1753:1 2102:1 2870:1 4879:1 4880:1 4881:1 
0.005784715222075945 12:4 13:1 63:1 102:3 110:1 115:1 133:1 143:4 151:1 156:1 183:1 184:1 188:1 224:1 227:1 230:2 307:1 355:1 366:1 383:1 407:3 445:1 484:1 612:1 650:1 688:1 851:1 876:1 1129:1 1192:1 1308:1 1410:1 1413:1 1501:1 1622:2 1627:2 1901:1 2110:1 2204:1 2528:1 3119:1 3492:1 3493:1 3501:1 4218:1 4882:2 4883:1 4884:1 4885:1 4886:1 4887:1 4888:2 4889:1 4890:1 4891:2 4892:2 4893:1 4894:1 4895:1 4896:1 
7.381648384232389e-05 1:18 2:14 5:1 7:1 9:18 10:2 11:3 12:134 13:11 14:1 15:4 20:2 21:20 26:16 30:1 32:4 33:1 34:4 35:42 37:1 38:5 42:156 45:1 46:1 47:19 48:1 50:22 51:6 52:7 53:1 54:46 55:35 59:1 60:7 62:28 65:163 67:4 70:1 71:45 72:2 73:1 75:5 77:9 82:1 83:8 84:13 87:2 89:4 90:3 92:6 94:2 95:5 96:10 99:2 101:32 102:207 105:114 106:3 107:3 108:37 109:1 110:108 111:2 113:6 115:16 116:7 118:46 119:1 120:1 121:21 126:5 128:11 129:1 130:6 131:23 132:2 133:184 134:1 135:16 136:11 137:8 141:1 143:247 144:25 145:2 146:24 147:5 148:4 150:45 151:76 153:1 154:2 156:15 157:1 158:1 160:1 161:3 163:3 165:11 167:1 168:1 170:5 171:1 172:1 173:27 174:3 176:5 177:1 178:6 179:1 181:17 183:6 184:44 187:10 188:47 190:1 194:11 196:1 197:1 199:3 204:5 208:8 211:9 213:3 214:9 215:9 216:11 217:7 218:7 220:3 222:1 224:5 225:3 226:1 227:8 229:6 230:46 231:10 233:2 235:8 236:12 241:10 242:1 243:75 244:1 245:2 247:3 248:1 250:2 256:1 257:9 258:3 259:16 261:1 262:3 263:9 265:11 268:39 274:1 278:10 280:1 281:51 285:2 286:1 287:13 289:30 290:5 291:22 292:52 295:2 296:1 301:4 303:1 304:7 307:12 308:10 309:1 310:1 311:8 312:1 313:17 314:7 315:1 316:11 317:1 319:8 321:1 322:4 323:8 325:2 326:1 329:1 330:1 331:1 332:1 333:9 336:1 337:17 339:1 340:13 342:11 343:1 344:2 345:62 347:8 349:2 351:16 352:1 354:1 355:43 358:8 362:11 363:2 364:2 366:17 368:3 369:1 370:7 371:9 374:17 378:4 379:1 381:2 384:6 388:4 389:6 390:7 391:1 392:7 393:44 396:1 400:2 404:13 405:5 407:43 408:5 409:2 410:1 413:17 414:8 416:4 419:2 422:3 423:3 425:1 427:2 428:5 433:13 435:1 439:1 440:2 445:2 446:10 447:4 450:2 451:5 455:1 457:9 458:2 469:3 471:2 473:6 474:4 475:1 478:18 479:2 481:1 482:18 483:8 484:10 485:31 486:1 487:1 488:4 489:1 490:3 491:3 493:25 494:2 497:4 499:3 500:5 501:4 504:1 507:1 508:8 510:11 511:8 512:1 513:3 520:2 526:8 528:1 530:1 531:2 533:1 534:1 535:2 536:6 538:2 539:8 542:1 544:2 545:2 546:3 548:1 550:1 553:1 554:12 556:1 558:7 560:6 561:6 562:1 565:5 570:5 571:24 573:3 574:3 576:2 580:17 583:5 588:4 591:1 594:1 595:7 596:4 599:2 603:2 604:2 605:3 609:3 610:3 611:2 612:16 614:2 615:1 617:1 619:1 621:1 623:2 624:5 625:3 627:3 629:1 630:2 633:2 634:20 638:1 642:6 643:2 646:1 647:2 649:2 651:21 654:2 658:18 659:5 662:1 663:1 665:4 667:3 669:1 670:2 671:78 672:1 676:1 677:4 678:1 680:1 684:2 686:5 688:5 691:2 693:3 698:1 701:6 705:5 707:1 708:1 709:1 711:1 714:1 717:2 720:6 722:1 726:2 728:13 729:27 732:6 737:8 742:1 745:1 746:3 747:2 750:1 752:7 753:2 755:6 757:4 759:3 761:1 762:9 764:5 765:2 766:5 767:11 768:8 769:19 771:2 772:3 773:1 774:3 775:3 776:5 778:2 779:2 782:1 784:1 786:1 790:5 798:10 801:27 806:4 809:2 811:3 812:1 814:1 816:2 817:1 818:2 821:4 824:8 828:2 829:1 832:3 841:4 844:9 849:2 851:18 853:1 854:1 855:2 859:1 860:10 864:1 866:6 868:5 869:1 870:1 876:1 879:1 881:3 882:15 884:3 885:1 888:1 891:4 892:6 893:6 896:1 903:1 907:1 912:1 914:1 916:2 917:2 919:8 924:2 928:1 929:2 930:1 935:5 937:1 939:3 942:3 943:1 948:4 951:1 956:6 961:2 965:2 966:2 972:1 976:1 977:3 980:6 981:6 985:3 987:2 990:1 991:3 992:1 995:2 996:4 998:3 999:2 1000:2 1001:1 1003:1 1007:1 1012:1 1013:2 1014:12 1015:2 1017:1 1018:2 1019:4 1021:1 1022:2 1027:1 1028:1 1031:7 1032:8 1033:28 1034:3 1036:2 1037:2 1040:1 1043:2 1044:1 1045:3 1046:2 1048:5 1053:3 1057:4 1059:4 1060:1 1069:3 1076:2 1077:3 1082:3 1084:4 1086:4 1088:4 1097:1 1098:4 1099:1 1103:1 1106:1 1111:1 1114:6 1115:1 1116:1 1119:2 1123:1 1126:1 1128:6 1132:1 1137:2 1138:2 1143:4 1153:3 1160:7 1161:1 1162:2 1170:5 1171:1 1172:5 1175:1 1176:2 1177:3 1180:2 1181:2 1182:5 1183:2 1184:14 1186:19 1188:1 1192:1 1200:1 1201:13 1203:1 1205:2 1212:4 1213:3 1218:1 1226:1 1229:1 1233:15 1234:1 1248:2 1259:1 1269:4 1271:6 1273:1 1276:7 1277:3 1280:5 1283:1 1284:1 1288:7 1294:4 1296:3 1300:9 1304:11 1311:2 1313:14 1315:3 1317:12 1322:3 1330:2 1333:4 1334:2 1337:3 1338:8 1351:1 1363:1 1364:1 1373:1 1374:4 1378:2 1380:8 1381:1 1382:1 1384:1 1385:3 1386:1 1391:3 1393:3 1395:2 1397:5 1400:1 1407:1 1408:1 1409:7 1413:1 1418:10 1419:5 1423:1 1425:4 1427:5 1431:1 1435:8 1441:1 1442:1 1453:1 1460:1 1464:1 1465:3 1466:1 1471:3 1474:2 1482:1 1484:1 1485:1 1488:19 1489:16 1491:5 1499:4 1501:5 1502:1 1507:1 1509:2 1510:1 1513:2 1516:1 1520:2 1522:4 1525:1 1527:1 1535:1 1545:1 1552:1 1558:2 1563:5 1567:7 1569:2 1573:2 1575:1 1576:2 1577:3 1579:1 1583:7 1584:2 1592:2 1596:2 1598:4 1600:2 1602:1 1611:4 1615:3 1616:1 1618:11 1622:3 1627:1 1630:3 1636:2 1640:1 1644:3 1648:10 1651:1 1652:1 1653:1 1666:1 1669:1 1674:2 1678:8 1680:4 1686:1 1687:2 1691:1 1692:8 1697:3 1706:1 1715:6 1718:9 1719:2 1720:6 1723:1 1725:1 1728:2 1730:1 1733:2 1734:1 1739:3 1742:3 1746:1 1747:1 1751:2 1752:9 1753:1 1754:3 1755:4 1759:2 1761:1 1767:3 1772:2 1774:5 1782:1 1783:1 1786:4 1789:2 1793:8 1795:3 1796:2 1799:2 1802:1 1816:1 1824:1 1829:1 1840:1 1854:1 1856:1 1872:4 1878:1 1882:3 1885:3 1889:1 1894:1 1895:6 1898:1 1899:6 1901:1 1906:1 1909:1 1934:4 1935:5 1937:1 1938:1 1943:1 1945:2 1946:1 1947:2 1948:1 1949:1 1958:1 1959:2 1962:1 1963:1 1964:2 1968:6 1970:4 1972:2 1976:3 1977:2 1979:1 1980:2 1987:1 1988:2 1995:1 1997:1 2012:6 2016:1 2029:2 2048:2 2051:5 2053:1 2054:3 2061:1 2064:1 2065:1 2067:1 2071:3 2074:5 2075:1 2076:7 2079:2 2080:2 2087:3 2096:1 2097:1 2098:1 2101:1 2108:1 2110:2 2111:3 2113:2 2120:2 2121:1 2129:1 2131:1 2132:3 2138:2 2139:2 2141:4 2155:4 2159:1 2162:3 2170:2 2172:2 2176:1 2178:1 2179:10 2182:18 2186:1 2188:1 2191:2 2194:2 2200:12 2203:1 2208:4 2209:1 2211:3 2214:1 2220:5 2225:1 2226:1 2228:1 2229:1 2232:1 2235:1 2238:1 2239:3 2240:1 2248:3 2250:3 2255:1 2257:1 2264:2 2270:1 2273:2 2274:1 2278:1 2283:2 2284:5 2286:6 2293:1 2296:1 2302:3 2309:1 2316:10 2324:3 2331:6 2334:4 2341:1 2344:2 2346:1 2351:3 2356:12 2357:1 2360:2 2361:1 2362:1 2365:1 2369:1 2370:2 2381:1 2388:3 2391:1 2394:1 2396:1 2397:1 2403:4 2404:2 2407:1 2408:1 2410:2 2411:3 2414:2 2415:1 2422:1 2435:1 2447:1 2455:1 2457:6 2458:8 2460:2 2464:1 2466:14 2476:2 2479:2 2481:5 2495:2 2497:1 2498:2 2500:1 2503:4 2519:1 2521:1 2522:1 2528:4 2530:1 2534:3 2536:2 2537:1 2539:2 2541:3 2546:1 2550:2 2579:3 2581:1 2590:1 2591:1 2596:1 2600:3 2610:5 2612:1 2615:2 2618:3 2620:2 2634:1 2639:1 2640:1 2647:1 2650:1 2652:1 2653:7 2657:3 2659:8 2663:1 2675:4 2681:5 2683:1 2686:1 2689:1 2697:1 2709:1 2710:1 2739:1 2741:6 2746:4 2774:6 2787:1 2794:2 2797:4 2801:5 2803:2 2812:2 2819:2 2822:2 2824:4 2828:1 2834:4 2835:1 2839:5 2848:11 2851:2 2852:2 2853:1 2860:3 2863:2 2865:1 2868:6 2870:2 2876:1 2879:2 2889:1 2891:2 2894:1 2906:3 2910:2 2911:2 2914:2 2917:1 2941:5 2942:2 2944:1 2945:1 2957:2 2960:10 2962:12 2970:1 2973:1 2991:5 2992:4 2995:1 2999:1 3004:6 3018:1 3020:1 3026:1 3028:3 3029:1 3030:12 3032:1 3040:1 3043:3 3055:1 3059:1 3061:1 3067:1 3069:1 3070:2 3078:7 3079:3 3083:1 3091:1 3095:1 3096:1 3097:1 3100:1 3101:2 3109:1 3114:1 3117:11 3119:3 3121:1 3123:4 3127:1 3131:1 3132:2 3133:10 3135:1 3143:3 3152:1 3157:1 3160:8 3162:1 3166:4 3169:1 3170:1 3181:1 3188:1 3206:4 3207:4 3217:1 3218:1 3224:2 3225:1 3229:2 3232:1 3234:1 3254:3 3273:4 3287:1 3292:3 3306:4 3307:14 3308:1 3310:1 3318:1 3323:1 3360:2 3361:2 3364:2 3368:3 3372:1 3377:3 3390:3 3392:1 3394:4 3398:1 3406:1 3412:2 3416:3 3427:3 3428:2 3430:1 3432:5 3450:2 3462:1 3463:1 3487:1 3493:3 3497:1 3500:1 3515:2 3517:2 3527:13 3530:6 3545:2 3555:1 3566:1 3569:1 3579:2 3585:2 3586:1 3588:1 3601:2 3606:1 3611:2 3617:1 3620:1 3623:1 3625:1 3626:1 3646:2 3647:3 3648:1 3649:1 3661:1 3685:1 3690:3 3702:1 3706:2 3710:2 3712:1 3715:1 3716:1 3726:1 3728:2 3734:5 3738:2 3740:2 3745:3 3747:2 3754:2 3755:3 3763:1 3767:1 3774:1 3784:1 3793:1 3795:2 3815:2 3822:1 3829:1 3836:1 3838:1 3848:1 3851:1 3855:1 3856:1 3858:1 3883:2 3887:1 3890:2 3891:1 3894:1 3895:1 3901:2 3908:1 3922:1 3929:1 3940:1 3967:1 3968:2 3975:1 3985:3 3989:2 3995:1 4000:2 4004:3 4009:1 4025:11 4032:1 4035:1 4045:1 4048:1 4063:1 4067:1 4068:1 4080:1 4095:1 4101:1 4109:2 4129:1 4132:1 4139:1 4157:1 4161:2 4173:1 4176:2 4192:1 4201:1 4202:2 4217:1 4221:5 4224:1 4229:3 4233:1 4236:1 4254:4 4258:1 4260:9 4274:2 4292:1 4301:1 4309:1 4324:1 4326:14 4334:2 4341:8 4342:1 4345:1 4358:1 4360:1 4376:3 4382:1 4386:5 4392:1 4407:1 4412:1 4425:3 4427:1 4431:1 4437:3 4450:1 4451:1 4460:6 4473:2 4478:3 4480:2 4493:1 4499:1 4507:2 4508:1 4533:1 4557:1 4561:1 4563:1 4564:1 4595:2 4604:1 4619:4 4620:1 4630:3 4660:1 4667:8 4694:1 4715:1 4720:1 4735:1 4737:9 4767:1 4778:1 4779:1 4781:1 4783:1 4803:2 4819:1 4829:1 4835:1 4844:1 4848:1 4861:2 4877:1 4886:1 4892:1 4893:1 4896:1 4917:1 4918:1 4922:5 4925:1 4927:3 4931:2 4933:2 4937:1 4940:3 4941:1 4954:2 4960:1 4964:1 4966:2 4970:1 4972:2 4973:1 4974:1 4989:2 4990:1 4999:1 5015:1 5017:3 5034:1 5056:3 5057:3 5062:2 5075:1 5078:1 5081:1 5083:7 5084:1 5093:1 5094:2 5095:3 5096:6 5099:5 5103:2 5108:2 5110:1 5111:1 5114:1 5123:2 5127:2 5128:1 5130:1 5148:1 5149:2 5150:1 5154:1 5187:1 5188:1 5200:2 5204:1 5206:2 5214:1 5224:1 5227:1 5229:1 5231:1 5234:2 5239:4 5241:4 5249:4 5251:1 5252:1 5259:1 5261:3 5264:1 5269:1 5274:1 5275:1 5282:1 5289:2 5296:1 5297:2 5300:1 5304:2 5312:1 5319:1 5324:8 5328:1 5348:4 5350:1 5353:2 5355:1 5357:1 5360:1 5364:2 5365:2 5369:3 5371:1 5372:1 5379:1 5386:1 5390:1 5393:5 5396:3 5398:1 5400:1 5402:1 5405:1 5406:1 5410:2 5412:1 5419:1 5425:1 5433:1 5438:1 5439:1 5445:5 5451:2 5455:1 5461:1 5464:1 5473:1 5475:1 5479:2 5482:1 5485:1 5487:1 5492:14 5506:4 5516:4 5522:1 5528:1 5535:1 5537:1 5539:1 5549:1 5556:2 5558:1 5561:2 5563:2 5568:1 5569:1 5571:1 5577:1 5581:6 5584:1 5585:2 5590:1 5592:3 5605:2 5609:4 5616:2 5623:1 5626:7 5631:3 5648:2 5649:1 5650:1 5656:2 5661:3 5669:4 5676:4 5679:2 5683:1 5686:1 5694:2 5698:1 5702:2 5705:2 5709:4 5727:2 5728:5 5731:1 5741:8 5756:2 5759:1 5764:1 5769:1 5774:3 5778:1 5782:1 5784:1 5800:1 5801:1 5802:2 5803:1 5804:1 5805:1 5806:1 5807:3 5808:1 5809:1 5810:4 5811:3 5812:1 5813:1 5814:1 5815:1 5816:1 5817:1 5818:1 5819:1 5820:3 5821:1 5822:1 5823:1 5824:2 5825:1 5826:1 5827:1 5828:1 5829:3 5830:1 5831:1 5832:1 5833:2 5834:1 5835:1 5836:1 5837:1 5838:1 5839:1 5840:1 5841:2 5842:1 5843:1 5844:1 5845:1 5846:1 5847:1 5848:1 5849:1 5850:1 5851:1 5852:2 5853:1 5854:1 5855:1 5856:2 5857:2 5858:1 5859:1 5860:1 5861:3 5862:1 5863:1 5864:2 5865:1 5866:1 5867:1 5868:1 5869:2 5870:7 5871:5 5872:1 5873:1 5874:2 5875:1 5876:2 5877:1 5878:1 5879:1 5880:2 5881:1 5882:1 5883:1 5884:1 5885:2 5886:1 5887:1 5888:1 5889:1 5890:1 5891:1 5892:1 5893:1 5894:1 5895:1 5896:2 5897:1 5898:2 5899:2 5900:1 5901:1 5902:1 5903:1 5904:2 5905:1 5906:1 5907:1 5908:1 5909:1 5910:6 5911:1 5912:1 5913:1 5914:1 5915:1 5916:1 5917:1 5918:4 5919:1 5920:2 5921:1 5922:1 5923:1 5924:1 5925:1 5926:1 5927:1 5928:1 5929:2 5930:1 5931:1 5932:5 5933:4 5934:1 5935:2 5936:1 5937:1 5938:3 5939:1 5940:1 5941:2 5942:1 5943:1 5944:1 5945:1 5946:2 5947:4 5948:2 5949:1 5950:1 5951:1 5952:1 5953:1 5954:6 5955:1 5956:2 5957:1 5958:1 5959:1 5960:1 5961:1 5962:1 5963:1 5964:1 5965:1 5966:1 5967:1 5968:1 5969:1 5970:5 5971:1 5972:1 5973:1 5974:1 5975:1 5976:1 5977:1 5978:1 5979:1 5980:1 5981:2 5982:1 5983:3 5984:1 5985:3 5986:1 5987:1 5988:1 5989:2 5990:1 5991:1 5992:1 5993:1 5994:2 5995:2 5996:1 5997:1 5998:1 5999:1 6000:4 6001:1 6002:1 6003:1 6004:1 6005:1 6006:2 6007:1 6008:1 6009:1 6010:1 6011:1 6012:1 6013:1 6014:5 6015:1 6016:1 6017:1 6018:2 6019:7 6020:1 6021:1 6022:1 6023:1 6024:1 6025:1 6026:1 6027:1 6028:1 6029:1 6030:1 6031:1 6032:2 6033:1 6034:1 6035:1 6036:2 6037:1 6038:2 6039:1 6040:1 6041:1 6042:13 6043:2 6044:1 6045:10 6046:1 6047:1 6048:1 6049:1 6050:2 6051:1 6052:1 6053:1 6054:1 6055:1 6056:1 6057:1 6058:3 6059:1 6060:2 6061:1 6062:1 6063:2 6064:1 6065:1 6066:1 6067:1 6068:1 6069:1 6070:1 6071:10 6072:1 6073:2 6074:1 6075:2 6076:1 6077:1 6078:1 6079:1 6080:1 6081:1 6082:1 6083:1 6084:1 6085:1 6086:1 6087:1 6088:1 6089:3 6090:1 6091:1 6092:1 6093:2 6094:1 6095:3 6096:1 6097:1 6098:1 6099:4 6100:1 6101:1 6102:1 6103:1 6104:1 6105:1 6106:1 6107:1 6108:1 6109:1 6110:1 6111:1 6112:2 6113:1 6114:2 6115:2 6116:1 6117:1 6118:1 6119:2 6120:2 6121:1 6122:1 6123:3 6124:1 6125:1 6126:1 6127:1 6128:1 6129:4 6130:1 6131:1 6132:1 6133:1 6134:1 6135:1 6136:1 6137:2 6138:1 6139:1 6140:1 6141:1 6142:1 6143:1 6144:1 6145:1 6146:1 6147:1 6148:3 6149:5 6150:2 6151:1 6152:1 6153:1 6154:1 6155:1 6156:1 6157:1 6158:1 6159:1 6160:3 6161:1 6162:5 6163:2 6164:1 6165:2 6166:1 6167:1 6168:1 6169:1 6170:1 6171:1 6172:1 6173:2 6174:1 6175:5 6176:1 6177:1 6178:1 6179:1 6180:3 6181:1 6182:1 6183:1 6184:1 6185:1 6186:2 6187:1 6188:1 6189:1 6190:21 6191:1 6192:1 6193:1 6194:1 6195:2 6196:1 6197:2 6198:20 6199:2 6200:1 6201:1 6202:2 6203:2 6204:1 6205:1 6206:1 6207:1 6208:1 6209:1 6210:2 6211:1 6212:1 6213:1 6214:1 6215:3 6216:1 6217:1 6218:1 6219:1 6220:1 6221:1 6222:1 6223:1 6224:2 6225:1 6226:1 6227:3 6228:1 6229:1 6230:4 6231:1 6232:1 6233:2 6234:1 6235:1 6236:2 6237:2 6238:1 6239:1 6240:1 6241:1 6242:1 6243:2 6244:1 6245:1 6246:2 6247:2 6248:16 6249:1 6250:2 6251:1 6252:2 6253:2 6254:17 6255:1 6256:1 6257:2 6258:1 6259:1 6260:1 6261:1 6262:1 6263:1 6264:1 6265:1 6266:1 6267:1 6268:1 6269:1 6270:1 6271:2 6272:1 6273:1 6274:2 6275:2 6276:1 6277:2 6278:1 6279:1 6280:1 6281:1 6282:1 6283:2 6284:1 6285:2 6286:1 6287:1 6288:1 6289:1 6290:1 6291:1 6292:1 6293:3 6294:1 6295:1 6296:1 6297:1 6298:3 6299:1 6300:2 6301:1 6302:1 6303:1 6304:2 6305:1 6306:1 6307:5 6308:1 6309:7 6310:2 6311:1 6312:1 6313:1 6314:4 6315:3 6316:1 6317:2 6318:1 6319:4 6320:2 6321:1 6322:4 6323:1 6324:1 6325:1 6326:1 6327:1 6328:1 6329:5 6330:1 6331:1 6332:1 6333:1 6334:1 6335:1 6336:1 6337:1 6338:1 6339:3 6340:1 6341:1 6342:1 6343:1 6344:1 6345:1 6346:1 6347:3 6348:1 6349:1 6350:1 6351:2 6352:1 6353:1 6354:1 6355:1 6356:1 6357:1 6358:1 6359:2 6360:1 6361:1 6362:1 6363:1 6364:1 6365:1 6366:1 6367:1 6368:1 6369:1 6370:1 6371:1 6372:1 6373:1 6374:1 6375:1 6376:1 6377:1 6378:1 6379:1 6380:1 6381:1 6382:1 6383:2 6384:1 6385:2 6386:1 6387:1 6388:1 6389:1 6390:2 6391:3 6392:5 6393:1 6394:1 6395:3 6396:1 6397:1 6398:1 6399:1 6400:1 6401:1 6402:1 6403:2 6404:2 6405:1 6406:1 6407:1 6408:1 6409:6 6410:1 6411:1 6412:1 6413:1 6414:1 6415:1 6416:1 6417:1 6418:1 6419:2 6420:1 6421:2 6422:3 6423:1 6424:2 6425:1 6426:2 6427:1 6428:1 6429:1 6430:1 6431:2 6432:2 6433:1 6434:1 6435:2 6436:1 6437:2 6438:1 6439:1 6440:1 6441:1 6442:1 6443:1 6444:1 6445:2 6446:2 6447:1 6448:1 6449:1 6450:3 6451:1 6452:1 6453:1 6454:1 6455:1 6456:1 6457:1 6458:1 6459:3 6460:1 6461:1 6462:2 6463:1 6464:1 6465:1 6466:1 6467:1 6468:1 6469:1 6470:1 6471:1 6472:1 6473:1 6474:1 6475:1 6476:1 6477:1 6478:2 6479:3 6480:5 6481:1 6482:1 6483:1 6484:7 6485:1 6486:1 6487:1 6488:5 6489:1 6490:1 6491:1 6492:1 6493:3 6494:1 6495:6 6496:1 6497:1 6498:1 6499:1 6500:1 6501:1 6502:1 6503:1 6504:2 6505:1 6506:1 6507:3 6508:1 6509:1 6510:1 6511:1 6512:1 6513:1 6514:3 6515:1 6516:1 6517:1 6518:1 6519:1 6520:1 6521:1 6522:1 6523:1 6524:1 6525:2 6526:1 6527:1 6528:1 6529:1 6530:2 6531:4 6532:1 6533:1 6534:1 6535:1 6536:1 6537:1 6538:1 6539:2 6540:1 6541:2 6542:2 6543:1 6544:1 6545:1 6546:1 6547:1 6548:1 6549:1 6550:1 6551:1 6552:2 6553:1 6554:1 6555:2 6556:1 6557:7 6558:3 6559:1 6560:1 6561:2 6562:1 6563:1 6564:1 6565:2 6566:6 6567:1 6568:1 6569:1 6570:1 6571:2 6572:2 6573:1 6574:2 6575:1 6576:2 6577:1 6578:1 6579:1 6580:1 6581:1 6582:3 6583:1 6584:1 6585:1 6586:2 6587:1 6588:1 6589:1 6590:1 6591:1 6592:1 6593:1 6594:6 6595:4 6596:2 6597:1 6598:2 6599:1 6600:1 6601:2 6602:2 6603:1 6604:1 6605:1 6606:1 6607:1 6608:2 6609:1 6610:1 
0.01205238536824728 12:3 42:1 46:1 55:1 62:1 65:1 96:1 105:1 113:1 121:1 133:2 143:6 144:2 181:1 184:1 188:4 204:2 216:1 233:1 243:1 244:1 281:1 291:1 292:1 310:1 338:1 344:1 345:2 413:1 425:1 482:1 521:1 531:1 567:2 581:1 624:1 626:1 650:4 738:1 803:1 825:1 1047:1 1183:1 1204:1 1208:1 1226:2 1271:1 1322:1 1359:1 1501:1 1678:1 1767:1 1880:1 1886:1 2334:1 2707:1 2709:1 2839:1 2983:1 3108:1 3188:1 3619:1 4057:1 4464:1 4477:2 5592:2 7014:1 7441:1 7442:1 7443:1 7444:1 7445:1 7446:1 7447:1 
0.02060209007346826 1:1 7:2 12:2 25:1 26:2 42:1 59:1 96:1 101:1 102:1 105:3 110:3 133:2 143:1 144:1 151:5 184:1 188:4 207:1 214:2 236:3 248:1 249:1 253:1 259:1 263:1 268:2 274:1 290:1 301:1 392:1 455:1 457:1 488:1 536:1 554:1 571:4 654:1 760:1 790:1 801:2 939:1 991:1 1074:1 1081:1 1088:1 1177:1 1327:1 1328:1 1438:1 1452:1 1523:1 1547:1 1563:1 1641:1 1708:1 1739:1 1873:1 2033:1 2334:1 2415:1 2738:1 3096:1 4045:1 4766:1 5013:1 7047:2 7469:1 7470:2 7471:1 7472:1 7473:2 7474:1 7475:2 7476:3 7477:1 7478:1 7479:1 
0.003660896841805665 7:1 11:1 12:3 34:1 55:2 65:1 95:1 96:1 102:2 105:2 110:1 111:1 133:4 155:1 181:1 187:1 188:4 229:1 231:1 236:1 245:1 263:1 268:2 286:1 316:1 332:1 355:1 363:1 400:1 427:1 485:1 499:1 536:1 558:1 612:2 654:1 774:2 777:1 797:1 1162:1 2334:2 3532:1 3828:4 4219:1 4251:1 4577:1 4621:1 5428:2 5805:1 7604:2 7605:1 7606:1 7607:1 7608:1 7609:1 7610:1 7611:1 7612:2 
0.03830507154964845 1:1 7:1 10:1 12:1 13:1 15:1 21:1 42:1 46:1 55:1 102:3 105:2 108:1 133:2 135:1 143:2 144:1 151:3 156:1 173:1 187:1 188:3 204:1 214:1 224:1 236:1 278:1 281:1 291:1 301:1 316:1 319:1 355:1 360:1 366:1 388:1 400:1 413:1 414:1 535:1 536:1 558:1 599:1 616:1 766:1 774:1 775:1 853:1 942:1 1261:1 1391:1 1760:1 2495:1 2514:1 2603:1 3233:1 3683:2 4295:1 5102:1 5259:1 5685:1 6843:1 7532:1 7533:1 7534:1 7539:1 7541:1 7545:1 7613:1 7614:1 7615:1 7616:1 7617:1 
0.003663424635075933 5:1 11:4 12:11 16:1 17:1 20:3 21:1 26:2 30:1 35:3 37:2 42:8 46:2 48:2 50:1 51:1 54:1 55:6 57:1 60:1 65:21 66:1 81:1 83:1 84:1 95:1 96:6 101:1 102:14 105:4 110:4 113:2 115:6 121:2 124:3 127:1 128:2 133:12 140:1 143:20 144:1 150:1 159:1 173:1 181:1 184:2 188:3 199:1 236:1 243:12 268:1 274:1 281:1 286:1 304:1 319:3 333:2 337:1 345:1 349:2 354:2 355:4 366:1 393:3 451:1 457:1 471:1 473:1 493:1 508:3 510:2 536:1 595:1 620:1 624:1 628:1 634:1 642:1 666:1 686:3 736:1 737:1 757:3 762:1 766:1 824:2 849:1 860:1 893:1 896:1 898:2 908:1 930:1 935:1 1031:1 1047:1 1048:1 1103:1 1116:1 1143:7 1160:2 1180:1 1181:1 1183:1 1213:1 1313:3 1497:1 1550:2 1598:2 1621:1 1673:1 1700:1 1742:1 1776:1 1786:2 1843:2 1874:1 1899:2 1934:2 1976:3 1979:2 1987:1 2012:1 2067:1 2076:2 2085:3 2088:2 2108:1 2139:1 2146:1 2153:2 2155:1 2180:3 2182:1 2186:1 2194:2 2214:2 2220:1 2231:1 2242:1 2248:1 2273:2 2307:1 2342:1 2344:1 2387:1 2498:1 2500:1 2839:2 2868:1 2879:1 2941:1 3045:1 3070:1 3124:1 3148:1 3240:1 3291:3 3418:1 3427:2 3440:1 3444:8 3531:2 3806:2 4063:4 4120:1 4174:2 4289:1 4321:5 4341:1 4412:1 4607:1 4896:4 4990:1 5002:1 5040:1 5121:2 5234:1 5244:1 5286:1 5304:1 5324:1 5348:2 5399:1 5492:2 5518:4 5542:1 5675:1 5741:1 5891:2 5974:1 6063:1 6098:1 6195:1 6265:1 6318:2 6377:1 6652:1 6981:1 7060:1 7639:1 7640:1 7641:1 7642:1 7643:1 7644:1 7645:1 7646:1 7647:1 7648:1 7649:1 7650:1 7651:2 7652:2 7653:2 7654:1 7655:1 7656:1 7657:1 7658:1 7659:1 7660:4 7661:1 7662:1 7663:1 7664:1 7665:1 7666:1 7667:1 7668:1 7669:3 7670:1 7671:1 7672:1 7673:2 7674:2 7675:6 7676:1 7677:1 7678:1 7679:1 7680:1 7681:1 7682:3 7683:1 7684:2 7685:1 7686:1 7687:1 7688:3 7689:1 7690:2 7691:1 7692:1 7693:1 7694:1 7695:2 7696:1 7697:1 7698:5 7699:1 7700:1 7701:1 7702:1 7703:1 7704:1 7705:1 7706:1 7707:1 7708:1 7709:1 7710:1 7711:1 
0.003247643973550012 12:1 32:1 42:1 102:1 105:2 143:2 151:2 184:1 217:1 246:1 268:1 304:1 355:1 374:1 391:1 461:1 482:1 526:1 554:1 650:1 705:1 728:1 760:1 774:1 965:1 1233:2 1332:1 1452:1 1739:1 2024:1 2027:1 2878:1 4416:1 4721:1 8137:1 
0.0005890051580669307 7:1 12:1 42:5 55:5 62:2 65:4 71:2 87:3 90:1 96:1 102:6 110:1 111:1 113:1 118:1 120:1 133:11 143:8 146:1 151:1 162:1 184:4 187:3 188:1 224:1 243:1 259:1 268:1 280:3 287:1 290:1 316:1 323:3 332:1 342:1 374:1 446:3 483:1 485:2 521:1 534:1 560:1 570:1 571:1 612:1 659:1 712:2 757:1 801:1 806:1 824:1 852:1 922:1 940:1 979:1 990:2 1047:1 1076:1 1182:1 1288:3 1385:2 1465:1 1649:1 1754:1 1795:1 1873:1 1968:1 2050:1 2120:1 2279:1 2458:1 2868:1 2897:1 3311:1 3871:1 4102:1 4140:1 4452:1 4815:1 4823:1 4925:2 8142:1 8143:3 8144:2 8145:1 8146:2 8147:1 8148:1 8149:3 8150:1 8151:1 8152:1 8153:1 8154:1 8155:1 8156:1 8157:1 8158:1 8159:1 
3.743417398331062e-05 1:2 7:1 11:2 12:3 32:1 34:1 55:2 65:1 95:2 96:1 101:1 102:3 105:3 110:2 111:2 118:1 133:4 143:3 151:2 155:1 181:1 187:1 188:6 207:1 229:1 231:1 236:1 242:1 243:1 245:1 248:1 263:1 268:2 285:1 286:1 292:2 307:1 316:1 332:1 355:1 363:1 400:1 427:1 485:1 499:1 536:1 558:1 612:4 654:1 708:1 762:1 774:3 777:1 797:1 1065:1 1087:1 1162:1 1342:1 2334:2 2937:1 3232:1 3532:1 3828:7 4219:1 4251:1 4577:1 4621:1 5428:4 5805:2 7604:3 7605:1 7606:1 7607:1 7608:1 7609:1 7610:3 7611:1 7612:4 
0.0005129565125993452 12:1 42:1 71:1 75:1 102:1 118:1 143:2 188:1 204:1 224:1 229:1 243:1 265:1 274:1 281:2 325:1 347:1 612:1 1291:1 2824:1 4301:1 7495:1 8160:2 8161:1 8162:1 8163:1 8164:3 
0.02492828999485891 1:1 7:2 12:6 21:1 35:3 42:2 71:1 77:1 102:3 105:2 110:3 118:1 133:4 143:9 151:1 156:1 173:1 211:1 243:1 246:1 259:2 268:1 274:1 319:1 321:1 342:1 392:1 482:1 526:2 571:1 599:3 624:1 662:1 677:1 766:1 774:2 775:2 803:1 851:1 860:1 882:1 919:1 1037:1 1186:1 1261:1 1290:1 1382:1 1424:3 1593:1 1632:1 1637:1 1678:1 1720:1 1786:1 1906:1 1912:1 2234:1 2495:1 2675:1 3132:1 3683:2 5102:1 5685:2 5768:2 6857:1 7533:1 7534:1 7539:1 7541:1 7545:1 7777:1 8099:1 8168:1 8169:1 8170:1 8171:1 8172:2 8173:1 8174:2 8175:1 8176:1 
0.01509903186832732 1:1 12:8 26:1 35:1 42:1 46:3 55:2 71:1 101:2 102:3 105:4 110:2 113:2 118:1 133:3 137:1 143:5 144:2 146:2 151:4 181:2 184:4 187:1 188:8 214:1 216:1 227:1 229:1 231:1 235:1 236:2 243:3 253:2 259:3 261:1 264:1 268:2 274:4 278:1 281:2 285:1 287:1 289:1 313:1 316:1 333:2 344:1 345:1 360:1 388:1 399:1 409:1 451:4 455:2 478:2 501:1 515:2 524:1 526:2 531:1 541:1 545:1 551:1 560:1 582:2 634:1 654:1 711:1 720:1 797:1 924:3 939:1 975:1 985:1 1014:1 1065:1 1177:1 1194:1 1212:2 1300:1 1335:1 1382:1 1400:1 1488:1 1504:1 1516:1 1632:1 1681:1 1719:1 1730:3 1793:1 1794:1 1915:1 2067:1 2456:1 2728:1 3143:1 3292:2 3507:2 3908:1 4342:1 4437:1 5068:1 5969:1 6787:1 8177:1 8178:1 8179:2 8180:1 8181:1 8182:1 8183:1 8184:1 8185:1 8186:2 8187:1 8188:1 8189:2 8190:1 8191:1 8192:1 8193:1 8194:1 
0.0213747982715127 12:2 42:1 77:1 105:1 113:2 133:1 136:1 143:3 145:1 150:1 159:1 181:1 184:2 188:4 189:1 222:1 243:1 272:1 332:1 355:1 362:1 366:1 499:1 536:2 556:1 572:1 574:1 759:1 790:1 965:1 974:1 1192:1 1497:1 1653:1 1765:1 2073:1 2783:1 2869:1 3534:1 4145:1 4151:1 4153:1 4507:1 5063:1 5486:2 6120:1 6894:1 6927:1 8195:1 8196:1 8197:1 8198:1 8199:1 8200:2 8201:1 8202:1 
0.006831564848664724 1:2 2:1 7:1 10:2 12:8 17:1 21:1 26:1 35:1 42:1 46:1 55:6 60:1 65:6 71:1 89:1 96:1 99:1 101:2 102:12 105:4 106:1 108:1 110:6 111:1 113:1 115:1 118:1 121:1 126:1 132:1 133:6 143:7 144:2 146:1 151:5 154:1 176:1 184:3 185:1 187:3 188:3 194:1 224:2 243:1 250:1 257:1 259:1 265:1 268:9 281:3 287:2 292:2 307:1 309:1 311:1 316:2 323:1 333:1 337:2 340:1 342:1 349:2 354:2 355:1 380:1 407:1 413:1 414:1 420:1 482:1 554:1 560:1 580:1 581:2 595:4 612:1 641:1 658:2 701:1 767:3 806:1 813:1 824:1 851:1 859:1 884:1 896:1 906:2 951:1 1138:1 1171:2 1188:4 1235:1 1269:1 1274:1 1291:1 1294:1 1338:1 1425:2 1442:1 1464:1 1474:1 1504:1 1603:2 1645:1 1652:1 1680:3 1720:1 1754:2 1856:1 1895:1 1899:1 1938:1 2076:1 2120:1 2125:1 2162:1 2316:1 2415:1 2571:1 2709:1 2808:1 2816:1 3025:1 3070:1 3117:1 3143:1 3450:1 3517:1 3593:1 3753:1 3793:1 3825:2 3856:1 3908:1 3985:1 4240:1 4301:1 4431:1 4730:1 5127:1 5439:1 5475:1 5565:3 5609:1 5717:2 5867:1 6082:1 6265:1 6772:1 7059:1 7118:1 7871:1 7917:1 8217:1 8218:1 8219:4 8220:1 8221:1 8222:1 8223:1 8224:1 8225:1 8226:1 8227:2 8228:1 8229:1 8230:1 8231:1 8232:1 8233:1 8234:1 8235:1 8236:3 8237:1 8238:1 8239:1 8240:1 8241:1 8242:1 8243:3 8244:1 8245:1 8246:1 
0.02532282104390683 7:1 42:3 55:1 65:1 71:1 77:1 95:1 96:1 102:1 110:1 111:1 113:1 133:2 146:1 151:1 181:1 188:3 229:1 236:1 261:1 265:1 268:1 281:1 316:1 345:1 355:3 366:1 368:1 478:2 536:1 654:1 720:1 767:1 774:1 876:1 990:1 1137:1 1177:1 1215:1 1223:3 1231:2 1464:1 1783:2 2011:1 2414:1 2442:2 4380:1 4963:1 8257:1 8258:1 
0.006949946542185459 7:1 42:1 46:1 65:1 96:1 115:1 118:1 143:1 151:1 156:1 181:1 188:3 204:1 217:1 224:1 230:1 243:1 261:1 281:1 287:2 292:1 332:1 333:1 334:2 338:1 345:1 353:1 354:1 355:1 388:1 407:1 413:1 433:2 474:1 499:1 580:1 658:1 1177:1 1499:1 1715:1 1748:1 1753:1 2076:1 2356:1 3229:1 3603:1 4003:1 4254:1 8259:1 8260:1 
0.003857563564562393 7:1 12:2 42:3 54:1 65:1 71:2 96:1 110:1 113:1 133:1 137:1 143:3 144:1 159:1 181:1 185:1 187:1 188:3 194:2 229:2 230:1 274:1 281:1 291:1 292:1 316:1 332:1 340:1 344:1 354:1 374:1 494:1 797:1 821:1 831:1 919:1 1134:1 1184:1 1214:1 1231:1 1273:1 1380:2 1414:1 3276:1 4380:1 4879:1 5076:1 8267:1 8268:1 8269:1 8270:1 
0.00545859729640853 12:4 21:1 26:2 35:1 47:1 59:1 62:2 65:3 75:2 102:2 105:1 110:6 133:2 136:2 143:14 144:4 146:1 151:1 163:1 187:2 188:1 193:1 204:1 211:1 215:2 224:1 236:3 250:1 259:1 287:1 289:1 291:1 292:2 297:1 301:1 333:1 337:1 345:2 349:1 355:1 407:3 409:1 482:1 485:1 499:2 525:1 526:1 545:2 567:1 585:1 588:2 643:1 686:1 766:1 844:1 906:1 1128:1 1188:1 1210:1 1226:1 1227:1 1236:3 1276:1 1424:1 1441:1 1480:1 1553:1 1604:1 1635:2 1724:1 1858:1 2097:1 2120:4 2264:1 2380:1 2387:1 2422:1 2501:1 2520:1 2527:1 2588:2 2605:1 2861:2 3152:1 3339:2 3416:1 3520:1 3620:1 3621:1 4021:1 4156:1 4241:1 4242:1 4243:2 4244:1 4246:1 4250:1 4504:1 4698:2 5063:1 8278:1 8284:1 8285:1 8286:1 8287:1 8288:1 8289:1 
0.002291704188819086 11:1 12:14 13:1 21:1 34:3 35:1 42:3 46:1 48:2 55:4 62:3 65:3 71:2 77:1 96:1 101:3 102:8 105:2 108:3 110:10 113:1 118:3 131:1 133:13 135:1 143:21 144:2 146:1 150:2 151:8 153:1 154:1 163:1 167:1 173:1 176:2 181:2 184:4 187:1 188:14 199:1 207:2 211:3 214:2 215:3 216:5 217:4 229:1 231:3 233:1 235:2 236:7 242:2 243:4 244:1 248:2 253:2 259:3 263:10 268:5 278:1 285:1 291:1 292:3 297:1 301:2 304:1 307:2 310:1 316:2 319:1 337:3 344:1 345:2 351:2 354:1 355:3 368:2 388:1 392:2 395:2 404:1 407:1 413:1 414:1 416:3 420:1 427:1 433:1 445:4 455:1 457:1 469:1 484:2 488:1 499:1 501:1 510:1 526:1 536:2 551:1 554:1 558:1 560:1 571:2 574:2 596:2 599:1 612:2 630:1 634:2 649:2 686:1 688:2 736:1 797:2 896:1 932:2 985:1 991:1 1013:1 1031:1 1046:1 1088:1 1115:1 1145:1 1196:1 1218:2 1223:1 1240:1 1268:1 1322:1 1441:1 1471:2 1474:2 1558:1 1570:1 1621:1 1622:1 1627:1 1640:1 1668:1 1671:5 1685:2 1784:1 1872:2 1906:1 1947:3 2011:1 2096:1 2132:1 2134:1 2293:1 2309:1 2351:1 2391:1 2488:1 2649:1 2739:1 2746:1 2755:1 2852:1 2872:1 2887:1 3040:1 3152:1 3161:2 3164:2 3176:5 3218:1 3372:2 3475:1 3479:1 3651:1 3695:1 3704:1 3716:1 3733:1 3864:1 3882:1 3883:1 3884:1 3885:3 3887:1 3889:2 3891:1 3892:2 3894:2 3895:2 3897:1 3898:2 3899:1 3900:2 3901:2 3904:2 3905:1 3906:1 3907:1 3908:1 3909:2 3911:1 3912:1 3914:1 4362:1 4392:1 4507:1 4521:1 4594:1 4749:1 4750:1 4752:1 4753:1 4756:1 4757:1 4759:1 4760:2 4761:1 4762:1 4763:1 4765:1 4766:3 4768:1 4771:1 4774:1 4777:1 4778:1 4779:1 4780:1 4781:1 4783:1 4784:1 4785:1 4786:1 4787:1 5063:1 5515:1 5567:1 7696:1 8290:1 8291:2 8292:1 8293:1 8294:1 8295:1 8296:1 
0.003928351719895056 1:1 12:6 23:1 26:2 34:1 35:1 52:2 54:2 55:1 62:1 65:5 71:2 73:1 83:2 91:2 102:5 105:3 110:7 113:2 115:3 118:2 133:2 135:1 143:6 144:2 146:2 150:3 151:3 163:1 184:1 188:5 194:1 199:2 230:1 231:1 235:1 243:2 259:1 263:1 278:1 289:1 292:1 295:1 333:2 337:1 345:1 355:1 368:1 381:1 485:1 500:2 531:2 536:2 633:1 669:1 732:1 742:1 798:1 851:3 860:1 988:2 1033:1 1153:1 1158:2 1188:1 1212:1 1233:1 1317:2 1340:1 1425:1 1455:2 1474:1 1651:1 1680:3 1804:2 1882:1 1988:1 1990:1 2076:2 2088:1 2331:1 2357:1 2414:4 2465:1 2498:1 2619:2 2667:1 2757:1 2801:2 3096:1 3284:1 3532:1 3539:2 3702:1 3897:1 3946:1 4100:1 4469:1 4593:1 5519:1 6377:1 6793:1 6813:1 7646:1 7668:1 8197:1 8297:1 8298:1 8299:1 8300:1 8301:1 8302:1 8303:1 8304:1 8305:1 8306:1 8307:1 8308:2 8309:3 8310:2 8311:1 8312:1 
0.02458586384355648 10:1 12:1 26:1 34:3 42:2 45:1 55:1 101:1 105:5 108:2 110:2 133:6 143:3 146:1 148:1 150:2 151:4 170:1 173:1 181:1 187:1 188:1 207:1 242:1 243:1 268:1 278:1 291:1 295:1 297:1 316:2 337:1 355:2 404:1 422:1 451:2 493:2 499:1 510:1 530:1 531:2 536:1 571:1 595:1 612:1 618:1 732:2 736:2 757:1 824:1 893:1 942:1 991:1 1048:1 1153:1 1160:2 1188:1 1354:1 1551:1 1668:2 2331:1 2357:2 2408:2 2519:1 2659:1 2822:1 3317:2 3374:2 3375:1 3532:2 3646:1 3742:1 3890:3 3898:1 3912:1 3989:1 4011:1 4352:1 4353:1 4355:1 4356:1 4357:1 4359:1 4363:1 4365:1 4366:2 4367:1 4498:1 4552:1 4823:1 4989:1 7548:1 7551:1 7555:1 7557:3 7563:1 7573:1 7975:1 8322:1 
0.023387807990395 12:6 26:1 35:1 42:1 48:1 65:2 75:1 102:1 105:2 108:1 110:2 118:1 143:5 144:1 145:1 146:1 151:3 188:3 199:2 207:1 211:1 212:1 224:2 229:1 231:1 243:2 265:1 292:3 297:1 307:1 308:1 325:1 332:1 374:2 404:1 458:1 482:1 499:1 500:1 501:1 526:2 612:1 634:1 728:1 773:1 806:1 957:1 984:1 1501:2 1596:1 2027:4 2098:1 2316:2 2810:3 3146:1 3414:1 3517:1 4342:1 4403:1 4404:1 4406:1 4412:2 4416:2 4418:1 4421:1 4428:1 6810:2 6919:1 7515:1 8339:1 8340:1 8341:1 8342:1 8343:1 8344:1 8345:1 8346:1 8347:1 8348:1 8349:1 8350:2 8351:1 8352:1 
0.02410547569796927 12:2 102:1 105:1 133:1 188:1 199:1 259:1 264:1 268:1 292:1 405:1 571:1 1095:2 1099:1 1213:1 2343:1 2358:1 4088:1 4598:1 7408:1 
0.03869024120161694 7:1 10:1 12:3 46:1 65:1 105:1 110:1 113:1 133:1 143:3 144:1 185:1 187:1 254:1 261:1 265:2 289:1 316:1 333:1 347:1 358:1 463:1 478:1 499:1 501:1 558:1 560:1 595:1 686:1 688:1 720:1 924:1 1212:1 1261:1 1280:1 1283:1 1328:1 1667:1 1720:1 1898:2 2051:1 2421:1 5138:1 5179:1 6440:1 6657:1 8354:1 8355:1 8356:1 
0.01241444224937364 150:1 280:1 572:1 8378:1 8379:1 8380:1 
0.02453865840327857 12:1 42:1 71:1 110:1 118:1 133:2 146:2 170:1 176:1 184:1 188:1 257:1 268:1 405:1 416:1 510:1 517:1 520:1 624:1 650:1 674:1 720:1 887:1 1223:1 2095:1 2132:1 2302:1 2506:1 8381:1 8382:1 8383:1 8384:1 
0.02531011341897536 1:1 12:1 13:1 15:1 35:2 42:3 46:1 65:1 71:2 77:1 101:1 105:1 108:1 113:1 118:2 121:1 133:2 135:1 143:3 151:2 173:2 181:1 188:3 199:1 214:1 231:1 243:1 259:1 263:1 268:5 289:1 332:1 333:1 337:1 342:1 347:1 354:1 439:1 469:1 488:1 501:2 571:6 612:2 634:1 714:1 720:1 777:3 866:3 939:1 1109:1 1180:1 1186:1 1337:2 1619:1 1796:1 2460:1 3123:1 3222:2 3223:1 3224:1 3225:1 3226:1 3227:1 3228:2 3229:1 7506:1 8115:1 8397:1 8398:1 8399:2 8400:1 8401:2 8402:2 8403:2 8404:2 8405:1 8406:1 8407:1 8408:2 8409:1 8410:1 8411:1 8412:1 8413:1 8414:1 8415:1 8416:3 
0.06459315889097081 1:1 7:1 42:2 105:1 133:1 143:1 151:1 259:1 265:1 571:1 803:1 1001:1 1283:1 1452:1 1521:1 2824:1 8417:1 
0.002829534609261753 2:1 10:1 12:2 32:1 42:2 55:1 96:1 105:1 110:1 135:1 143:2 145:1 146:1 187:1 188:7 229:1 248:1 257:1 259:2 274:2 292:1 325:1 332:1 337:1 345:1 354:1 383:1 388:1 408:2 428:1 455:1 458:1 485:1 494:2 510:2 520:1 528:1 531:1 567:1 797:1 855:1 887:1 906:1 980:1 1310:1 1708:1 1752:2 2300:1 2458:1 2553:1 2816:1 3706:1 3863:1 4088:1 6962:4 8161:1 8418:1 8419:1 
0.0148122753495229 12:1 35:1 54:1 65:1 96:1 102:1 110:1 113:1 118:1 133:1 143:1 151:2 184:2 188:2 229:1 259:2 268:1 274:1 316:1 340:1 347:1 355:1 368:1 379:1 380:1 407:1 413:1 427:1 469:1 499:1 510:2 755:1 759:1 1120:1 1263:1 1271:1 1284:1 1359:1 1936:1 3143:1 8420:1 
0.003853602791577607 7:1 9:1 12:2 42:3 55:4 62:2 65:4 71:2 87:3 96:1 102:6 110:3 111:1 113:1 118:2 121:1 133:10 143:8 144:1 146:1 151:2 162:1 184:4 187:3 188:1 207:1 224:1 242:1 243:1 253:1 259:1 268:1 280:3 287:1 290:1 316:1 323:2 332:1 342:1 374:1 414:1 446:3 463:1 483:1 485:3 521:1 534:1 560:1 570:1 571:1 596:2 612:4 659:1 712:2 720:1 801:1 803:1 824:1 852:1 922:1 940:1 979:1 990:1 1004:1 1047:1 1076:1 1132:1 1288:3 1306:2 1385:2 1465:1 1577:1 1754:1 1795:1 1873:1 1968:1 2056:2 2120:1 2279:1 2458:2 2824:2 2868:1 3311:1 3871:1 4102:1 4140:1 4452:1 4815:3 4823:1 4925:2 5957:1 8143:3 8144:3 8145:3 8146:3 8147:1 8148:1 8149:3 8150:1 8151:1 8152:1 8153:1 8157:1 8158:1 8433:1 8434:1 8435:1 8436:1 8437:1 
0.003049364339092156 1:1 7:1 12:21 13:1 21:1 26:1 34:3 35:2 37:1 42:3 46:1 48:1 55:4 59:1 62:4 65:12 71:5 77:2 95:1 96:5 101:5 102:17 105:7 108:4 110:12 113:1 118:4 131:1 133:15 135:1 143:46 144:3 146:3 150:2 151:11 154:2 163:1 165:1 167:1 173:1 176:2 181:2 184:2 187:1 188:18 199:2 207:1 211:3 214:1 215:3 216:5 217:5 229:2 231:5 233:1 235:6 236:5 242:1 243:6 244:1 248:2 250:1 253:1 259:4 263:13 268:10 274:3 278:1 281:1 285:1 287:1 292:5 297:1 301:3 304:4 307:3 310:1 316:2 319:1 323:1 337:2 345:2 351:2 354:1 355:3 388:3 392:1 393:1 395:1 404:2 413:1 414:1 416:2 420:1 422:1 427:1 445:6 455:1 457:2 458:1 473:1 483:1 484:2 488:1 493:5 499:2 501:1 510:1 536:1 551:1 553:1 556:2 558:1 561:1 570:1 571:4 574:1 594:1 612:2 618:1 622:1 630:1 634:1 642:2 649:3 650:1 659:1 662:1 686:1 688:3 708:1 720:3 732:1 735:1 766:1 776:1 797:2 824:1 832:1 841:1 922:1 936:5 954:1 960:1 977:1 985:1 991:1 1013:1 1031:2 1046:1 1048:1 1088:1 1115:1 1128:2 1137:1 1161:1 1186:1 1196:1 1218:2 1240:1 1268:3 1288:1 1373:1 1380:1 1409:1 1431:1 1471:1 1474:1 1547:1 1563:2 1569:1 1576:1 1577:1 1671:9 1685:2 1784:2 1843:1 1858:1 1872:3 1873:1 1882:1 1906:1 1947:4 2074:1 2096:1 2132:1 2137:2 2181:1 2244:1 2293:1 2316:1 2341:1 2351:3 2391:1 2396:2 2408:2 2725:1 2726:1 2746:1 2755:1 2825:1 2852:4 2887:2 2900:1 3040:1 3078:1 3089:1 3096:2 3117:1 3152:1 3164:2 3174:3 3176:4 3213:1 3368:1 3372:2 3392:1 3475:1 3479:1 3484:1 3553:1 3595:1 3651:2 3704:1 3831:1 3885:2 3886:1 3888:1 3889:1 3891:1 3892:2 3894:1 3896:1 3898:4 3900:2 3901:2 3902:1 3904:2 3906:1 3907:1 3908:1 3909:2 3910:1 3914:1 3964:1 3974:1 3994:1 4173:1 4240:1 4286:1 4392:1 4401:1 4594:1 4619:1 4749:1 4750:1 4751:1 4752:1 4753:2 4756:1 4757:1 4758:1 4759:1 4760:2 4761:1 4762:1 4763:1 4764:1 4765:1 4766:2 4768:1 4769:1 4771:1 4774:1 4776:1 4777:1 4778:1 4779:1 4780:1 4781:1 4783:1 4784:1 4785:1 4786:1 4787:1 4819:1 5365:1 5451:1 5567:1 5627:1 5674:1 6517:2 6676:1 7701:1 8010:1 8019:1 8438:1 8439:1 8440:1 8441:1 8442:1 8443:1 8444:1 8445:1 8446:1 8447:1 8448:1 8449:1 8450:1 8451:1 8452:1 8453:1 8454:1 8455:1 8456:1 8457:2 8458:1 
0.0008471235804792674 7:1 12:5 26:2 35:4 42:2 55:2 62:1 65:11 71:4 75:1 97:1 102:7 105:4 107:2 108:3 110:6 113:3 118:2 121:2 133:7 143:23 144:3 146:5 151:2 179:1 181:2 184:2 188:3 189:1 196:4 211:1 216:1 229:2 231:2 243:1 247:1 259:2 268:3 287:1 291:1 292:7 345:2 355:1 366:2 388:3 392:2 393:1 407:1 409:1 458:1 482:1 487:1 488:1 501:1 553:1 571:6 573:1 587:1 643:2 650:1 667:1 671:1 688:2 709:1 720:1 767:3 781:1 806:2 844:1 898:1 980:1 1013:6 1015:6 1047:1 1103:4 1201:1 1218:1 1223:1 1226:6 1288:1 1296:1 1322:1 1348:2 1359:1 1373:1 1399:1 1413:1 1504:3 1563:1 1612:1 1707:1 1759:2 1789:5 1793:1 1874:1 1882:2 2061:1 2338:1 2647:1 2713:1 2722:7 2755:1 2886:2 2983:1 3028:1 3127:1 3663:1 3720:1 4027:1 4047:2 4144:1 4463:2 4464:1 4620:1 4781:2 5119:1 5305:1 5350:1 5574:2 5590:1 6043:1 6192:1 6221:1 6812:1 7079:1 7543:2 7687:1 7908:1 8342:1 8467:1 8468:2 8469:1 8470:1 8471:1 8472:1 8473:1 8474:1 8475:1 8476:1 8477:1 8478:1 8479:1 8480:1 8481:1 8482:2 8483:1 8484:1 8485:1 
0.01868671797699137 1:1 7:1 12:5 17:1 96:1 102:1 105:3 113:1 133:3 143:3 146:3 151:4 154:1 188:4 207:1 225:3 231:1 268:1 274:1 278:1 290:1 291:1 297:1 337:1 354:1 355:1 366:1 390:1 392:1 393:1 482:1 499:1 552:2 553:1 564:1 571:2 580:1 610:1 620:1 651:1 720:1 774:1 866:1 887:2 937:2 1132:1 1177:1 1212:1 1464:1 1593:1 1612:1 1804:1 2334:3 2886:1 3715:1 4047:1 7470:2 7477:1 7482:1 7485:1 7487:1 7578:2 8135:1 8299:1 8342:1 8352:1 8499:1 8500:1 8501:1 8502:1 
0.03268580291721869 12:2 26:1 65:2 102:1 110:2 133:1 143:4 144:1 146:1 151:1 164:1 181:1 185:1 188:1 216:1 292:1 375:1 427:1 455:1 458:1 494:1 499:2 531:1 571:2 599:1 620:1 630:1 720:2 760:1 790:1 860:1 876:1 1074:1 1205:1 1279:1 1300:1 1474:1 1520:2 1638:1 1641:1 2380:1 3048:1 3588:1 3742:1 4248:1 5058:2 5252:1 5326:1 8689:1 
0.007347391452547786 13:1 42:1 71:3 75:1 102:2 105:1 110:1 113:1 115:1 133:2 144:1 188:1 214:1 243:1 332:1 337:1 355:1 521:1 536:1 622:1 1223:1 1789:1 2539:1 2546:1 3863:1 5557:1 8714:1 8715:1 8716:1 
0.007892907259485634 12:4 35:1 43:1 55:1 62:3 65:1 96:1 102:4 105:3 132:1 133:4 143:4 144:1 146:1 151:2 173:2 187:2 214:1 217:1 227:1 243:1 245:1 259:1 265:1 268:3 281:2 287:2 292:4 310:1 345:2 355:3 366:1 393:1 403:1 404:1 414:1 450:1 478:1 482:1 499:1 500:1 560:1 642:2 659:1 686:2 694:1 716:1 760:1 851:2 891:2 1088:1 1182:1 1340:1 1366:1 1435:1 1474:2 1565:1 1666:1 1719:1 1724:1 1775:3 1964:2 2019:1 2051:1 2135:1 2351:2 2734:1 2742:1 3143:2 3224:1 3229:1 3646:2 5778:1 7947:1 8098:1 8116:1 8713:1 8717:1 8718:1 8719:1 
0.005456250321325502 1:1 12:3 26:7 35:2 46:2 55:2 59:1 62:1 65:10 71:3 77:1 96:3 102:7 105:12 108:1 110:4 111:1 118:1 121:1 126:1 133:9 136:2 143:25 144:5 146:1 151:4 163:1 173:1 184:2 188:11 199:1 204:1 214:1 215:2 218:1 227:3 236:1 243:4 244:2 249:1 263:5 274:1 281:1 285:1 287:1 289:1 291:2 292:2 294:1 297:2 316:1 321:1 344:1 345:6 354:1 355:6 376:1 379:1 392:3 405:1 407:1 425:1 454:1 457:2 458:1 493:2 501:1 507:1 526:2 531:3 554:1 567:1 573:3 581:2 624:1 649:1 650:6 686:1 688:1 703:1 708:1 717:1 724:1 738:1 781:1 803:1 825:2 841:1 860:4 1114:1 1138:1 1183:1 1208:1 1236:1 1271:1 1322:1 1359:1 1382:1 1399:1 1414:1 1501:4 1521:1 1535:1 1540:1 1547:1 1577:1 1578:1 1579:1 1673:1 1678:2 1761:1 1793:3 1880:1 1886:1 2019:1 2051:1 2054:1 2203:1 2387:1 2465:1 2583:1 2626:1 2629:1 2663:1 2839:1 3108:1 3251:1 3316:1 3351:1 3463:2 3569:1 3621:1 3667:1 3727:1 3989:2 4057:1 4236:1 4420:1 4477:11 4743:2 5156:1 5223:1 5492:1 5574:1 5592:6 6411:2 6542:1 6854:1 6985:1 7014:1 7134:1 7443:1 7447:1 8661:1 8724:1 8725:1 8726:1 8727:1 8728:1 8729:1 8730:1 8731:1 8732:1 8733:1 8734:2 8735:1 8736:1 8737:1 8738:1 8739:1 8740:1 8741:1 8742:1 
0.01636336379033938 10:1 12:4 13:1 26:2 35:1 42:1 46:1 50:1 52:1 60:1 65:1 118:1 143:5 144:1 146:2 150:1 151:1 169:1 176:1 181:1 184:1 188:2 274:1 278:1 281:2 290:1 292:4 333:1 345:1 413:2 457:1 769:2 1105:1 1129:1 1153:1 1186:1 1213:1 1261:1 1327:1 1499:1 1854:1 2074:1 2076:1 2141:1 3127:1 3484:1 3945:1 4677:1 4720:1 6190:2 6736:1 7484:1 8743:1 8744:1 8745:1 8746:1 8747:1 8748:1 8749:2 8750:1 8751:3 8752:1 8753:1 8754:1 8755:1 8756:1 
0.0136902592315416 12:5 26:2 32:1 42:2 48:1 62:1 65:2 71:2 102:6 105:4 110:1 113:1 118:1 121:1 128:1 133:2 143:9 144:1 146:2 150:1 151:2 173:1 181:1 187:1 188:1 207:1 231:1 236:1 243:2 258:3 265:2 281:1 304:2 308:1 311:1 316:1 337:1 345:1 366:1 374:1 457:1 461:1 471:1 482:1 488:1 526:2 531:1 556:1 573:2 588:1 612:1 625:1 662:1 728:1 732:1 773:1 774:1 1000:1 1017:1 1114:1 1152:1 1212:1 1218:1 1338:1 1380:1 1464:1 1856:1 2012:1 2027:1 2051:1 2182:1 2243:1 2468:1 2534:1 2667:1 2960:1 3133:1 3169:1 3366:1 3398:1 3577:2 3750:1 4416:3 5049:1 5757:1 5932:1 7477:1 8138:1 8139:1 8140:1 8141:1 8757:1 8758:1 8759:1 8760:1 8761:1 8762:1 8763:1 8764:1 8765:1 
0.01573025574089026 7:1 12:4 42:2 55:4 62:1 65:6 71:1 105:10 108:1 110:2 113:3 133:8 135:1 143:11 144:3 146:2 148:1 151:2 153:1 173:1 187:1 188:4 211:1 247:1 259:1 274:1 278:2 281:2 287:1 291:1 296:1 310:1 400:1 404:1 407:3 413:1 494:2 501:1 521:1 526:1 531:1 558:2 650:3 720:1 803:1 891:1 906:1 914:1 1170:2 1189:1 1201:1 1434:1 1699:1 2067:1 2539:2 2546:2 2626:1 2658:2 2693:2 2860:1 2953:1 3530:1 4009:1 4220:1 4745:1 4954:3 5081:1 5304:3 5585:1 5788:2 6303:1 7605:1 8173:1 8501:1 8665:2 8766:4 8767:1 8768:1 8769:1 8770:1 8771:1 8772:1 8773:1 8774:1 8775:1 8776:1 
0.007103456862861246 12:2 26:2 55:1 65:2 77:1 96:1 101:4 102:3 105:2 110:3 111:1 118:1 133:6 143:8 144:1 150:2 151:3 173:2 184:1 188:7 207:2 214:1 216:1 236:2 242:2 243:2 253:2 268:4 278:1 281:1 287:1 291:1 292:1 301:1 316:1 351:3 355:1 384:1 392:3 404:2 407:2 455:1 483:1 494:1 499:1 501:1 515:1 520:2 526:1 536:1 571:1 594:1 612:3 654:1 658:1 686:1 709:1 728:1 732:1 762:1 832:1 834:1 855:1 1115:2 1201:1 1243:1 1274:1 1325:1 1384:1 1501:1 1706:1 1858:2 2135:1 2746:1 2887:2 3479:1 3704:1 3851:1 3885:3 3888:2 3890:2 3892:3 3893:1 3900:2 3903:1 3904:2 3906:1 3907:1 3909:1 3913:1 3914:2 3915:1 3964:1 4099:1 4362:1 6079:1 6857:1 8203:1 8579:1 8799:1 8835:1 8836:1 8837:1 8838:1 8839:1 8840:1 
0.0252065165627749 7:1 32:2 35:1 42:1 55:1 71:1 77:1 92:1 96:1 110:1 113:2 181:1 185:1 188:2 230:1 243:4 259:1 265:1 268:1 291:1 342:1 347:1 353:1 354:1 388:1 413:1 594:1 774:1 801:1 803:1 882:1 985:1 1177:1 1360:1 1464:1 1520:1 2296:1 3078:1 3123:1 
0.003514296893514009 1:1 55:1 65:1 71:1 75:1 105:1 133:1 135:1 144:1 177:1 187:1 188:3 236:1 243:2 274:1 280:1 281:1 289:1 313:1 413:1 451:1 611:1 612:1 776:1 803:2 1276:2 1320:1 1474:1 1575:1 1648:1 1799:1 1873:1 1915:1 2012:1 2172:1 2316:1 2495:1 2957:1 3593:1 4135:2 5324:1 6857:3 7459:1 8641:1 8847:1 8848:3 8849:1 8850:1 8851:1 8852:1 8853:1 
0.02003698521644809 1:1 2:2 7:1 12:4 42:2 46:1 48:1 51:1 60:1 62:1 65:2 71:2 102:1 108:1 110:2 120:1 133:4 143:6 144:1 146:2 150:1 165:1 173:1 184:1 188:2 194:1 204:1 215:1 229:1 242:3 243:3 257:1 261:1 274:1 287:1 333:2 355:2 379:1 388:1 501:1 510:2 511:1 688:1 766:1 804:1 849:1 860:1 1119:1 1137:1 1138:1 1180:1 1261:1 1284:1 1310:1 1359:1 1718:1 1751:2 1752:1 1754:1 1821:1 1844:1 1970:1 2590:1 2631:1 2835:1 2842:2 3432:1 3448:1 3706:1 3716:1 3793:1 3961:1 4035:1 4056:1 4209:1 4392:1 5439:1 5500:1 6040:1 8872:1 8873:3 8874:2 8875:1 8876:2 8877:1 8878:1 8879:1 8880:1 8881:1 8882:1 8883:1 8884:1 8885:1 8886:1 8887:1 
0.006539988789884334 1:2 11:1 12:1 21:1 29:1 42:1 47:1 62:1 75:1 90:1 96:1 101:4 102:5 110:1 133:5 143:3 150:2 151:2 173:1 188:3 229:1 233:1 265:1 268:2 274:2 281:1 291:1 308:1 310:1 319:1 333:1 355:1 368:1 393:1 404:1 428:1 447:1 535:1 572:1 649:2 651:1 672:1 766:1 802:1 849:1 887:1 924:1 990:1 1057:1 1077:1 1280:1 1322:1 1526:1 1611:1 1660:3 1715:1 1752:1 2194:2 2214:1 2220:1 2334:1 2395:1 2705:1 2861:1 3311:1 3531:1 3806:1 3836:1 3979:1 4071:1 4229:1 4341:1 4546:1 5083:2 5094:1 5210:1 6130:2 8030:1 8156:1 8488:1 8888:1 8889:1 8890:1 8891:1 8892:1 8893:1 8894:1 8895:1 8896:1 8897:1 8898:1 
0.01490410673389619 7:1 12:5 13:1 62:1 65:2 102:3 105:1 110:1 111:1 113:1 115:1 121:1 135:1 143:1 144:1 181:1 187:1 188:4 214:1 216:1 224:1 236:1 259:1 289:1 301:1 316:1 319:1 337:2 354:1 366:1 407:1 413:1 474:2 501:1 531:1 571:5 642:1 662:1 699:1 732:1 855:1 887:1 972:1 1056:1 1107:1 1180:1 1186:1 1311:1 1374:1 1629:2 1640:1 1641:2 1753:1 1781:1 2028:2 2051:1 2155:3 2299:2 2458:1 2778:1 3127:1 3737:1 3890:2 3964:1 4576:1 5594:1 5987:1 6940:1 8689:1 8900:1 8901:2 8902:1 8903:1 8904:1 8905:1 8906:2 8907:1 8908:1 
0.03456803535895838 7:1 12:3 29:1 42:3 65:1 71:2 95:1 102:1 108:1 110:1 113:2 115:1 118:2 133:4 134:1 143:5 146:5 151:1 153:1 181:1 183:1 187:1 188:8 204:1 236:1 243:1 244:1 268:3 287:1 292:1 316:1 323:1 344:1 365:1 368:2 413:1 485:1 494:1 514:1 526:2 560:1 606:1 651:1 662:1 703:1 781:1 905:1 954:1 978:2 985:1 991:1 1299:1 1488:3 1501:1 1600:1 1616:1 1678:1 1754:1 1906:1 1976:1 2030:1 2243:1 2458:1 2583:1 3119:1 3177:1 3251:1 3311:1 3484:1 5081:2 5571:1 8351:1 8909:1 8910:1 8911:1 8912:1 8913:1 
0.001079081825807399 1:1 12:2 21:2 29:1 42:4 46:1 47:2 51:1 65:2 71:1 75:1 87:1 90:1 96:1 101:3 102:4 105:2 113:1 118:1 133:4 143:6 144:1 150:2 151:1 154:1 177:1 184:1 187:1 188:5 194:1 211:1 229:1 265:2 268:1 274:1 278:1 281:4 291:2 308:1 310:1 316:1 319:2 333:2 338:1 345:1 355:1 368:1 393:1 428:1 447:2 451:1 478:1 482:1 491:1 494:1 499:1 521:1 531:1 535:1 558:1 611:1 650:1 651:1 672:1 766:2 802:1 849:2 887:1 924:2 990:1 1077:2 1088:1 1128:1 1130:1 1201:1 1280:2 1337:1 1366:1 1474:1 1491:2 1660:5 1739:1 1752:1 1949:1 2188:1 2194:4 2214:2 2220:2 2334:1 2705:1 2861:2 3531:2 3806:2 3836:1 4341:2 5083:2 5094:2 5210:2 5328:1 5497:1 5891:1 6120:1 6130:4 7969:1 8030:2 8122:1 8488:1 8888:1 8889:1 8891:2 8892:1 8894:1 8895:1 8896:1 8898:2 8914:1 8915:1 8916:1 
0.01797698825241617 150:1 319:1 470:1 572:1 1622:1 2300:1 2534:1 5125:1 8917:1 8918:1 8919:2 8920:2 8921:1 8922:1 
0.01799327216161095 7:1 12:3 13:1 42:1 46:1 55:1 67:1 71:1 102:1 110:1 113:1 133:2 135:1 143:2 144:1 146:2 150:1 154:1 160:1 184:1 185:1 187:1 188:3 217:2 243:1 268:1 289:1 339:1 340:1 366:1 369:1 389:2 416:1 433:1 474:1 482:1 485:2 494:1 571:3 603:1 606:1 658:1 720:1 759:1 809:1 887:1 1095:1 1120:1 1201:1 1641:1 1997:2 2018:1 3845:1 4009:1 4163:2 5170:1 6017:1 8947:1 8948:1 8949:1 
0.007040786608968539 50:1 144:1 188:1 292:1 337:1 985:1 4888:1 7081:1 
0.001381075629542609 1:1 13:1 26:1 35:4 46:1 65:3 101:1 102:3 108:1 110:2 118:1 133:3 135:2 143:3 146:1 184:1 188:1 211:1 219:1 231:1 243:1 248:1 250:1 259:1 264:1 268:1 274:1 280:1 292:1 308:1 390:1 392:1 407:2 413:1 414:1 447:1 485:1 500:2 510:1 560:1 580:1 619:1 639:1 755:1 803:1 1033:2 1036:1 1084:1 1171:1 1359:1 1465:1 1575:1 1934:3 2067:1 2120:1 2284:1 2288:1 2316:10 2458:1 3002:1 3735:1 3780:1 4221:1 4721:1 4858:1 5474:1 5757:1 6465:1 6795:1 6869:3 6942:2 7102:2 7140:3 7334:2 7356:3 7992:1 8979:1 8980:3 8981:1 8982:1 8983:1 8984:1 8985:1 8986:1 8987:1 
0.0001531157115228173 1:1 2:1 7:1 12:6 13:1 25:1 33:1 35:2 42:2 46:2 48:1 50:1 54:1 55:1 65:4 71:2 101:2 102:7 105:5 108:1 110:5 118:1 133:3 134:1 135:2 137:1 143:12 146:3 150:2 151:5 153:1 165:2 166:1 173:1 184:3 188:2 233:1 235:3 241:1 257:1 259:3 265:1 274:1 280:1 281:2 287:1 289:1 291:1 292:1 308:3 316:1 325:1 326:1 345:1 347:2 362:1 366:1 374:2 381:1 393:1 404:1 407:1 409:1 414:1 425:1 474:1 478:1 482:3 484:1 485:1 488:1 510:1 523:1 533:1 560:1 612:1 621:1 625:1 639:1 649:1 701:1 729:1 776:2 782:1 798:1 801:2 855:1 860:1 866:1 882:1 906:1 931:1 951:1 1031:1 1033:4 1036:1 1039:4 1057:1 1192:2 1294:1 1359:1 1367:1 1380:1 1396:1 1419:1 1464:3 1465:2 1488:2 1575:1 1615:1 1692:1 1793:2 1867:1 1873:1 1885:1 1995:1 2016:1 2030:1 2052:1 2121:1 2129:1 2284:1 2316:10 2365:1 2411:1 2458:1 2774:2 2851:1 2911:1 3002:1 3127:1 3258:1 3273:1 3545:1 3793:1 3851:2 4211:1 4221:1 4416:1 4446:1 4737:1 4858:1 5474:1 5873:1 6285:1 6331:2 6521:1 6651:1 6787:1 6795:1 6865:2 6869:2 6939:1 6942:2 6999:11 7033:1 7102:2 7140:2 7170:1 7334:2 7356:9 7398:2 7412:2 7463:1 8979:1 8980:2 8981:1 8982:1 8984:1 8986:1 8988:1 8989:1 8990:1 8991:1 8992:2 8993:1 8994:1 8995:3 8996:1 8997:1 8998:1 8999:1 9000:1 9001:1 9002:1 9003:1 9004:1 9005:1 9006:1 9007:2 9008:1 9009:1 9010:1 9011:1 9012:1 9013:4 
0.006237676860888843 1:1 12:2 46:1 75:2 110:1 113:2 143:1 150:3 151:1 164:1 185:1 187:1 188:1 189:1 243:1 316:1 393:1 474:2 492:1 1001:1 1209:1 1298:2 1521:1 1547:1 2076:1 3218:1 4777:4 9039:3 9040:1 
0.01333108541693502 2:3 12:4 35:1 42:1 65:1 102:4 105:1 133:3 143:3 146:4 153:1 154:1 161:1 181:1 230:1 231:1 259:1 261:1 278:1 281:1 307:1 355:1 458:1 595:7 612:2 720:1 840:2 1086:1 1114:1 1192:1 1201:1 1715:1 2653:2 3638:1 5790:2 9041:1 9042:1 9043:1 9044:2 9045:3 9046:3 9047:2 
0.02314228714145983 12:1 13:1 42:1 55:1 60:1 110:1 113:1 135:1 137:1 143:2 146:1 151:1 184:1 187:2 188:2 207:1 236:2 253:1 268:1 274:1 281:1 287:1 291:2 292:2 301:1 384:1 404:2 454:1 457:1 494:1 499:1 501:1 571:4 701:2 762:1 902:1 912:1 1115:1 1128:1 1192:1 1501:1 1547:1 1593:1 1612:1 1710:1 1791:1 1915:1 3621:1 3867:2 6023:1 6706:2 6865:1 6903:1 7487:1 7506:1 8237:1 8858:2 8863:2 8865:1 8866:1 9071:1 
0.04012936814345363 7:1 12:1 35:2 42:2 52:1 65:2 71:1 102:1 110:1 133:5 143:1 172:1 185:1 188:1 224:1 230:1 243:1 281:1 319:1 332:1 340:1 342:1 374:1 404:1 485:1 501:1 581:1 595:1 693:1 720:1 759:1 887:1 956:2 1087:1 1212:1 1366:1 1575:1 1622:1 1774:1 2012:1 2500:1 2534:1 3307:1 3377:1 5524:1 5626:1 5919:1 7402:1 9072:1 9073:1 9074:1 9075:1 9076:1 9077:1 9078:1 9079:2 9080:1 9081:2 9082:1 
0.004870210273236409 7:1 12:2 71:2 75:1 102:1 105:1 110:1 113:1 118:1 133:1 146:2 154:1 167:1 188:2 231:2 243:2 261:1 268:1 274:1 287:1 292:4 337:1 388:1 413:1 499:1 508:1 536:1 553:1 558:1 560:1 588:1 709:1 803:1 855:1 980:1 1086:1 1598:1 2193:1 2284:1 2708:1 3273:1 3820:1 5081:1 5319:1 9083:1 
0.02270091732287388 2:1 12:4 35:1 46:1 62:1 95:3 102:3 105:2 110:2 133:3 135:1 138:1 143:9 144:2 146:6 151:2 177:1 181:2 184:2 188:9 201:1 217:3 229:1 236:2 268:4 274:1 281:3 287:1 325:1 388:1 404:2 407:1 413:1 439:1 485:1 494:1 499:1 510:1 526:1 554:1 570:1 571:6 580:1 650:1 651:2 654:1 767:1 811:1 834:3 853:1 876:1 972:1 1074:1 1086:1 1120:2 1218:1 1337:1 1628:1 1638:1 1641:4 1793:1 1794:1 1825:1 1848:1 1934:1 1997:2 2012:2 2273:1 2368:1 2407:1 3302:1 3715:1 4072:1 4596:1 6433:1 8115:1 8799:1 9084:1 9085:1 9086:1 9087:1 
0.0002708695414632936 12:2 26:1 42:3 65:2 102:1 105:2 108:1 115:1 143:7 144:3 145:1 146:1 151:2 167:1 188:3 215:1 229:1 231:1 243:2 248:1 268:1 287:2 292:6 295:1 312:1 332:1 344:1 355:1 374:2 379:1 392:1 393:1 536:1 542:1 556:1 649:1 707:1 732:1 843:1 851:2 905:1 906:1 985:1 991:1 1130:1 1177:1 1182:1 1235:1 1251:1 1288:1 1354:1 1425:1 1567:1 1906:1 2868:1 3088:1 3109:1 4535:1 4879:1 6673:2 8351:1 9098:1 9099:1 9100:1 9101:1 9102:1 9103:1 
0.01959610496560491 35:1 42:2 92:1 110:1 188:1 207:1 222:1 242:1 253:1 265:1 268:1 287:1 292:1 332:1 354:1 388:1 670:1 803:1 882:1 1003:1 1177:1 1452:1 1520:1 1622:2 2246:1 2296:1 3078:1 7109:2 7579:1 7580:1 9104:1 9105:1 9106:1 9107:2 9108:1 9109:1 9110:1 
0.004149377310474706 7:1 42:1 65:3 102:1 105:1 108:1 110:1 133:2 143:1 144:1 181:1 184:1 185:1 188:1 217:1 246:1 258:1 259:1 261:1 265:1 281:1 287:1 291:1 366:1 500:1 501:1 560:1 707:1 720:1 767:1 798:1 1273:1 1327:1 1786:1 2043:1 2284:1 4033:1 4879:1 5076:1 7292:1 
0.01523196259644066 2:1 12:1 26:3 35:3 42:1 62:2 65:3 67:2 71:1 95:1 101:2 102:3 105:1 110:3 117:2 143:10 144:1 188:3 214:1 215:2 240:1 243:1 268:1 274:1 292:2 304:1 345:1 355:2 374:1 390:1 393:1 413:1 418:1 433:1 446:1 457:1 510:1 526:3 531:1 536:1 572:1 580:2 588:1 611:1 612:1 658:1 671:3 686:1 1129:1 1180:1 1191:1 1212:1 1315:1 1327:1 1499:2 1715:1 1725:1 1752:1 1964:1 2011:1 2132:1 2147:1 2324:1 2373:1 2388:1 2744:1 2856:1 2868:1 3110:1 3652:1 3715:1 3793:3 4176:1 5304:1 5419:1 5947:1 6167:1 6203:1 6205:1 6426:1 6478:1 7114:1 7864:1 7946:1 8402:1 8760:2 9127:1 9128:1 9129:1 9130:1 9131:1 9132:1 9133:1 9134:1 9135:1 9136:1 
0.005544942907919917 11:1 12:1 42:1 71:1 105:1 110:2 133:1 134:1 143:4 150:1 151:2 163:1 188:1 207:1 215:2 236:1 242:2 253:1 291:1 292:1 295:1 337:1 345:1 379:1 392:1 393:1 404:1 454:1 474:2 482:1 499:1 688:1 703:1 731:1 902:1 957:2 1076:1 1213:2 1218:1 1501:1 1612:1 1854:1 1934:1 2560:1 2640:1 2744:1 3450:1 4782:1 5220:2 5921:1 7118:1 7811:1 7910:1 8314:2 8462:1 8481:1 8676:1 8677:1 9014:1 9015:2 9140:1 9141:1 9142:1 9143:1 9144:1 9145:1 9146:1 9147:1 
0.001889495531330714 1:1 7:1 12:14 13:2 26:4 34:5 35:5 42:10 55:5 62:2 65:10 69:1 71:5 77:1 87:1 95:2 96:5 101:4 102:10 105:8 108:4 110:3 111:2 121:2 133:12 137:2 141:1 143:19 144:7 146:2 150:4 151:5 165:1 167:1 170:1 173:1 181:2 184:3 185:1 187:2 188:1 194:1 204:2 207:1 214:1 227:3 231:2 233:1 241:1 242:1 243:4 263:1 268:5 274:2 278:1 281:4 287:5 289:1 291:1 292:13 311:1 316:1 332:1 334:2 337:1 345:1 355:4 360:1 362:1 368:1 380:1 388:1 393:2 403:1 404:2 413:2 415:1 416:1 418:1 419:2 425:2 427:4 433:1 446:2 447:2 473:1 482:7 484:2 488:1 493:2 494:1 534:2 553:1 554:1 558:1 565:1 570:2 571:1 573:2 581:4 588:1 595:7 596:1 617:1 619:6 620:2 625:1 629:1 634:2 642:1 650:1 657:1 658:1 659:2 662:1 663:4 674:1 686:1 689:1 694:1 709:1 720:2 728:1 741:1 742:1 755:1 767:1 773:1 821:1 851:2 884:1 891:1 958:1 965:2 966:1 974:2 985:2 991:1 1005:1 1019:1 1045:1 1062:1 1088:1 1114:1 1116:1 1160:4 1171:1 1176:1 1186:1 1201:2 1233:3 1252:1 1271:1 1288:1 1425:2 1474:1 1489:16 1497:1 1501:1 1570:1 1593:1 1596:1 1685:2 1689:1 1707:1 1729:1 1759:1 1774:4 1776:2 1790:1 1802:4 1887:1 1933:2 1947:1 1964:2 2050:1 2054:1 2074:1 2124:1 2394:1 2509:1 2686:1 2764:3 2807:1 2867:2 2886:1 3002:2 3016:1 3026:1 3195:1 3199:1 3217:1 3224:1 3333:1 3770:1 3878:1 3901:1 3903:1 4114:1 4131:1 4284:2 4409:1 4507:1 4754:1 4756:1 5058:1 5136:1 5319:1 5400:1 5475:1 5568:1 5609:2 5616:1 5698:1 5756:1 5786:5 6081:1 6550:1 6698:3 6709:2 7074:1 7596:1 8070:1 8130:1 8414:1 8701:1 8797:1 8800:3 8801:1 8802:1 8803:2 8878:1 9163:1 9164:1 9165:1 9166:1 9167:1 9168:1 9169:1 9170:1 9171:1 9172:1 9173:1 9174:2 9175:1 9176:1 9177:1 9178:1 9179:1 9180:1 9181:1 9182:1 9183:1 9184:1 9185:1 9186:1 9187:1 9188:1 9189:1 9190:1 9191:1 9192:1 9193:1 9194:1 
0.01105050862327489 12:8 17:1 35:3 42:8 46:1 50:1 54:2 55:2 62:1 65:9 71:2 74:1 84:2 96:3 101:2 102:8 105:5 108:1 110:6 118:1 127:1 132:2 133:5 143:24 144:1 160:6 161:1 173:1 178:2 184:4 208:2 241:1 243:2 258:1 261:1 268:1 281:2 287:1 289:1 317:1 333:1 337:1 340:1 345:1 355:1 358:1 362:7 370:2 407:4 413:1 425:1 458:1 482:2 485:7 491:2 510:9 565:2 571:8 594:1 612:2 624:2 677:2 698:1 737:3 742:1 755:2 761:1 806:1 855:1 884:1 891:1 896:1 907:1 948:1 1027:1 1045:1 1057:1 1114:1 1115:1 1161:1 1169:3 1198:2 1259:1 1271:2 1277:1 1294:1 1296:2 1386:1 1391:3 1408:1 1428:2 1435:1 1525:2 1634:1 1644:1 1720:5 1795:2 1882:1 1988:3 2053:3 2146:4 2182:1 2188:3 2243:1 2334:1 2536:4 2652:1 2658:3 2681:1 2824:1 2848:3 3042:1 3054:1 3058:3 3114:1 3405:1 3527:1 3667:1 3673:1 3727:1 3754:2 3823:1 3869:1 3985:1 4020:3 4190:1 4303:1 4450:1 4452:1 4528:1 4736:1 4772:1 4922:2 5079:1 5127:3 5487:1 5698:1 5737:1 6000:1 6382:1 6605:1 6992:1 6997:1 7382:1 8258:1 9220:2 9221:1 9222:1 9223:2 9224:1 9225:1 9226:6 9227:2 9228:1 9229:1 9230:1 9231:1 9232:1 9233:2 9234:1 9235:2 9236:1 9237:1 9238:1 
0.03464396201710282 2:2 12:1 42:3 65:1 143:2 146:1 151:2 154:1 181:1 184:1 188:4 224:1 230:1 231:1 236:3 249:1 257:2 264:1 268:1 292:2 301:2 313:1 332:1 340:1 354:1 366:1 392:1 404:1 501:1 510:1 567:1 1048:1 1212:1 1648:1 2172:1 2495:1 2886:1 3143:1 3308:1 5324:1 6646:1 6962:1 
0.00424173651956243 12:2 13:1 17:1 42:1 108:2 110:1 118:1 133:1 146:1 151:4 188:3 215:1 231:1 294:1 337:1 404:1 482:1 526:1 560:1 906:3 937:1 1018:1 1761:1 1800:1 1947:1 1998:1 2064:1 2074:1 2391:1 2579:1 3432:1 3604:1 6211:1 
0.03683733568954877 7:1 12:2 35:1 42:2 55:1 65:2 71:1 96:1 110:2 113:3 133:2 146:1 150:1 185:1 188:1 204:1 214:1 216:1 229:1 259:1 261:1 338:1 354:1 366:2 407:2 501:1 521:1 531:1 720:1 732:1 1005:1 1126:2 1204:1 1280:1 1652:1 2116:1 2277:1 2886:1 2942:1 4604:1 7157:1 9273:1 9274:1 9275:1 9276:1 9277:3 
0.0473657362474178 7:1 12:1 42:3 46:1 65:1 71:1 102:1 110:2 111:1 118:1 121:1 133:3 143:2 177:1 181:1 188:3 196:2 204:1 229:1 254:1 256:1 274:1 281:1 354:1 355:1 366:2 388:1 393:1 405:1 428:2 446:2 451:2 482:1 494:2 531:1 570:1 853:1 924:1 972:1 1184:1 1661:1 2942:1 4973:1 9278:1 9279:1 
0.001261180865090799 12:4 21:2 42:4 47:1 55:1 62:1 65:3 102:1 110:3 115:1 133:8 143:1 144:2 146:2 150:7 151:2 173:1 181:1 188:6 207:3 223:1 226:1 227:1 230:1 231:1 242:2 248:1 253:1 257:1 259:1 275:1 280:1 292:1 313:1 319:1 332:1 345:1 368:1 374:1 378:3 392:1 407:1 420:1 446:1 481:1 487:1 499:1 510:2 536:1 571:2 625:4 686:1 707:1 714:3 760:2 803:1 849:1 1015:1 1033:1 1036:1 1110:1 1135:2 1153:1 1218:1 1271:1 1347:1 1501:1 1602:3 1611:3 1615:1 1632:2 1641:3 1680:1 2164:1 2186:1 2194:1 2200:2 2223:1 2316:1 2600:1 2673:2 2754:5 3080:1 3157:2 3224:2 3421:1 3432:1 3497:1 4209:1 5816:1 7119:3 7521:2 7522:2 7523:2 7574:1 7575:1 7576:2 8886:1 9000:1 9280:1 9281:1 9282:1 9283:1 9284:1 9285:1 9286:2 
0.008385976316601396 12:10 25:1 35:1 42:1 52:1 55:1 65:4 71:2 96:1 102:2 105:2 108:2 110:1 111:1 113:1 133:6 143:13 144:1 146:2 150:2 151:2 163:1 167:2 176:1 181:1 184:1 187:3 188:6 215:1 216:2 229:1 230:1 233:1 243:2 259:2 263:3 268:2 274:3 281:1 287:3 289:4 291:3 292:3 307:1 316:1 319:1 332:1 354:2 362:3 366:2 376:1 381:2 388:1 392:2 407:1 413:1 450:1 474:1 485:2 499:1 501:1 536:1 540:2 571:1 572:1 614:1 625:1 651:1 731:1 767:1 801:5 896:1 930:1 998:1 999:4 1031:1 1046:1 1086:1 1128:1 1173:1 1269:1 1283:2 1330:1 1482:1 1488:1 1583:2 1632:1 1715:1 1739:1 1776:1 1780:1 1872:1 1895:1 1906:2 2120:1 2146:1 2162:1 2163:1 2334:1 2352:1 2408:1 2414:1 2681:1 3042:2 3046:1 3054:1 3097:1 3185:1 3236:1 3343:1 3883:1 4189:1 4251:1 4260:1 4290:1 4528:1 5731:4 6080:1 7064:1 7908:1 8418:1 8916:1 9287:1 9288:1 9289:1 9290:1 9291:1 9292:1 9293:1 
0.02663243922625275 143:1 243:1 265:1 374:1 447:1 526:1 617:1 790:1 979:1 1938:1 2334:1 2335:1 4888:1 5756:1 9241:1 9342:1 
0.02378412054204099 2:1 7:1 12:2 42:2 71:3 102:1 110:2 113:1 137:1 150:1 151:1 155:1 185:1 188:3 216:1 222:1 231:1 236:1 332:1 351:1 355:1 369:1 392:1 499:3 526:1 536:1 703:1 985:1 1015:1 1178:1 1192:2 1424:1 1474:1 3147:1 4088:1 5099:1 5674:1 6264:1 8649:2 9333:1 9334:1 9335:1 9347:1 
0.04034743258097449 7:1 12:1 65:1 102:1 133:1 143:2 151:1 187:1 188:2 204:1 217:1 224:1 230:1 243:1 261:1 281:2 316:1 355:1 514:1 610:1 762:1 801:1 803:1 972:1 980:1 1300:1 1488:1 1715:1 2868:1 3162:1 3307:1 3545:1 3565:1 3963:1 6670:1 
