**BIAS**	0.00000000000000000000 -0.04719159007072448730 0.31904312968254089355 0.42408877611160278320 0.12589418655261397362 0.49960759282112121582
w36	0.00000000000000000000 -0.74167904257774353027 -0.76008430123329162598 -0.72305791079998016357 -0.52449532598257064819 -0.77648885548114776611
w46	0.00000000000000000000 0.19120334833860397339 0.43236450850963592529 0.35104124248027801514 0.15541914477944374084 0.12307779490947723389
w65	0.00000000000000000000 -3.17612516507506370544 -3.85009759664535522461 -3.58513891696929931641 -3.48397886753082275391 -3.23780614137649536133
w215	0.00000000000000000000 -0.53303425014019012451 -0.53465764224529266357 -0.50387411937117576599 -0.52587350457906723022 -0.55274630337953567505
w261	0.00000000000000000000 -0.07301133684813976288 0.13310508243739604950 -0.14298153854906558990 -0.04591050744056701660 -0.05757503025233745575
w565	0.00000000000000000000 -0.01244819164276123047 -0.40652340650558471680 0.05298556387424468994 -0.72027504444122314453 0.27129799127578735352
w1162	0.00000000000000000000 -0.17347287386655807495 -0.22948624938726425171 -0.07004518061876296997 -0.17420090921223163605 -0.20664350688457489014
w1508	0.00000000000000000000 -0.31428366899490356445 0.22648771107196807861 0.54349055886268615723 0.43751280009746551514 0.29676208645105361938
w1613	0.00000000000000000000 0.52110353857278823853 -0.59009852260351181030 -0.05206779576838016510 0.01876918226480484009 -0.02224027737975120544
w1641	0.00000000000000000000 0.46355411410331726074 0.14418640732765197754 0.62651970982551574707 0.07132816314697265625 0.45641008019447326660
w1662	0.00000000000000000000 -0.37400902062654495239 0.63005208224058151245 0.41244738548994064331 -0.07475604861974716187 0.11294716037809848785
w1797	0.00000000000000000000 1.14178395271301269531 0.51090444624423980713 0.01325872540473937988 0.23468331247568130493 -0.01231905817985534668
w1842	0.00000000000000000000 -0.31172631680965423584 0.08790037035942077637 0.19045345485210418701 -0.05726727284491062164 -0.13999085128307342529
w1988	0.00000000000000000000 -0.00468431785702705383 0.08308193460106849670 0.23755912110209465027 -0.07528646662831306458 -0.01967160776257514954
w2025	0.00000000000000000000 0.00803865119814872742 0.19762365147471427917 -0.09345093742012977600 -0.05167050287127494812 0.16554108634591102600
w2399	0.00000000000000000000 -0.32068948447704315186 -0.77153624594211578369 0.37612281739711761475 -0.23381270468235015869 -0.19226204627193510532
w2456	0.00000000000000000000 -0.17975958064198493958 0.43097719177603721619 -0.30621150508522987366 0.25469825789332389832 0.08366101980209350586
w2521	0.00000000000000000000 -0.74554359912872314453 -0.35500261187553405762 0.02791132032871246338 0.11601391434669494629 -0.12802785634994506836
w2597	0.00000000000000000000 -0.43833981454372406006 0.10783347487449645996 -0.80387651920318603516 -0.32857361435890197754 0.01100882887840270996
w2618	0.00000000000000000000 -0.42314608395099639893 -0.44646309316158294678 -0.18914089351892471313 -0.21399272978305816650 -0.13802972435951232910
w2641	0.00000000000000000000 0.03780403733253479004 1.96981769800186157227 1.10414552688598632812 -0.15851742029190063477 0.13763245940208435059
w2902	0.00000000000000000000 -0.14963075518608093262 0.73831155896186828613 0.58625370264053344727 0.13926510885357856750 -0.17652243375778198242
w3016	0.00000000000000000000 0.20861452817916870117 -0.20260986685752868652 -1.18383675813674926758 -0.45124687254428863525 0.25488394498825073242
w3050	0.00000000000000000000 -0.20067618787288665771 0.10571183636784553528 0.21548170596361160278 0.51409865915775299072 -0.00896131992340087891
w3163	0.00000000000000000000 0.21734340861439704895 0.67120572924613952637 0.44020570814609527588 -0.06371381878852844238 0.30451283603906631470
w3268	0.00000000000000000000 0.15331650525331497192 0.38364540040493011475 -0.11522489786148071289 0.18948616087436676025 0.19987760484218597412
w3272	0.00000000000000000000 0.03591004014015197754 -0.96856063604354858398 -0.50059691071510314941 -0.19923245906829833984 -0.43152926862239837646
w3287	0.00000000000000000000 0.43278955109417438507 -0.05313869751989841461 -0.17325800471007823944 -0.15049166791141033173 -0.13331876508891582489
w3411	0.00000000000000000000 -0.26126710325479507446 -0.32282638549804687500 -0.26009634137153625488 -0.24807514995336532593 -0.10849802196025848389
w3447	0.00000000000000000000 -0.60678653419017791748 -0.35965344309806823730 -0.20560725405812263489 0.32054169476032257080 -0.21043923869729042053
w3669	0.00000000000000000000 -0.25783672928810119629 -0.15781333111226558685 -0.18774645216763019562 -0.22188150882720947266 -0.26970864832401275635
w31	0.00000000000000000000 0.12233907356858253479 -0.30568452551960945129 0.41078929230570793152 -0.04229095578193664551 -0.09095731005072593689
w102	0.00000000000000000000 0.63682948052883148193 0.17918912321329116821 0.18541323766112327576 0.73489908874034881592 -0.45272172987461090088
w147	0.00000000000000000000 1.04445335268974304199 0.79359367489814758301 0.66758849471807479858 0.27655503153800964355 0.61232090741395950317
w168	0.00000000000000000000 -0.50924620032310485840 0.16085651516914367676 -0.18892375519499182701 -0.38984039425849914551 -0.27548201382160186768
w211	0.00000000000000000000 -0.01321858167648315430 0.17632128298282623291 0.51813897490501403809 0.68627375364303588867 0.40508243441581726074
w410	0.00000000000000000000 -0.03189852461218833923 -0.05655772611498832703 -0.00393116474151611328 0.32097555324435234070 0.00301758199930191040
w505	0.00000000000000000000 -0.02705237269401550293 -0.15831600129604339600 -0.15218229591846466064 0.34570261836051940918 0.86574082076549530029
w543	0.00000000000000000000 0.25824874266982078552 -0.22334467247128486633 -0.03901695832610130310 0.22077501937747001648 -0.04220516607165336609
w579	0.00000000000000000000 0.19188936427235603333 -0.47362222895026206970 -0.05073075741529464722 0.28232109919190406799 -0.11425145342946052551
w650	0.00000000000000000000 0.20850329101085662842 -0.15055693686008453369 0.53367255628108978271 0.11837871465831995010 -0.02447898685932159424
w900	0.00000000000000000000 0.50017228722572326660 -0.09919014573097229004 0.57431423664093017578 -0.33074799180030822754 0.56372818350791931152
w981	0.00000000000000000000 -0.33669928461313247681 -0.08713036775588989258 -0.56773257255554199219 -0.27503846958279609680 -0.13384114205837249756
w1029	0.00000000000000000000 -0.37494350597262382507 -0.49967899918556213379 -0.16281259059906005859 -0.42085393518209457397 -0.36255216971039772034
w1160	0.00000000000000000000 -0.35774371773004531860 -0.42182383686304092407 0.20627591758966445923 0.19392039626836776733 0.03532433509826660156
w1329	0.00000000000000000000 -0.07362626120448112488 -0.41891101375222206116 0.56517749652266502380 0.10450355336070060730 -0.02421377599239349365
w1511	0.00000000000000000000 -0.23577681928873062134 -0.27411678433418273926 -0.46465422213077545166 0.39400117099285125732 -0.33830390870571136475
w1583	0.00000000000000000000 0.25069152936339378357 0.33706912770867347717 0.74500826001167297363 0.30183666758239269257 0.01755839586257934570
w1605	0.00000000000000000000 0.10283239185810089111 0.38620068132877349854 0.38879160583019256592 -0.05745945870876312256 0.39125689864158630371
w1915	0.00000000000000000000 0.18319991230964660645 -0.23303325474262237549 0.35877284407615661621 0.10230846703052520752 -0.30219367146492004395
w1987	0.00000000000000000000 0.54668965935707092285 0.32679648324847221375 0.30401986464858055115 -0.05465453863143920898 0.50677013397216796875
w2065	0.00000000000000000000 0.11758636683225631714 0.22958984225988388062 0.04687958210706710815 -0.01471196115016937256 0.39224968850612640381
w2085	0.00000000000000000000 0.59081144630908966064 0.28835219889879226685 0.50375261157751083374 0.61787831783294677734 0.33431120589375495911
w2216	0.00000000000000000000 0.45368969440460205078 0.89366352558135986328 0.55762044340372085571 0.23877403140068054199 0.96425914764404296875
w2266	0.00000000000000000000 -0.15269844233989715576 -0.39238183759152889252 -0.96496093273162841797 -0.00518122315406799316 -0.68157374858856201172
w2284	0.00000000000000000000 -0.09664767608046531677 -0.19012727588415145874 -0.19999670609831809998 -0.19239479675889015198 -0.17035254649817943573
w2374	0.00000000000000000000 0.67229184508323669434 0.48624923825263977051 0.04947319626808166504 0.68775415420532226562 0.17747522890567779541
w2429	0.00000000000000000000 0.40057468414306640625 -0.19959977269172668457 0.39095464348793029785 0.31399658322334289551 -0.10808868706226348877
w2468	0.00000000000000000000 -0.05032699927687644958 0.10234982892870903015 0.27493335679173469543 -0.12499543651938438416 0.01332367956638336182
w2474	0.00000000000000000000 -0.01929895393550395966 -0.01166912168264389038 0.30360222794115543365 -0.17995490692555904388 -0.00753138959407806396
w2544	0.00000000000000000000 -0.56485477089881896973 -0.18792632222175598145 -0.01803296804428100586 -0.27600868418812751770 -0.38761168718338012695
w2568	0.00000000000000000000 -0.01278944313526153564 -0.03387662768363952637 -0.40288594365119934082 -0.23664809763431549072 -0.25830546021461486816
w2570	0.00000000000000000000 -0.37186393700540065765 0.02506140805780887604 0.18164562620222568512 0.09852647222578525543 -0.14108541421592235565
w2594	0.00000000000000000000 0.20906386524438858032 -0.07194233685731887817 0.24491030722856521606 -0.16579364985227584839 -0.05928520858287811279
w2609	0.00000000000000000000 -0.09370900131762027740 -0.06441167928278446198 0.09527887217700481415 0.21578176133334636688 -0.01791542582213878632
w2699	0.00000000000000000000 -0.07052076607942581177 0.23239285498857498169 -0.00162799656391143799 0.03427262813784182072 -0.00784144550561904907
w2717	0.00000000000000000000 0.57685290277004241943 0.12160123884677886963 0.84042787551879882812 0.15376532077789306641 0.43286685645580291748
w2976	0.00000000000000000000 -0.14475116133689880371 -0.66841259598731994629 0.01854985952377319336 -0.73522055149078369141 -0.71098476648330688477
w2977	0.00000000000000000000 0.00898939743638038635 0.16354062408208847046 -0.09593818336725234985 0.35991594940423965454 -0.06327188760042190552
w3203	0.00000000000000000000 -0.03690534457564353943 -0.01888172328472137451 0.27267409488558769226 -0.02671362459659576416 -0.04082639887928962708
w1	0.00000000000000000000 0.19506752490997314453 -0.98033475875854492188 -0.48924909532070159912 -0.18655748665332794189 -0.53529168665409088135
w21	0.00000000000000000000 -0.03985309973359107971 0.24993972852826118469 -0.18341166898608207703 0.45064966753125190735 -0.19261325523257255554
w110	0.00000000000000000000 0.82349935173988342285 0.92338520288467407227 0.71486229076981544495 0.84626932442188262939 0.63198883272707462311
w133	0.00000000000000000000 -0.58570729196071624756 0.01295147836208343506 0.01303097605705261230 -0.34553322196006774902 -0.02774298191070556641
w196	0.00000000000000000000 0.25318048894405364990 -0.35561268031597137451 0.10272857546806335449 -0.21005667746067047119 -0.03164878673851490021
w244	0.00000000000000000000 0.51504221558570861816 0.65708100795745849609 -0.33087018132209777832 0.51343275606632232666 0.41720640659332275391
w601	0.00000000000000000000 0.28254015929996967316 0.44585135579109191895 0.33670955151319503784 0.43808545172214508057 0.31911746971309185028
w631	0.00000000000000000000 0.44148503243923187256 0.14452143013477325439 -0.21436983346939086914 0.45696918666362762451 0.86615741252899169922
w752	0.00000000000000000000 -0.44290080666542053223 0.04025067389011383057 0.03711125254631042480 -0.14159694686532020569 -0.44280973076820373535
w865	0.00000000000000000000 -0.66483284533023834229 -0.15418540500104427338 0.07920585572719573975 0.07591293752193450928 -0.35255402326583862305
w1982	0.00000000000000000000 -0.31627604365348815918 0.07095742225646972656 -0.47772067785263061523 0.11519950628280639648 -0.14705344755202531815
w2215	0.00000000000000000000 0.22548992186784744263 0.21013176441192626953 0.18924346938729286194 0.40137775242328643799 0.40274238586425781250
w2233	0.00000000000000000000 -0.28488466888666152954 -0.06897635012865066528 -0.08336794376373291016 -0.27620422840118408203 -0.23038703575730323792
w2310	0.00000000000000000000 -0.52861932292580604553 -0.32767492532730102539 -0.98026838898658752441 -0.60372495651245117188 -0.35939115285873413086
w2335	0.00000000000000000000 -0.11850489675998687744 0.17681264877319335938 -0.18302744626998901367 -0.12303976342082023621 -0.14795992523431777954
w2351	0.00000000000000000000 -0.31630695238709449768 -0.28661880828440189362 -0.19895358383655548096 -0.42931306362152099609 -0.29278403148055076599
w2558	0.00000000000000000000 -0.18229375034570693970 -0.21015807241201400757 0.08226352930068969727 -0.14137379825115203857 -0.33775505423545837402
w2840	0.00000000000000000000 -0.50587025284767150879 0.04043424129486083984 -0.48841969668865203857 -0.49055942893028259277 -0.49377082288265228271
w2920	0.00000000000000000000 0.06895008962601423264 0.33954502642154693604 -0.06338885426521301270 -0.14147298038005828857 0.15097480267286300659
w2952	0.00000000000000000000 -0.19092400511726737022 -0.07670670747756958008 -0.08120799809694290161 -0.14116643741726875305 -0.56555464863777160645
w3235	0.00000000000000000000 -0.13793107122182846069 -0.58070267736911773682 0.18282143771648406982 -0.75102178752422332764 -0.17307107895612716675
w3288	0.00000000000000000000 -0.45802883803844451904 0.03633669018745422363 -0.52494177222251892090 -0.72723111510276794434 -0.19072960317134857178
w3322	0.00000000000000000000 0.60254357103258371353 0.08301979396492242813 -0.35356380697339773178 -0.00367840426042675972 -0.31687136646360158920
w3365	0.00000000000000000000 -0.50179689377546310425 -0.39274248451692983508 -0.45876560360193252563 -0.54023538529872894287 -0.42013802193105220795
w3599	0.00000000000000000000 0.42055228352546691895 0.38468757271766662598 0.25910810381174087524 0.07964825630187988281 0.03029744327068328857
w3657	0.00000000000000000000 -0.33917263150215148926 -0.19072158634662628174 -0.01994788646697998047 -0.45341254770755767822 -0.31105501204729080200
w280	0.00000000000000000000 0.02551249461248517036 0.51186431618407368660 -0.07835230557247996330 -0.07908553956076502800 -0.37918056873604655266
w424	0.00000000000000000000 -0.25846670567989349365 -0.21193119138479232788 0.05525422096252441406 0.10085172951221466064 -0.36935363709926605225
w532	0.00000000000000000000 0.23920992761850357056 -0.03639281541109085083 -0.34777960926294326782 0.60305466502904891968 0.09761244058609008789
w759	0.00000000000000000000 -0.12019085511565208435 0.19199009612202644348 0.00482191517949104309 -0.04147839918732643127 0.23539033904671669006
w819	0.00000000000000000000 -0.03724213456735014915 0.37547091254964470863 -0.23571478715166449547 -0.12830354413017630577 0.03420327464118599892
w964	0.00000000000000000000 -0.46754056960344314575 -0.33792562596499919891 -0.36215467634610831738 -0.32978863455355167389 -0.61043673753738403320
w1021	0.00000000000000000000 -0.02952049020677804947 0.36325765680521726608 -0.25893049407750368118 -0.03067989367991685867 0.02735420968383550644
w1157	0.00000000000000000000 0.31054775230586528778 0.70051249861717224121 1.61841934919357299805 -0.20041263103485107422 -0.27909129858016967773
w1561	0.00000000000000000000 0.01752373576164245605 0.16564723476767539978 0.09818282350897789001 -0.00513872876763343811 0.04371752962470054626
w1693	0.00000000000000000000 0.06807586550712585449 0.44059747457504272461 -0.21467819809913635254 0.13948059640824794769 0.31679481267929077148
w1736	0.00000000000000000000 0.27016183733940124512 0.29705120623111724854 0.47306355834007263184 -0.24333080649375915527 0.15051983692683279514
w1868	0.00000000000000000000 0.56925432384014129639 -0.18452340364456176758 1.06858804821968078613 2.54714316129684448242 0.40296214818954467773
w1968	0.00000000000000000000 -0.57490518689155578613 0.03487151488661766052 0.57649704813957214355 0.57001209259033203125 -0.25463700294494628906
w1975	0.00000000000000000000 0.10959415882825851440 0.36813826858997344971 0.29624530673027038574 -0.14054773747920989990 0.33975680172443389893
w2144	0.00000000000000000000 -0.43754504621028900146 0.27964314818382263184 -0.43638268113136291504 -0.50337806344032287598 -0.51388052105903625488
w2339	0.00000000000000000000 -0.20811703056097030640 -0.21826259046792984009 -0.20467365533113479614 -0.33278044313192367554 0.42251027375459671021
w2581	0.00000000000000000000 -0.01409724727272987366 0.25596674159169197083 -0.02750422433018684387 -0.00599433854222297668 0.05019475612789392471
w2727	0.00000000000000000000 0.00634246878325939178 0.30658560991287231445 -0.29043641686439514160 0.15299524366855621338 -0.01139956340193748474
w2884	0.00000000000000000000 0.30748873949050903320 0.45697881653904914856 0.92736953496932983398 0.49372326582670211792 0.16533085703849792480
w82	0.00000000000000000000 0.02597498893737792969 -0.44400750100612640381 -0.25453524291515350342 -0.11742337886244058609 0.16134940087795257568
w131	0.00000000000000000000 -0.63489499688148498535 -0.30203067511320114136 -0.14510303735733032227 -0.14629917591810226440 -0.38702980428934097290
w169	0.00000000000000000000 -0.73779143393039703369 -0.66756828129291534424 -0.58341441303491592407 -0.24026447534561157227 -0.86459398269653320312
w230	0.00000000000000000000 -0.17566189169883728027 -0.46473016496747732162 -0.98377460241317749023 -0.72555243968963623047 -0.36135058850049972534
w591	0.00000000000000000000 -0.01247091591358184814 -0.55934351682662963867 -0.46191348135471343994 0.02485734224319458008 -0.31807610392570495605
w643	0.00000000000000000000 -0.77814784646034240723 -0.88219842314720153809 -0.80012428760528564453 -0.28180329501628875732 -0.11504280567169189453
w1093	0.00000000000000000000 0.47278511524200439453 0.21597504243254661560 0.73569142818450927734 0.09786406159400939941 0.11123357713222503662
w1192	0.00000000000000000000 0.18644574284553527832 -0.05615071952342987061 -0.54414385557174682617 -0.40650470554828643799 -0.33152602612972259521
w1226	0.00000000000000000000 0.35531821846961975098 0.21314518910367041826 0.12342769652605056763 0.24802028760313987732 0.32540335506200790405
w1360	0.00000000000000000000 0.22937500476837158203 0.21982908248901367188 -0.15416737645864486694 -0.07128850370645523071 0.43303836137056350708
w1512	0.00000000000000000000 0.60508522018790245056 -0.09789441153407096863 0.10631119087338447571 -0.21567371860146522522 -0.24534285441040992737
w1525	0.00000000000000000000 -0.24929760396480560303 -0.26209960877895355225 0.18621079623699188232 -0.16780428867787122726 -0.38908770680427551270
w1570	0.00000000000000000000 0.08054173737764358521 0.31394188106060028076 0.49798084795475006104 0.59731267392635345459 -0.41593493521213531494
w1610	0.00000000000000000000 -0.68269671499729156494 -0.62317292392253875732 -0.40071585774421691895 -0.99662479758262634277 -0.51923794858157634735
w1623	0.00000000000000000000 0.14924090728163719177 0.20291404053568840027 0.02803235873579978943 -0.21413049474358558655 0.15718398615717887878
w1763	0.00000000000000000000 0.31022395938634872437 0.13662765175104141235 -0.33431848138570785522 0.15011732280254364014 0.25533639639616012573
w1825	0.00000000000000000000 0.30644801631569862366 0.15592459216713905334 -0.11919565126299858093 -0.03331544622778892517 -0.03980993106961250305
w2134	0.00000000000000000000 0.21176421642303466797 -0.05725781619548797607 0.16941893845796585083 0.02328431978821754456 0.06035454943776130676
w2189	0.00000000000000000000 0.00162618421018123627 -0.29971149377524852753 -0.21648777835071086884 -0.20912943594157695770 0.41802817769348621368
w2448	0.00000000000000000000 1.26091071963310241699 0.85820886492729187012 -0.41339704394340515137 0.34836938604712486267 0.49870298802852630615
w2733	0.00000000000000000000 0.33319900184869766235 0.45310500264167785645 0.31144538521766662598 0.28554548323154449463 0.86259844899177551270
w2741	0.00000000000000000000 -0.09917858988046646118 -0.23872000724077224731 0.28102023154497146606 0.23458196967840194702 0.29746734350919723511
w2813	0.00000000000000000000 0.17150287330150604248 0.01755757629871368408 0.26871729642152786255 0.05224044620990753174 0.03634024411439895630
w3122	0.00000000000000000000 0.35714261233806610107 0.62029899656772613525 0.83960801362991333008 0.56964498758316040039 0.46264636144042015076
w3249	0.00000000000000000000 0.09304630756378173828 0.08168469183146953583 0.02998130023479461670 0.43131307512521743774 -0.00070481747388839722
w3257	0.00000000000000000000 -0.10891028866171836853 0.27262184396386146545 1.19092803075909614563 -0.27664626762270927429 -0.75269801542162895203
w3564	0.00000000000000000000 0.34199075400829315186 0.10263383388519287109 -0.38413888216018676758 0.42735570669174194336 0.56624525785446166992
w3613	0.00000000000000000000 0.19881220161914825439 0.00330670177936553955 0.09950525686144828796 -0.00860602408647537231 0.13441999629139900208
w27	0.00000000000000000000 0.70776814222335815430 0.19460947066545486450 0.28329063206911087036 0.04778853058815002441 0.33476598560810089111
w55	0.00000000000000000000 0.36306954920291900635 0.14422738994471728802 0.14472466509323567152 0.12015198729932308197 0.12660048156976699829
w57	0.00000000000000000000 0.42996516823768615723 0.04487967491149902344 -0.11843666434288024902 0.88065606355667114258 -0.09923672676086425781
w300	0.00000000000000000000 -0.29332144930958747864 -0.26853247359395027161 0.42517770454287528992 -0.00125372223556041718 0.03892218321561813354
w459	0.00000000000000000000 0.01744088716804981232 0.21934754028916358948 0.16448168829083442688 -0.38935009762644767761 0.27338657155632972717
w462	0.00000000000000000000 -0.54908879101276397705 -0.68345749378204345703 -0.53700427711009979248 -0.57515683770179748535 -0.56679187715053558350
w533	0.00000000000000000000 0.48079560697078704834 0.17358717520255595446 0.17240689368918538094 0.10744066536426544189 0.14475104957818984985
w545	0.00000000000000000000 -0.26238908618688583374 -0.50493634492158889771 0.20212345570325851440 -0.48790357261896133423 0.54324432462453842163
w881	0.00000000000000000000 0.97440397739410400391 -0.27291655540466308594 0.75337707996368408203 0.80499625205993652344 0.33849295228719711304
w944	0.00000000000000000000 0.42759446427226066589 -0.27733907476067543030 0.05767259374260902405 -0.19563700631260871887 -0.15345343574881553650
w1241	0.00000000000000000000 0.03867703676223754883 0.19079110771417617798 -0.21936070919036865234 0.04058249667286872864 0.45723402500152587891
w1420	0.00000000000000000000 -0.00880408287048339844 -0.14775112271308898926 0.35137072205543518066 0.26755228638648986816 0.31508502364158630371
w1430	0.00000000000000000000 0.53416885435581207275 0.28004426043480634689 0.26903909072279930115 0.19344550371170043945 0.46972927451133728027
w1574	0.00000000000000000000 -0.62420154362916946411 -0.66178104281425476074 -0.81132879853248596191 -0.27322465181350708008 -0.68028001487255096436
w1781	0.00000000000000000000 0.31707692146301269531 0.17738280817866325378 0.18986710719764232635 0.19856099598109722137 0.38971471786499023438
w1846	0.00000000000000000000 -0.05227980762720108032 -0.20064884424209594727 -0.08410770632326602936 -0.23157174885272979736 -0.08443596959114074707
w1892	0.00000000000000000000 0.17766930162906646729 0.31117913872003555298 -0.05203089863061904907 0.19224695116281509399 0.06549848616123199463
w1995	0.00000000000000000000 0.56025351583957672119 0.37515923380851745605 0.35654718428850173950 0.73246151208877563477 0.54266859591007232666
w2186	0.00000000000000000000 -1.25353877618908882141 -1.63699862360954284668 -1.29096459224820137024 -1.39448627829551696777 -1.59528580307960510254
w2264	0.00000000000000000000 0.45320920646190643311 0.24312773346900939941 -0.02800920605659484863 0.22900795191526412964 0.04680281877517700195
w2430	0.00000000000000000000 0.51239949464797973633 0.19433943182229995728 0.29392522946000099182 0.13874241709709167480 0.37737678736448287964
w2604	0.00000000000000000000 -0.30459637939929962158 -0.19067198038101196289 0.10180036723613739014 -0.50426997244358062744 -0.32447160780429840088
w2612	0.00000000000000000000 0.14334614947438240051 0.02734460867941379547 0.02058099582791328430 0.08147947117686271667 -0.00914728268980979919
w2643	0.00000000000000000000 0.11493440344929695129 0.13383139669895172119 -0.00410863757133483887 0.49245971441268920898 0.22481818497180938721
w2657	0.00000000000000000000 -0.45754045248031616211 0.36634287238121032715 -0.14579143747687339783 -0.68374195694923400879 -0.16625727899372577667
w2768	0.00000000000000000000 0.02839298546314239502 0.34603829681873321533 0.08470833301544189453 0.29356696829199790955 0.51611676812171936035
w2785	0.00000000000000000000 -0.18714237958192825317 -0.30181555822491645813 -0.35501809418201446533 -0.31042516231536865234 -0.19707505032420158386
w2786	0.00000000000000000000 1.76479086279869079590 -0.56963703036308288574 -0.06182283163070678711 0.80065944790840148926 -0.32120922207832336426
w2926	0.00000000000000000000 -0.06725246459245681763 0.46819173544645309448 0.24233659356832504272 -0.07357697933912277222 -0.02581991255283355713
w2982	0.00000000000000000000 -0.13654038310050964355 -1.06567573547363281250 -1.02929943799972534180 -0.64905684441328048706 -0.50473903864622116089
w2996	0.00000000000000000000 0.26111009903252124786 0.15693346410989761353 0.27834477648138999939 0.39755430817604064941 0.32348566502332687378
w3012	0.00000000000000000000 0.58718593418598175049 -0.00951902195811271667 -0.03462842851877212524 -0.22447438538074493408 -0.01163629442453384399
w3058	0.00000000000000000000 -0.24772730469703674316 -0.11395113170146942139 0.08772384002804756165 0.34851959347724914551 0.12195260077714920044
w3110	0.00000000000000000000 0.23186171986162662506 -0.04485354758799076080 -0.06006026454269886017 -0.09648075513541698456 -0.09785895608365535736
w3223	0.00000000000000000000 -0.85567011684179306030 -1.08084702491760253906 -1.13346931338310241699 -0.87351611256599426270 -0.67115731537342071533
w3476	0.00000000000000000000 0.28426453471183776855 0.23816575901582837105 0.15050138533115386963 0.36659884452819824219 0.30558380484580993652
w3511	0.00000000000000000000 0.43770092725753784180 0.12580308318138122559 0.21798026561737060547 0.53763580322265625000 0.39672438055276870728
w3514	0.00000000000000000000 0.10970249958336353302 0.09636639058589935303 0.33747397363185882568 0.30584524571895599365 -0.01236622035503387451
w3647	0.00000000000000000000 0.42121688462793827057 -0.29534961842000484467 0.29505834914743900299 -0.02458311431109905243 -0.23193824850022792816
w0	0.00000000000000000000 0.39798144996166229248 0.49364422261714935303 0.01919057965278625488 0.63899776339530944824 0.16647196561098098755
w247	0.00000000000000000000 -0.10523691773414611816 -0.47524525225162506104 -0.78609445691108703613 -0.13602480292320251465 -0.78697916865348815918
w433	0.00000000000000000000 0.04104827344417572021 -0.00525278970599174500 -0.23122408241033554077 -0.16585190594196319580 -0.01208562031388282776
w672	0.00000000000000000000 0.28378076851367950439 0.06930822134017944336 0.06828692555427551270 0.30201849341392517090 0.22480548545718193054
w678	0.00000000000000000000 0.22187373787164688110 0.16241210699081420898 0.54201492667198181152 0.59404480457305908203 0.21097155660390853882
w699	0.00000000000000000000 0.02223967015743255615 0.09362415969371795654 0.44042505323886871338 0.14616278186440467834 0.35479938983917236328
w917	0.00000000000000000000 -0.42142423987388610840 -0.29345434904098510742 -0.10821056365966796875 -0.43262769281864166260 -0.78125289082527160645
w949	0.00000000000000000000 -0.28826572000980377197 -0.16183240711688995361 0.06214070320129394531 -0.33350822329521179199 -0.08948616310954093933
w1011	0.00000000000000000000 0.22319269552826881409 -0.50034817680716514587 -0.20395576581358909607 0.04812743142247200012 0.32921085134148597717
w1063	0.00000000000000000000 -0.05302874557673931122 -0.06715811975300312042 -0.14614273793995380402 0.06468835286796092987 0.12256854586303234100
w1382	0.00000000000000000000 -0.44161880761384963989 0.31031479686498641968 -0.24762646108865737915 0.01093313843011856079 -0.17216207832098007202
w1787	0.00000000000000000000 -0.21280101686716079712 0.06441871821880340576 -0.10792613774538040161 -0.22545482963323593140 -0.33273459970951080322
w1909	0.00000000000000000000 -0.25499174743890762329 0.05303839594125747681 0.02517965435981750488 -0.14592910185456275940 -0.18579039722681045532
w1931	0.00000000000000000000 -0.61077439785003662109 -0.70054259896278381348 -0.34834247082471847534 -0.04557311534881591797 -0.19943215698003768921
w2010	0.00000000000000000000 -0.13542996533215045929 -0.09813631512224674225 0.29231401346623897552 -0.05478427745401859283 -0.11484547890722751617
w2123	0.00000000000000000000 -0.07652292586863040924 -0.05693475902080535889 0.21282433159649372101 -0.43178218416869640350 0.22433397360146045685
w2327	0.00000000000000000000 -0.36420658975839614868 -0.21978250145912170410 -0.62408392131328582764 -0.55372758209705352783 -0.78725638985633850098
w2586	0.00000000000000000000 -0.10228902474045753479 -0.11518770456314086914 -0.15805805847048759460 -0.05584895526408217847 0.08907211199402809143
w2756	0.00000000000000000000 0.27955357730388641357 -0.09833051264286041260 -0.06982401013374328613 0.20136795938014984131 0.63672499358654022217
w2885	0.00000000000000000000 0.04848373681306838989 0.02082599699497222900 -0.19228003919124603271 0.55535532534122467041 0.06993603333830833435
w3277	0.00000000000000000000 0.02959547936916351318 -0.44502285122871398926 -0.49175408482551574707 0.06668627262115478516 -0.32785546034574508667
w3572	0.00000000000000000000 -0.15025839884765446186 0.34106415510177612305 -0.33557921648025512695 -0.45596861839294433594 -0.23881889879703521729
w380	0.00000000000000000000 0.58304095268249511719 0.23583712242543697357 0.36176384985446929932 0.09670957922935485840 0.40674567222595214844
w387	0.00000000000000000000 0.44336062297224998474 0.21870481595396995544 -0.60582489147782325745 0.09189177677035331726 -0.42434332147240638733
w546	0.00000000000000000000 -0.29003223776817321777 0.54227504134178161621 0.85786679387092590332 0.11598064750432968140 0.12472575902938842773
w625	0.00000000000000000000 -0.04186508432030677795 -0.23759136348962783813 0.13955011218786239624 -0.00305344909429550171 -0.33323674649000167847
w835	0.00000000000000000000 0.27111978828907012939 0.30980060994625091553 1.43946671485900878906 0.33024778962135314941 0.58644931018352508545
w852	0.00000000000000000000 -0.07447293400764465332 -0.39981535077095031738 0.41455176472663879395 0.63494744896888732910 -0.02337086200714111328
w989	0.00000000000000000000 -0.28891140222549438477 -0.47901396453380584717 0.01348942518234252930 -0.25488943606615066528 -0.10096354037523269653
w1068	0.00000000000000000000 -0.06716138869524002075 0.00437106192111968994 -0.44133357703685760498 0.03416925668716430664 -0.27957503497600555420
w1097	0.00000000000000000000 -0.13220676593482494354 0.40010115690529346466 -0.11486063711345195770 0.14434434659779071808 -0.10959270410239696503
w1156	0.00000000000000000000 -0.08708552271127700806 -0.11729555577039718628 0.22698115557432174683 0.15749587118625640869 0.05475261900573968887
w1239	0.00000000000000000000 -0.20689114928245544434 0.12248674035072326660 -0.52815665304660797119 0.26105771958827972412 -0.22760920226573944092
w1471	0.00000000000000000000 0.23391808941960334778 -0.65997781977057456970 -0.02179584279656410217 0.26364647224545478821 0.43067148700356483459
w1624	0.00000000000000000000 -0.08127941004931926727 0.20437883585691452026 0.25962995737791061401 -0.32084349542856216431 -0.25148137658834457397
w1796	0.00000000000000000000 -0.03970362246036529541 0.00018233805894851685 0.12553407251834869385 0.25027189403772354126 0.02570941299200057983
w1901	0.00000000000000000000 0.54141820222139358521 -0.13030540943145751953 1.30347961187362670898 0.34946191310882568359 0.48721476271748542786
w1916	0.00000000000000000000 -0.00055358931422233582 -0.10466479882597923279 0.41814521327614784241 -0.34934192523360252380 -0.29181632027029991150
w2037	0.00000000000000000000 0.00257151201367378235 0.32293985038995742798 -0.02542299032211303711 -0.12680276483297348022 -0.04284039884805679321
w2188	0.00000000000000000000 0.08390387892723083496 -0.79823946952819824219 -0.05848523974418640137 -0.32814282178878784180 0.40606448054313659668
w2615	0.00000000000000000000 -0.11652304278686642647 -0.09905932890251278877 -0.16911552147939801216 -0.07232160912826657295 0.30957245035097002983
w2745	0.00000000000000000000 -0.58797987550497055054 0.11611627787351608276 0.41097084432840347290 -0.28759483247995376587 -0.02408291026949882507
w2870	0.00000000000000000000 0.16809636913239955902 0.00926004350185394287 0.37201467156410217285 0.21835941076278686523 0.08724070340394973755
w2935	0.00000000000000000000 0.09365776553750038147 0.63322857394814491272 -0.40032785758376121521 0.06027213484048843384 -0.10842531546950340271
w3313	0.00000000000000000000 -0.04495950043201446533 -0.11446546018123626709 0.47409595549106597900 0.19558248668909072876 -0.01285623759031295776
w3671	0.00000000000000000000 -0.13266122341156005859 -0.32013904675841331482 -0.08366681635379791260 -0.55071839690208435059 -0.43789596855640411377
w3689	0.00000000000000000000 -0.20078537613153457642 -0.07736616209149360657 0.00475722551345825195 -0.14029654860496520996 -0.14215682074427604675
w99	0.00000000000000000000 0.13513127341866493225 0.16164181008934974670 -0.00372755154967308044 -0.04759951308369636536 0.03883897233754396439
w333	0.00000000000000000000 0.61718297004699707031 0.22881603660061955452 0.23885044082999229431 0.02999284863471984863 0.24454680085182189941
w493	0.00000000000000000000 0.07942441757768392563 -0.46355992648750543594 0.54700305964797735214 -0.38588988874107599258 0.14513607230037450790
w542	0.00000000000000000000 0.12966273352503776550 -0.08984777703881263733 0.16767321154475212097 0.07194373384118080139 0.05037708906456828117
w771	0.00000000000000000000 0.28240537643432617188 0.38624769449234008789 0.01546879112720489502 0.03480039536952972412 0.10223933495581150055
w920	0.00000000000000000000 -0.16212365031242370605 -0.55387522652745246887 -0.56798092275857925415 -1.03149121999740600586 -0.59321398288011550903
w1014	0.00000000000000000000 -0.11705863475799560547 -0.43521919846534729004 -0.48881857097148895264 -0.29028630093671381474 -0.34559632092714309692
w1274	0.00000000000000000000 0.18684617057442665100 0.12199155241250991821 -0.07881802320480346680 0.76756322383880615234 -0.04557488858699798584
w1397	0.00000000000000000000 0.01109310239553451538 0.09259885549545288086 0.21796198189258575439 0.12744926498271524906 0.27073800563812255859
w1634	0.00000000000000000000 -0.16456228494644165039 0.03188294172286987305 -0.13305514678359031677 -0.07403984665870666504 -0.25694432854652404785
w1755	0.00000000000000000000 -0.08045000862330198288 0.14359994232654571533 -0.28645920753479003906 -0.16181477904319763184 -0.18537577241659164429
w1808	0.00000000000000000000 -0.23199953511357307434 0.14015504717826843262 -0.09776765108108520508 -0.40453781187534332275 -0.38036003708839416504
w1922	0.00000000000000000000 -0.08019252121448516846 -0.02341370284557342529 -0.11168635636568069458 -0.33974744379520416260 -0.30387036502361297607
w1936	0.00000000000000000000 0.15421718358993530273 -0.08919373154640197754 -0.47981523722410202026 -0.74811011552810668945 -0.89259690046310424805
w2168	0.00000000000000000000 -0.29177805781364440918 0.13182252645492553711 -0.07098776847124099731 -0.35939382016658782959 -0.26577789336442947388
w2231	0.00000000000000000000 0.12810262292623519897 0.15163563936948776245 -0.02372591197490692139 0.05324730090796947479 0.06138316512806341052
w2232	0.00000000000000000000 0.08475191518664360046 0.24014951288700103760 0.09924782440066337585 0.31123490631580352783 0.12858453392982482910
w2278	0.00000000000000000000 -0.52805278729647397995 -0.80403509736061096191 -0.17033910751342773438 -0.80555933713912963867 -0.81839087605476379395
w2434	0.00000000000000000000 -0.02290159696713089943 0.11983177578076720238 0.04608202492818236351 -0.05369666451588273048 -0.04431595886126160622
w2576	0.00000000000000000000 0.35805664211511611938 0.97933250665664672852 -0.07441607117652893066 0.40836563706398010254 0.12328296899795532227
w2610	0.00000000000000000000 0.30408443510532379150 0.11719999089837074280 0.02245550230145454407 -0.04808132350444793701 0.05358788557350635529
w2735	0.00000000000000000000 0.36136285215616226196 -0.14776634424924850464 0.32739043980836868286 0.43454930931329727173 -0.19850062578916549683
w2818	0.00000000000000000000 0.28195641189813613892 0.22532229125499725342 -0.48675928264856338501 0.59186314791440963745 0.09136296063661575317
w2879	0.00000000000000000000 -0.08719363063573837280 -0.39950084686279296875 -0.40145592391490936279 -0.19272377155721187592 0.04517908394336700439
w3086	0.00000000000000000000 -0.11969552561640739441 0.12334707751870155334 -0.04123442992568016052 0.24310504272580146790 -0.03989862278103828430
w3462	0.00000000000000000000 0.14359402656555175781 0.49118454754352569580 0.15989220887422561646 0.34885028004646301270 0.29580736905336380005
w43	0.00000000000000000000 0.18220428377389907837 -0.00394221395254135132 -0.00558239221572875977 0.03494527190923690796 0.35919249057769775391
w75	0.00000000000000000000 0.02161887288093566895 -0.59217371046543121338 -0.44858616590499877930 -0.40879169851541519165 -0.67160198092460632324
w166	0.00000000000000000000 0.36398376524448394775 -0.12749502062797546387 0.17703694943338632584 0.46855220198631286621 0.16453870199620723724
w177	0.00000000000000000000 -0.36423443257808685303 -0.85691627860069274902 -0.49826866760849952698 -0.60799610614776611328 -0.70978352427482604980
w200	0.00000000000000000000 0.35904847458004951477 0.43523143604397773743 -0.21658809110522270203 0.34508343413472175598 -0.58940572664141654968
w370	0.00000000000000000000 -0.00828158855438232422 0.37842161953449249268 -0.09463365375995635986 0.06106435507535934448 0.58337701857089996338
w553	0.00000000000000000000 0.27071645855903625488 0.60640392452478408813 0.51054089888930320740 0.81800949573516845703 0.63057091832160949707
w739	0.00000000000000000000 -0.08765384554862976074 -0.31035926938056945801 0.54766497015953063965 0.40989139676094055176 0.15652826614677906036
w816	0.00000000000000000000 0.14922130852937698364 -0.26799302548170089722 -0.00662665814161300659 -0.38468194752931594849 0.03459007292985916138
w878	0.00000000000000000000 0.48410374671220779419 0.18061697483062744141 1.55583888292312622070 0.35756315290927886963 0.67057817429304122925
w888	0.00000000000000000000 0.31503014662303030491 0.26044393703341484070 0.08938136696815490723 0.48449309170246124268 0.65727707743644714355
w951	0.00000000000000000000 -0.53380045294761657715 -0.43411088734865188599 -0.62552395462989807129 -0.57679802179336547852 -0.07706141471862792969
w1213	0.00000000000000000000 -0.39965590089559555054 0.21919996291399002075 -0.04959439486265182495 0.61954576522111892700 0.22991990298032760620
w1689	0.00000000000000000000 0.11774319410324096680 0.28685406595468521118 -0.32663251459598541260 0.48098112642765045166 0.47929014265537261963
w1733	0.00000000000000000000 0.38356678187847137451 0.08364754170179367065 0.36461639404296875000 0.26326818019151687622 0.16858854331076145172
w2002	0.00000000000000000000 0.22081812657415866852 0.56164319813251495361 -0.05117665231227874756 0.14076535776257514954 0.30579610168933868408
w2024	0.00000000000000000000 -0.15111199021339416504 -0.10543602705001831055 0.60099363327026367188 0.29746094346046447754 0.21266480535268783569
w2290	0.00000000000000000000 0.06440621614456176758 0.77475881576538085938 0.67806351184844970703 0.24289916455745697021 0.39930235967040061951
w2927	0.00000000000000000000 0.05947326123714447021 -0.27031227946281433105 0.10189682245254516602 -0.67862728238105773926 0.09671080112457275391
w3065	0.00000000000000000000 0.05764238536357879639 0.18711217492818832397 0.07830191403627395630 0.19041563570499420166 0.31480719149112701416
w3554	0.00000000000000000000 0.32203365862369537354 0.57825587689876556396 0.64354214072227478027 0.15491212904453277588 0.60574792325496673584
w125	0.00000000000000000000 0.51477813720703125000 0.37403707019984722137 0.77364552021026611328 0.54136219620704650879 0.18141633272171020508
w210	0.00000000000000000000 0.40746022760868072510 0.13677269965410232544 -0.09369567036628723145 0.20934921316802501678 0.64231857657432556152
w534	0.00000000000000000000 0.08548781275749206543 0.09916622191667556763 0.38193207979202270508 0.14638601802289485931 0.30937670171260833740
w822	0.00000000000000000000 0.24587690457701683044 0.23573422059416770935 -0.10880399867892265320 -0.20510544255375862122 -0.28597900643944740295
w833	0.00000000000000000000 -0.12949740141630172729 -0.35323967784643173218 0.11340824887156486511 0.46035305410623550415 0.29544287174940109253
w912	0.00000000000000000000 -0.16145405545830726624 0.24392538890242576599 0.15797466412186622620 0.09463237226009368896 -0.03748217597603797913
w995	0.00000000000000000000 -0.60663340985774993896 -0.38545354455709457397 0.07471662759780883789 -0.59823931753635406494 -0.92592641711235046387
w1100	0.00000000000000000000 -0.19326079264283180237 -0.25099395960569381714 -0.08343945443630218506 -0.16898174956440925598 -0.20520257949829101562
w1300	0.00000000000000000000 0.12554419972002506256 -0.01762613840401172638 0.07138639502227306366 -0.16227694414556026459 0.09870585240423679352
w1422	0.00000000000000000000 0.12672875076532363892 0.39194989204406738281 0.16674645617604255676 0.10679972916841506958 0.45967186987400054932
w1517	0.00000000000000000000 -0.03155171126127243042 -0.06019757688045501709 0.14023168385028839111 0.08648170530796051025 -0.04307340085506439209
w1528	0.00000000000000000000 -0.48500984907150268555 -0.43731753528118133545 -0.04522699117660522461 -0.03341479599475860596 -0.33451888710260391235
w1566	0.00000000000000000000 0.36040591541677713394 0.51846046745777130127 0.54953739047050476074 0.47060586512088775635 0.29201444983482360840
w1771	0.00000000000000000000 -0.08740073442459106445 -0.46471437811851501465 0.04715073108673095703 -0.52901324629783630371 -0.28321395814418792725
w1978	0.00000000000000000000 -0.03157583251595497131 0.13162792846560478210 0.14641313627362251282 0.16369364038109779358 -0.13555297628045082092
w1993	0.00000000000000000000 -0.06412327289581298828 0.80415670573711395264 0.14731411077082157135 0.05528036504983901978 -0.00717546045780181885
w2003	0.00000000000000000000 0.08817386440932750702 0.03303385153412818909 0.14167166501283645630 0.24754442274570465088 -0.09767048060894012451
w2340	0.00000000000000000000 0.14870161190629005432 -0.14344475790858268738 0.41769984737038612366 -0.03642923757433891296 -0.15471793338656425476
w2471	0.00000000000000000000 0.03090917319059371948 -0.33834290504455566406 0.34113180637359619141 -0.22099207341670989990 -0.16153454035520553589
w2752	0.00000000000000000000 0.21182101592421531677 0.09943909198045730591 1.26205126941204071045 -0.26728050410747528076 -0.25018112361431121826
w2868	0.00000000000000000000 -0.39906413108110427856 -0.48830118030309677124 -0.66529175639152526855 -0.30270523577928543091 -0.62450575828552246094
w2887	0.00000000000000000000 -0.01087229698896408081 -0.05498952604830265045 0.09203526191413402557 0.08799151144921779633 -0.03405161015689373016
w3552	0.00000000000000000000 0.26388226263225078583 -0.02651934325695037842 0.37327985465526580811 0.37494520843029022217 0.41443316638469696045
w3579	0.00000000000000000000 0.15573579072952270508 0.78857498615980148315 2.42700797319412231445 0.09260147809982299805 0.67977644130587577820
w3605	0.00000000000000000000 -0.21568885073065757751 -0.01862136647105216980 0.30699482932686805725 -0.06828557327389717102 0.25193749740719795227
w38	0.00000000000000000000 -0.63151459395885467529 0.12476448714733123779 0.09595184028148651123 -0.17918805405497550964 -0.29311178624629974365
w271	0.00000000000000000000 -0.05624000728130340576 -0.35733526945114135742 -0.26490391790866851807 -0.36052633821964263916 0.24532884359359741211
w356	0.00000000000000000000 -0.14789369655773043633 -0.15102182794362306595 -0.18468915298581123352 -0.15226435661315917969 -0.19465582072734832764
w396	0.00000000000000000000 -0.49921330064535140991 -0.22296515107154846191 -0.57887582480907440186 -0.36426950991153717041 -0.82604119181632995605
w428	0.00000000000000000000 -0.11792683694511651993 -0.11108482256531715393 -0.10886632231995463371 -0.12255694530904293060 -0.13998450338840484619
w444	0.00000000000000000000 0.23719292320311069489 -0.03804793953895568848 0.65459245443344116211 0.33974415808916091919 0.13326990604400634766
w519	0.00000000000000000000 -0.07406135788187384605 0.46559991547837853432 -0.18751125922426581383 -0.10889190575107932091 -0.02780007710680365562
w535	0.00000000000000000000 -0.08428827673196792603 -0.29102420061826705933 -0.13396087288856506348 -0.02420935034751892090 -0.56853942573070526123
w712	0.00000000000000000000 -0.39254535641521215439 -0.68644413352012634277 -0.08265697956085205078 -0.54164530336856842041 -0.70050114393234252930
w982	0.00000000000000000000 -0.71143621206283569336 -0.14775179326534271240 -0.89490705728530883789 -0.08709296584129333496 -0.30878951400518417358
w1215	0.00000000000000000000 -0.34639604389667510986 -0.28909116983413696289 -0.16189872473478317261 -0.11184998601675033569 -0.26935261487960815430
w1455	0.00000000000000000000 -0.01322165294550359249 -0.01573561667464673519 0.02289015450514853001 -0.05572045943699777126 0.07541942992247641087
w1565	0.00000000000000000000 0.09411801025271415710 0.13719808682799339294 -0.11650142446160316467 -0.09705283865332603455 -0.20698845759034156799
w1685	0.00000000000000000000 -0.43173287808895111084 -0.06627626344561576843 -0.09917097538709640503 -0.13270273990929126740 -0.00584692507982254028
w1726	0.00000000000000000000 -0.11792308930307626724 -0.11108084116131067276 -0.10886262776330113411 -0.12255325540900230408 -0.13997757062315940857
w2185	0.00000000000000000000 -1.24666854739189147949 -0.83053129166364669800 -0.92505233921110630035 -0.95950645208358764648 -1.13085284829139709473
w2258	0.00000000000000000000 -0.85515522956848144531 -0.71642419695854187012 -0.21168205142021179199 -0.68103708326816558838 -0.28740639984607696533
w2366	0.00000000000000000000 0.54957142472267150879 0.28285087272524833679 0.51423016190528869629 0.26762884482741355896 0.16786628961563110352
w2525	0.00000000000000000000 0.55504542589187622070 0.39901409298181533813 0.33874813467264175415 0.18410138785839080811 0.24879385344684123993
w2720	0.00000000000000000000 -0.00610683951526880264 -0.38274979125708341599 0.31453448999673128128 0.44801235664635896683 -0.41751151811331510544
w2857	0.00000000000000000000 -0.31386138498783111572 -0.21134975552558898926 0.39364017546176910400 -0.30041770637035369873 0.11576128005981445312
w3232	0.00000000000000000000 -0.20632161200046539307 0.29595375061035156250 0.45460741221904754639 -0.56890229880809783936 0.62832869589328765869
w3349	0.00000000000000000000 -0.11845437157899141312 -0.11161121772602200508 -0.10939411772415041924 -0.12308229506015777588 -0.14049379900097846985
w3492	0.00000000000000000000 -0.30859120190143585205 0.13084048032760620117 -0.23301072418689727783 0.18281133472919464111 -0.04362394800409674644
w3560	0.00000000000000000000 -0.29743183404207229614 -0.35024763643741607666 -0.22816062346100807190 -0.38267883658409118652 0.04116970300674438477
w32	0.00000000000000000000 0.08135666698217391968 0.59711591899394989014 0.41779394447803497314 -0.24342505633831024170 0.08645752072334289551
w165	0.00000000000000000000 0.12749899551272392273 0.37282420694828033447 0.17563994042575359344 0.16203928482718765736 0.14852587785571813583
w299	0.00000000000000000000 -0.00434093177318572998 0.47606299817562103271 0.06551888585090637207 0.33803902566432952881 0.01067611575126647949
w409	0.00000000000000000000 0.39883063733577728271 0.53468999266624450684 -0.00745716691017150879 0.24396592751145362854 0.43244029581546783447
w488	0.00000000000000000000 -0.01226018741726875305 0.23205795884132385254 0.04296677166712470353 0.00020069256424903870 0.00100342556834220886
w598	0.00000000000000000000 0.70750039815902709961 0.56050416827201843262 0.05020618438720703125 0.14677573740482330322 0.41421207785606384277
w731	0.00000000000000000000 0.04002690315246582031 2.35040593147277832031 0.80931077897548675537 0.50992371886968612671 0.00596457719802856445
w1079	0.00000000000000000000 -0.07687465101480484009 -0.01445866376161575317 0.14164891093969345093 -0.04499326646327972412 0.39283759146928787231
w1652	0.00000000000000000000 0.13855388760566711426 0.09643889963626861572 1.05250316858291625977 0.03609047830104827881 0.02091820538043975830
w1853	0.00000000000000000000 -0.03931523021310567856 -0.03098720218986272812 0.00526893232017755508 0.13897625822573900223 -0.00987861584872007370
w1953	0.00000000000000000000 -0.11091299727559089661 -0.02140090428292751312 -0.22859930619597434998 0.29022716358304023743 -0.11948018893599510193
w2041	0.00000000000000000000 -0.00368346530012786388 0.06695129838772118092 -0.00854824460111558437 -0.01911110873334109783 -0.00842371466569602489
w2492	0.00000000000000000000 -0.07746174745261669159 0.20101558603346347809 -0.19121353887021541595 0.22100842930376529694 -0.04773848317563533783
w2524	0.00000000000000000000 -0.00331463245674967766 0.06132648279890418053 -0.18923093611374497414 0.18133145337924361229 -0.01198544586077332497
w2531	0.00000000000000000000 0.80117598176002502441 0.27471621055155992508 0.21561736613512039185 0.32310811057686805725 -0.01590907573699951172
w2553	0.00000000000000000000 0.21336522698402404785 -0.49458613991737365723 -0.28922046720981597900 -0.17367859929800033569 -0.09803818166255950928
w2561	0.00000000000000000000 0.26401296630501747131 0.29069944098591804504 0.36455710604786872864 -0.21884028241038322449 -0.44095335528254508972
w2600	0.00000000000000000000 0.06481490284204483032 0.60818221420049667358 -0.04222594946622848511 -0.01920077949762344360 -0.00536171346902847290
w2647	0.00000000000000000000 -0.01069674314931035042 0.01195032009854912758 -0.08059403905645012856 0.17822529515251517296 -0.05566355446353554726
w3049	0.00000000000000000000 -0.08264782652258872986 0.34172134473919868469 0.14354715123772621155 -0.14618764445185661316 0.01857773959636688232
w3144	0.00000000000000000000 0.20561605505645275116 0.02439926378428936005 -0.55237157829105854034 -0.21370738931000232697 0.57551960460841655731
w3230	0.00000000000000000000 -0.09213882684707641602 0.12928104726597666740 0.21682925522327423096 0.12119092443026602268 0.28934329748153686523
w28	0.00000000000000000000 0.88450466096401214600 0.23492957651615142822 -0.14334137737751007080 -0.13598628342151641846 0.02361106127500534058
w245	0.00000000000000000000 -0.16659627109766006470 -0.69189620018005371094 0.13296037912368774414 -0.30396558344364166260 -0.47049030661582946777
w744	0.00000000000000000000 0.10223868337925523520 0.37048192322254180908 0.11490262486040592194 -0.11785233020782470703 0.11105793062597513199
w805	0.00000000000000000000 -0.27719672769308090210 -0.41833078116178512573 0.22954178601503372192 -0.15505479648709297180 -0.04038084670901298523
w1073	0.00000000000000000000 0.73384350538253784180 0.24421924352645874023 0.33550592139363288879 0.26817812398076057434 0.20713640749454498291
w1105	0.00000000000000000000 -0.31972949206829071045 0.12176483869552612305 -0.32567705214023590088 0.00845292210578918457 -0.33415402472019195557
w1121	0.00000000000000000000 0.35454408731311559677 -0.02322116214781999588 0.09392999764531850815 -0.39327947888523340225 0.06930754240602254868
w1312	0.00000000000000000000 -0.09646911174058914185 0.13468359410762786865 0.10934287309646606445 0.18230208754539489746 0.10152515769004821777
w1762	0.00000000000000000000 -0.29456106200814247131 -0.61129988729953765869 -0.17991292476654052734 -0.27051050961017608643 -0.08897180855274200439
w2028	0.00000000000000000000 0.05095896124839782715 -0.18351609632372856140 -0.23739873617887496948 -0.29990415275096893311 -0.28063598275184631348
w2750	0.00000000000000000000 -0.29487469792366027832 0.09421157836914062500 0.73965054750442504883 0.87492904067039489746 0.43384413421154022217
w3083	0.00000000000000000000 -0.05711904354393482208 -0.18735096976161003113 0.14501470699906349182 -0.72745349630713462830 0.58250180259346961975
w3179	0.00000000000000000000 0.02225455641746520996 0.24752016365528106689 -0.04099685326218605042 -0.22733448445796966553 -0.03898288495838642120
w3213	0.00000000000000000000 -0.99558922648429870605 -0.87157723307609558105 -0.04606273770332336426 -0.13678190112113952637 -0.54741589725017547607
w3228	0.00000000000000000000 0.36830040067434310913 0.47835206240415573120 -0.05114028602838516235 0.13913941476494073868 -0.13079483062028884888
w3472	0.00000000000000000000 -0.24588403105735778809 0.02262023091316223145 0.76719906926155090332 -0.14279037714004516602 0.76421722769737243652
w226	0.00000000000000000000 0.46953256428241729736 0.37982153147459030151 0.07033151388168334961 0.75791013240814208984 0.35428621619939804077
w257	0.00000000000000000000 0.13202133402228355408 0.57790543511509895325 -0.06781066581606864929 -0.16760794445872306824 -0.06796961650252342224
w593	0.00000000000000000000 0.11071854084730148315 0.06475418061017990112 -0.12438222765922546387 -0.18906655162572860718 0.09827271848917007446
w1060	0.00000000000000000000 -0.56799519062042236328 0.59138730168342590332 0.12973194010555744171 0.61341977119445800781 0.04572594165802001953
w1150	0.00000000000000000000 -0.11765721440315246582 -0.37051291763782501221 -0.49357248842716217041 -0.35865433514118194580 -0.39623891562223434448
w1201	0.00000000000000000000 0.28303223848342895508 0.22708199545741081238 0.14452742785215377808 0.06785500049591064453 0.47120407223701477051
w1539	0.00000000000000000000 0.15679676085710525513 0.03549117222428321838 0.51274700462818145752 -0.35053645074367523193 0.04118078574538230896
w1577	0.00000000000000000000 0.11795604974031448364 0.02552578900940716267 0.10473609715700149536 0.12753106653690338135 -0.20725448429584503174
w1582	0.00000000000000000000 0.01212756335735321045 -0.27115012705326080322 -0.43132804334163665771 -0.40393370389938354492 0.15267948806285858154
w1606	0.00000000000000000000 -0.41642613708972930908 -0.17056855186820030212 0.00677612423896789551 -0.01082976162433624268 -0.34926094114780426025
w2205	0.00000000000000000000 0.18657986447215080261 -0.06235983595252037048 -0.17314675822854042053 0.32729935273528099060 -0.04590319469571113586
w2237	0.00000000000000000000 0.23926885426044464111 0.08584377169609069824 -0.29322911798954010010 -0.45491765439510345459 0.09279158711433410645
w2338	0.00000000000000000000 -0.80614469200372695923 -0.23978038877248764038 0.38677062839269638062 -0.41742578893899917603 0.35861899703741073608
w2781	0.00000000000000000000 -0.19510361552238464355 -0.23306520842015743256 -0.40474122762680053711 -0.44655135273933410645 -0.24103906936943531036
w2794	0.00000000000000000000 -0.02983508631587028503 0.59280565753579139709 -0.10757483169436454773 -0.06666136160492897034 -0.02594858780503273010
w2948	0.00000000000000000000 -0.03306844737380743027 0.16016738954931497574 -0.03700524847954511642 -0.08537366148084402084 0.01536776963621377945
w2971	0.00000000000000000000 0.06102959811687469482 0.27995328605175018311 0.44028152525424957275 -0.01135557889938354492 0.06060969829559326172
w3095	0.00000000000000000000 -0.47106163203716278076 -0.20911928266286849976 -0.52062430977821350098 -0.27390957996249198914 -0.33125466853380203247
w3182	0.00000000000000000000 -0.04495177790522575378 0.47249990329146385193 -0.26759326830506324768 0.04458247497677803040 -0.24488948658108711243
w3189	0.00000000000000000000 -0.39649502187967300415 -0.11352130305022001266 0.01542343199253082275 -0.21125952899456024170 0.07213474065065383911
w528	0.00000000000000000000 0.38030208647251129150 -0.09489798545837402344 1.01773750782012939453 0.37504857778549194336 -0.19359657168388366699
w729	0.00000000000000000000 0.49359637498855590820 1.69350880384445190430 0.94298785924911499023 0.81903628632426261902 0.43335634469985961914
w1297	0.00000000000000000000 0.02555281668901443481 0.37533603608608245850 0.10641016066074371338 -0.09397411346435546875 0.02819619327783584595
w1723	0.00000000000000000000 0.42580869793891906738 -0.06687325239181518555 0.44348564743995666504 0.03286622464656829834 -0.09093916416168212891
w1788	0.00000000000000000000 -0.05414177291095256805 -0.21255127899348735809 0.44105974026024341583 -0.02681735344231128693 -0.07469536922872066498
w2057	0.00000000000000000000 -0.11393030546605587006 -0.13554047420620918274 -0.02992899715900421143 -0.06016029790043830872 -0.18207847326993942261
w2087	0.00000000000000000000 0.04393948614597320557 -0.09253908693790435791 0.83030213415622711182 0.21267756959423422813 0.18305917643010616302
w2111	0.00000000000000000000 0.16871175169944763184 0.12192752957344055176 0.02938482165336608887 1.35993793606758117676 0.36399651318788528442
w2208	0.00000000000000000000 -0.04075577203184366226 -0.01255885977298021317 -0.02875876519829034805 -0.07967262808233499527 0.18218579050153493881
w2280	0.00000000000000000000 0.10624060034751892090 -0.09301599860191345215 0.01140502095222473145 0.11495127156376838684 0.13827422261238098145
w2565	0.00000000000000000000 0.50685871392488479614 0.49149399250745773315 0.47754444554448127747 0.57011996209621429443 0.44955690391361713409
w2572	0.00000000000000000000 0.29204566963016986847 0.09356589801609516144 -0.28490255586802959442 0.25280358083546161652 -0.39581532590091228485
w2573	0.00000000000000000000 -0.52281750738620758057 -0.06237764656543731689 -0.34765110909938812256 -0.11340139806270599365 -0.41863636672496795654
w2930	0.00000000000000000000 -0.03225202113389968872 -0.31271670758724212646 -0.16620034351944923401 0.06959906220436096191 -0.25011810660362243652
w3200	0.00000000000000000000 0.10234118998050689697 0.79609850049018859863 0.48203961551189422607 0.04049444198608398438 0.22606324404478073120
w3548	0.00000000000000000000 -0.43518430739641189575 0.19591724872589111328 -0.63294848799705505371 -0.54218950867652893066 -0.52439036965370178223
w18	0.00000000000000000000 -0.30389163549989461899 0.27611010614782571793 0.38016646448522806168 -0.25017962511628866196 -0.11643452849239110947
w386	0.00000000000000000000 -0.73627248406410217285 -0.13074271380901336670 -0.53705365955829620361 -0.74383234977722167969 -0.04310780763626098633
w615	0.00000000000000000000 0.03146716766059398651 0.27999256551265716553 -0.02167008817195892334 0.02532001957297325134 0.00317685678601264954
w808	0.00000000000000000000 -0.62761241197586059570 -0.85271650552749633789 -0.38016547868028283119 -0.63007846474647521973 0.24502488970756530762
w1066	0.00000000000000000000 -0.03365588746964931488 0.22839406132698059082 -0.22354693710803985596 -0.39767041802406311035 0.09873679280281066895
w1518	0.00000000000000000000 0.02295521646738052368 0.26894672960042953491 0.24714695662260055542 -0.02800888568162918091 -0.05206403881311416626
w1635	0.00000000000000000000 0.79189303517341613770 0.32841153442859649658 -0.12767657637596130371 0.41426774859428405762 0.30580630898475646973
w1644	0.00000000000000000000 0.21415746118873357773 0.19989802874624729156 0.11775586009025573730 0.47098964452743530273 0.20534999528899788857
w1851	0.00000000000000000000 -0.15114807523787021637 0.17967779934406280518 -0.28115256130695343018 -0.41152869164943695068 -0.25925624370574951172
w1938	0.00000000000000000000 0.04871529713273048401 0.26469775475561618805 0.04506018199026584625 0.12981070019304752350 -0.29189342819154262543
w1984	0.00000000000000000000 0.23667879775166511536 0.94895881414413452148 0.37018546462059020996 -0.66235643625259399414 0.35430301725864410400
w2155	0.00000000000000000000 -0.04167414456605911255 -0.17287109792232513428 0.10019963979721069336 -0.08032518625259399414 -0.57645359635353088379
w2191	0.00000000000000000000 -0.06078377540688961744 -0.10918593406677246094 -0.21210837364196777344 0.16535234451293945312 -0.08621351420879364014
w2298	0.00000000000000000000 -0.16279895603656768799 0.41426175832748413086 -0.44659829139709472656 0.10280005633831024170 -0.35458058118820190430
w3169	0.00000000000000000000 0.40931758284568786621 0.06407453119754791260 0.36144319176673889160 0.72858598828315734863 -0.00551354885101318359
w3378	0.00000000000000000000 -0.10578469932079315186 0.29812633991241455078 0.30131687968969345093 0.65118618309497833252 0.26353545300662517548
w3429	0.00000000000000000000 0.54791778326034545898 0.44033746793866157532 0.45945185422897338867 0.29786690324544906616 0.51017700135707855225
w3502	0.00000000000000000000 0.38090390339493751526 -0.07326852902770042419 0.28479826822876930237 -0.34958675131201744080 -0.20609931275248527527
w3642	0.00000000000000000000 0.20290324091911315918 0.53690994530916213989 0.91470676660537719727 0.32056304812431335449 0.56179913878440856934
w122	0.00000000000000000000 -0.03908152761869132519 0.10238354769535362720 -0.10686593386344611645 0.15407653269357979298 -0.06850625458173453808
w401	0.00000000000000000000 0.40808396041393280029 0.28532266616821289062 0.52457178384065628052 0.69969615340232849121 0.68022976815700531006
w637	0.00000000000000000000 -0.18759981077164411545 0.08238343894481658936 -0.61078087985515594482 0.17708005011081695557 -0.39262695610523223877
w844	0.00000000000000000000 0.17460004240274429321 0.15849830210208892822 -0.33435892313718795776 0.61397141963243484497 0.00433333963155746460
w2030	0.00000000000000000000 -0.38365714251995086670 -0.19671497493982315063 -0.38400616496801376343 -0.37964482605457305908 -0.23035127297043800354
w2206	0.00000000000000000000 0.32988337054848670959 0.36085032299160957336 0.32782982289791107178 0.83640804886817932129 0.33942462503910064697
w2452	0.00000000000000000000 -0.02499721199274063110 -0.05442276597023010254 0.16165525466203689575 0.15701895207166671753 -0.07557629048824310303
w2526	0.00000000000000000000 0.32855419442057609558 0.36523262038826942444 0.32641437277197837830 0.83526191115379333496 0.33912131935358047485
w2991	0.00000000000000000000 0.32242061942815780640 -0.21799970418214797974 -0.51373613625764846802 -0.36175442487001419067 0.19465082138776779175
w3047	0.00000000000000000000 -0.20444551855325698853 0.04358363151550292969 -0.79637444019317626953 -0.42354881763458251953 -0.08614709973335266113
w3226	0.00000000000000000000 -0.11647421121597290039 0.13899932615458965302 0.02939571440219879150 0.72391536831855773926 0.12961745448410511017
w3410	0.00000000000000000000 0.27159269154071807861 0.05585410445928573608 0.06781300902366638184 0.54257810115814208984 -0.11341905593872070312
w614	0.00000000000000000000 -0.26705321669578552246 0.03003977239131927490 -0.47179824113845825195 -0.18489560484886169434 -0.47814017534255981445
w716	0.00000000000000000000 -0.01357536017894744873 -0.23622757941484451294 -0.11824483843520283699 -0.17218040302395820618 -0.11995188985019922256
w762	0.00000000000000000000 -0.23562555015087127686 -0.27138279378414154053 -0.71032938361167907715 -0.16211272776126861572 -0.70587399601936340332
w781	0.00000000000000000000 -0.14189169555902481079 -0.11903904564678668976 -0.09945560339838266373 -0.10078817186877131462 -0.09565566363744437695
w789	0.00000000000000000000 0.51210030913352966309 0.48437237739562988281 0.22276163101196289062 0.36162009835243225098 -0.08772015571594238281
w1177	0.00000000000000000000 -0.06222363188862800598 0.01328521128743886948 0.09388248249888420105 0.12509980425238609314 -0.01303805783390998840
w1309	0.00000000000000000000 -0.03073051571846008301 -0.12767686136066913605 -0.12497343216091394424 -0.17149299383163452148 -0.17414954304695129395
w1721	0.00000000000000000000 -0.13709025084972381592 -0.28131398418918251991 0.02407598495483398438 -0.75331178307533264160 -0.45219627022743225098
w2230	0.00000000000000000000 -0.13526648283004760742 -0.28479228541254997253 -0.34209059923887252808 0.19766998291015625000 -0.91877436637878417969
w2436	0.00000000000000000000 0.32802329584956169128 0.29266607388854026794 -0.05796739831566810608 -0.08731246367096900940 -0.03483178094029426575
w2477	0.00000000000000000000 -0.03034087270498275757 -0.20626639574766159058 -0.04648200422525405884 -0.17265060544013977051 -0.17656423151493072510
w2539	0.00000000000000000000 0.31789316236972808838 0.26901236176490783691 0.24538816511631011963 -0.05566775798797607422 0.14112298935651779175
w2665	0.00000000000000000000 -0.32145029678940773010 -0.33293945342302322388 -0.23035781458020210266 -0.26636010757647454739 -0.38474137336015701294
w2934	0.00000000000000000000 -0.00764251779764890671 0.16951449681073427200 -0.08254136424511671066 -0.02322620246559381485 -0.02537738252431154251
w3478	0.00000000000000000000 -0.14451158978044986725 -0.01169450860470533371 -0.13406608439981937408 0.12225908599793910980 -0.01171797141432762146
w60	0.00000000000000000000 0.22897978872060775757 0.09717273339629173279 0.09873132407665252686 0.11030455119907855988 0.29557873308658599854
w788	0.00000000000000000000 -0.11717061698436737061 0.03422470390796661377 -0.13122437521815299988 -0.12174265272915363312 -0.17765545845031738281
w845	0.00000000000000000000 -0.11849315464496612549 0.23326027393341064453 -0.14652743935585021973 -0.22661828994750976562 -0.03507975861430168152
w880	0.00000000000000000000 -0.08147314283996820450 0.13661704957485198975 -0.24736112356185913086 -0.08924934919923543930 -0.12043192610144615173
w983	0.00000000000000000000 0.61241364479064941406 0.16075247898697853088 0.15281581133604049683 0.15909082815051078796 0.14060385152697563171
w1595	0.00000000000000000000 0.40248872712254524231 -0.22697065398097038269 0.13601112738251686096 0.04484353121370077133 -0.07149754092097282410
w1618	0.00000000000000000000 0.34029951691627502441 -0.35627582669258117676 -0.73837155103683471680 -0.64035779237747192383 0.86146366596221923828
w1976	0.00000000000000000000 -0.62000352144241333008 -0.45090733468532562256 -0.68897184729576110840 -0.12939392030239105225 -0.23693425208330154419
w2103	0.00000000000000000000 0.64998272061347961426 0.14583580195903778076 0.12694087624549865723 0.38007663935422897339 0.39121321588754653931
w2128	0.00000000000000000000 0.16731952503323554993 -0.04744765860959887505 -0.11896140500903129578 -0.32256084308028221130 0.07365885749459266663
w2563	0.00000000000000000000 0.62354707717895507812 0.35287015885114669800 0.28316901437938213348 0.55872297286987304688 0.04229429364204406738
w2875	0.00000000000000000000 -0.26427191868424415588 0.37235408648848533630 -0.48688704147934913635 -0.00516045466065406799 0.18470999225974082947
w2878	0.00000000000000000000 -0.42583041638135910034 -0.21572675555944442749 -0.41604004800319671631 -0.36635913327336311340 -0.45053033530712127686
w3019	0.00000000000000000000 -0.51043261587619781494 0.10354758799076080322 -0.64538277685642242432 0.02918319404125213623 -0.06350903958082199097
w3198	0.00000000000000000000 -0.33678420633077621460 -0.28082758560776710510 -0.30938807129859924316 -0.23240264225751161575 -0.28959239646792411804
w3278	0.00000000000000000000 -0.66327688097953796387 -0.95418566465377807617 -0.31437513232231140137 -1.13390314579010009766 -0.09724783897399902344
w199	0.00000000000000000000 -0.39590562134981155396 -0.13519493490457534790 -0.25813611596822738647 0.13734356313943862915 0.10821554809808731079
w445	0.00000000000000000000 0.24895241856575012207 0.26107206940650939941 -0.30364929139614105225 0.04811326041817665100 0.24749356508255004883
w604	0.00000000000000000000 -0.34308275580406188965 -0.50770255923271179199 -0.51462085545063018799 -0.41959865298122167587 -0.61880317330360412598
w812	0.00000000000000000000 0.74974994361400604248 -0.30942705273628234863 -0.54754386842250823975 0.06842629611492156982 -0.77376039326190948486
w1834	0.00000000000000000000 -0.09807576984167098999 0.10170442680828273296 0.33769536763429641724 -0.32858694344758987427 0.56222333759069442749
w2484	0.00000000000000000000 0.34607136249542236328 -0.12294480204582214355 -0.15925425291061401367 0.04166837222874164581 0.32824411988258361816
w2743	0.00000000000000000000 -0.58835250139236450195 -0.48843530565500259399 -0.55700205266475677490 -0.49552214890718460083 -0.43424393003806471825
w2791	0.00000000000000000000 0.07090647518634796143 -0.30476350337266921997 -0.38614071905612945557 -0.25009034574031829834 -0.21582485549151897430
w3310	0.00000000000000000000 0.73382419347763061523 0.06117747724056243896 0.22106943558901548386 0.19904969632625579834 0.18110255151987075806
w3644	0.00000000000000000000 -0.39121130062267184258 0.11844268441200256348 -1.08989551663398742676 -0.28913735598325729370 -0.52687227725982666016
w13	0.00000000000000000000 -0.24171859398484230042 -0.18617129325866699219 -0.49432353675365447998 -0.36754824966192245483 -0.37709101289510726929
w302	0.00000000000000000000 0.07139725610613822937 0.06991476193070411682 0.26570773869752883911 -0.04602765291929244995 0.25067073851823806763
w608	0.00000000000000000000 0.04893536772578954697 0.02102638315409421921 -0.02382378745824098587 -0.16784611437469720840 0.05600517895072698593
w627	0.00000000000000000000 -0.18156311661005020142 -0.26156536489725112915 0.43574849516153335571 -0.25788433104753494263 -0.31202363222837448120
w804	0.00000000000000000000 0.30663307011127471924 -0.06514555215835571289 -0.05299080908298492432 0.66883905231952667236 0.13659790903329849243
w1106	0.00000000000000000000 0.14697033166885375977 0.62573388218879699707 0.81695032119750976562 0.07946705818176269531 0.36042391508817672729
w1799	0.00000000000000000000 -0.49605597741901874542 0.57837109081447124481 -0.04402801580727100372 0.05339768528938293457 0.05366925708949565887
w1874	0.00000000000000000000 -0.15318925119936466217 -0.07570497877895832062 0.02846960164606571198 -0.25763648189604282379 0.30760190449655056000
w2086	0.00000000000000000000 -0.90677618980407714844 -0.90374156832695007324 -0.57374801312107592821 -0.36984176933765411377 -0.67999106645584106445
w2276	0.00000000000000000000 -0.31275365501642227173 -0.06306079030036926270 -0.54595315456390380859 -0.31287020444869995117 0.08276489377021789551
w2683	0.00000000000000000000 0.53413173556327819824 -0.20614355802536010742 0.01917477510869503021 0.36318615078926086426 -0.37803506851196289062
w3045	0.00000000000000000000 -0.36663568019866943359 -0.42699371278285980225 -0.40788617730140686035 0.22713401913642883301 -0.22626700252294540405
w3184	0.00000000000000000000 -0.03345295786857604980 0.09956432133913040161 0.48033791780471801758 0.46179309487342834473 0.16327794268727302551
w3242	0.00000000000000000000 -0.05482970178127288818 0.13206518441438674927 -0.05078786611557006836 -0.01160288602113723755 0.09500976651906967163
w3303	0.00000000000000000000 0.01169458776712417603 0.00804625544697046280 0.15759265981614589691 -0.05287780053913593292 0.00876512099057435989
w3651	0.00000000000000000000 0.07631292939186096191 0.21173317730426788330 0.66259187459945678711 0.45723046362400054932 0.09494102001190185547
w155	0.00000000000000000000 0.17621102929115295410 -0.27226418256759643555 -0.37674066424369812012 -0.27619472891092300415 -0.44657106697559356689
w278	0.00000000000000000000 -0.20434992387890815735 -0.09745881333947181702 0.28193932399153709412 -0.05438326299190521240 -0.10311891511082649231
w667	0.00000000000000000000 -0.00777239352464675903 -0.03246613964438438416 0.19215459004044532776 -0.01260386407375335693 -0.03525290638208389282
w971	0.00000000000000000000 0.04652372375130653381 -0.25042531266808509827 -0.21078923717141151428 0.04330558702349662781 -0.01124224439263343811
w984	0.00000000000000000000 -0.02171492576599121094 0.47134660184383392334 0.23691388219594955444 0.21944255754351615906 0.71974045038223266602
w988	0.00000000000000000000 -0.16380140371620655060 -0.15290015609934926033 -0.14767559361644089222 -0.15697936154901981354 -0.20578335970640182495
w1048	0.00000000000000000000 -0.18726341426372528076 0.33521175384521484375 0.09419595450162887573 0.00318162143230438232 0.61101825535297393799
w1392	0.00000000000000000000 -0.00800567492842674255 -0.03299240954220294952 0.19248104281723499298 -0.01301807537674903870 -0.03560882247984409332
w2058	0.00000000000000000000 -0.08213968575000762939 0.15784578770399093628 0.14390975236892700195 -0.03155882284045219421 -0.07074036449193954468
w2107	0.00000000000000000000 -0.06033255718648433685 0.19122362323105335236 -0.00615912489593029022 -0.06843413226306438446 0.10971093364059925079
w2249	0.00000000000000000000 0.03331004083156585693 0.21693076193332672119 0.53507634997367858887 0.36915180087089538574 -0.16644400358200073242
w2395	0.00000000000000000000 -0.36746414005756378174 0.05073550343513488770 0.08666417002677917480 -0.56883628666400909424 0.26190795004367828369
w2412	0.00000000000000000000 -0.33165122941136360168 0.11996274068951606750 0.11069648340344429016 0.23071781918406486511 0.11730694398283958435
w2737	0.00000000000000000000 -0.02081808820366859436 0.01185367256402969360 0.01545429974794387817 0.11851289495825767517 0.05621884763240814209
w3316	0.00000000000000000000 -0.31846195366233587265 0.03837430477142333984 -0.75312066078186035156 -0.13978330790996551514 -0.59377613663673400879
w3345	0.00000000000000000000 -0.03514478541910648346 -0.05770592577755451202 0.32730218581855297089 -0.02193041704595088959 -0.06663178093731403351
w106	0.00000000000000000000 0.09893204271793365479 0.40517492592334747314 0.23689141590148210526 0.07278837263584136963 0.48334509134292602539
w289	0.00000000000000000000 0.19563380256295204163 0.26229438185691833496 -0.05745254456996917725 0.12028297036886215210 0.45931069552898406982
w582	0.00000000000000000000 -0.57518583349883556366 -0.11927407793700695038 0.28982263989746570587 0.35877010412514209747 -0.17440813593566417694
w600	0.00000000000000000000 0.17524993419647216797 0.10941156744956970215 -0.17251061834394931793 -0.34590341150760650635 -0.62604069709777832031
w617	0.00000000000000000000 -0.03651735931634902954 0.53169233351945877075 0.05365020781755447388 -0.15561347454786300659 0.18534411489963531494
w855	0.00000000000000000000 -0.63038921356201171875 -0.08756534755229949951 -0.12626118957996368408 -1.07615020871162414551 0.08005684614181518555
w1282	0.00000000000000000000 -0.17319395020604133606 0.02527735754847526550 -0.00945251807570457458 -0.02376730740070343018 -0.15258280560374259949
w1611	0.00000000000000000000 0.01978506892919540405 0.75877480953931808472 -0.03712917305529117584 -0.37486395984888076782 -0.58449847251176834106
w1619	0.00000000000000000000 0.12814797461032867432 0.57690221071243286133 0.61917215585708618164 0.69751483201980590820 -0.44687506556510925293
w1682	0.00000000000000000000 0.43173935264348983765 -0.08035609126091003418 0.54152241349220275879 0.22199137508869171143 0.64320725202560424805
w2321	0.00000000000000000000 0.63343556225299835205 0.55715124309062957764 0.21333082020282745361 0.63050696253776550293 0.27403957396745681763
w2789	0.00000000000000000000 -0.06690273806452751160 0.54268218949437141418 -0.01869665458798408508 -0.21738563105463981628 0.06637586653232574463
w3126	0.00000000000000000000 0.01248937845230102539 0.25783214718103408813 0.28806515783071517944 0.31222595274448394775 0.13166902959346771240
w3205	0.00000000000000000000 -0.33390666544437408447 0.10899360477924346924 -0.35856625437736511230 -0.21264384686946868896 -0.07220422476530075073
w3501	0.00000000000000000000 -0.63819730281829833984 0.26504480838775634766 -0.55897685885429382324 0.14482581615447998047 -0.70635902881622314453
w3603	0.00000000000000000000 -0.04753515496850013733 0.07113195210695266724 -0.16636367142200469971 0.02705534175038337708 0.01291258074343204498
w22	0.00000000000000000000 -0.30110484361648559570 0.24698215723037719727 0.23536820709705352783 -0.05571755021810531616 0.05082733090966939926
w503	0.00000000000000000000 -0.14803154766559600830 -0.06259202957153320312 -0.24086268618702888489 -0.28772502392530441284 -0.46889784932136535645
w763	0.00000000000000000000 -0.32328568026423454285 -0.52893534302711486816 -0.40806401893496513367 -0.60091178119182586670 -0.34169965237379074097
w828	0.00000000000000000000 0.16538624465465545654 0.06689640507102012634 0.36807572096586227417 0.09406374022364616394 -0.08424138277769088745
w998	0.00000000000000000000 -0.15266755223274230957 -0.08895698189735412598 0.42856287956237792969 0.46166059374809265137 0.48992562294006347656
w1023	0.00000000000000000000 0.11797004239633679390 -0.03815028769895434380 -0.00807115202769637108 0.00214313343167304993 -0.02014101622626185417
w1142	0.00000000000000000000 0.01738014817237854004 0.12423758953809738159 0.41557341814041137695 -0.04466113448143005371 -0.00734159350395202637
w1174	0.00000000000000000000 -0.22266456484794616699 -0.15736021846532821655 -0.16535264626145362854 0.03291711211204528809 -0.18759451806545257568
w1182	0.00000000000000000000 0.09017495042644441128 0.03706296882592141628 -0.05555028119124472141 -0.01627571345306932926 -0.01563979336060583591
w1581	0.00000000000000000000 0.58224452286958694458 0.04333174228668212891 0.19068180024623870850 -0.00436684489250183105 -0.20074521750211715698
w1620	0.00000000000000000000 0.43160842359066009521 0.27331671118736267090 0.64463623240590095520 0.18766620755195617676 1.81109952926635742188
w1774	0.00000000000000000000 -0.10396058356855064631 -0.10554853326175361872 0.19481883698608726263 -0.21359840279910713434 0.20833873504307121038
w2093	0.00000000000000000000 -0.21372796595096588135 -0.10184499621391296387 -0.87296652793884277344 -0.61042506992816925049 -0.35283708572387695312
w2118	0.00000000000000000000 0.01285758940503001213 -0.03061365708708763123 0.25451942533254623413 -0.04200356826186180115 -0.07872747629880905151
w2348	0.00000000000000000000 0.01285757403820753098 -0.03061364218592643738 0.25451909378170967102 -0.04200356081128120422 -0.07872739806771278381
w2817	0.00000000000000000000 0.25417740084230899811 -0.11727117560803890228 -0.01826528646051883698 0.00721718277782201767 -0.02821720205247402191
w3030	0.00000000000000000000 0.34507597051560878754 0.43778133951127529144 0.39578691683709621429 -0.73400306142866611481 -0.27798437513411045074
w3125	0.00000000000000000000 0.11797124193981289864 -0.03813125146552920341 -0.00803575711324810982 0.00215839967131614685 -0.02010680874809622765
w49	0.00000000000000000000 0.86188013851642608643 0.28835937380790710449 -0.18405880033969879150 0.23874386027455329895 0.03114013373851776123
w291	0.00000000000000000000 -0.41843472421169281006 -0.31688123196363449097 -0.45377524197101593018 0.12757103145122528076 -0.27667881548404693604
w507	0.00000000000000000000 0.40422105789184570312 0.76152493059635162354 1.29824781417846679688 0.83361522853374481201 0.46623395383358001709
w510	0.00000000000000000000 0.08091083168983459473 0.26396915316581726074 1.04036131501197814941 0.67787533998489379883 0.23344674706459045410
w761	0.00000000000000000000 0.18589360266923904419 0.41946783661842346191 -0.08137686550617218018 0.13419115543365478516 0.01158266514539718628
w854	0.00000000000000000000 -0.05709227174520492554 -0.06113702803850173950 0.03149276226758956909 0.47729892283678054810 -0.00705341994762420654
w1045	0.00000000000000000000 0.00047292863018810749 -0.06612223619595170021 -0.05583509663119912148 0.13596146320924162865 -0.00329113192856311798
w1341	0.00000000000000000000 0.03524512052536010742 0.39903532713651657104 -0.08523590117692947388 0.15182118490338325500 0.06500314362347126007
w1378	0.00000000000000000000 0.83136984705924987793 0.81437999010086059570 -0.01601731777191162109 1.04761084914207458496 0.84242770075798034668
w1449	0.00000000000000000000 0.12458262220025062561 -0.03941238671541213989 0.09977765660732984543 0.23570404201745986938 0.07229977287352085114
w1750	0.00000000000000000000 0.00375760532915592194 -0.07438542880117893219 -0.00562070123851299286 0.13326875679194927216 -0.01148402877151966095
w1821	0.00000000000000000000 -0.20525191724300384521 -0.37287627160549163818 -0.02773833274841308594 -0.05233558267354965210 -0.35638366639614105225
w2116	0.00000000000000000000 -0.08517613168805837631 -0.09174116235226392746 -0.22765292227268218994 0.08378593623638153076 -0.12254945188760757446
w2224	0.00000000000000000000 -0.16851001791656017303 0.18787755258381366730 -0.10532004944980144501 0.34008580632507801056 -0.12198981456458568573
w2234	0.00000000000000000000 -0.16850968077778816223 0.18787753209471702576 -0.10531901195645332336 0.34008214995265007019 -0.12198944762349128723
w2308	0.00000000000000000000 0.31697134673595428467 0.54392644017934799194 0.25038400292396545410 0.43654408305883407593 1.03388881683349609375
w2518	0.00000000000000000000 -0.31403111480176448822 -0.38282616809010505676 -0.89836841821670532227 -0.04232826828956604004 -0.29975188151001930237
w2837	0.00000000000000000000 -0.11028596758842468262 -0.08610152150504291058 -0.13789301738142967224 0.03258565813302993774 -0.21791821718215942383
w2859	0.00000000000000000000 0.20593111962080001831 0.01171214180067181587 0.28110022097826004028 -0.05730752646923065186 -0.30278291553258895874
w3417	0.00000000000000000000 -0.05226556397974491119 -0.21651481278240680695 -0.06477120332419872284 0.31407567672431468964 -0.05264949984848499298
w3585	0.00000000000000000000 -0.13463007379323244095 -0.23648195713758468628 -0.23023375123739242554 -0.04230781644582748413 -0.09772520139813423157
w3639	0.00000000000000000000 0.13382290489971637726 0.15422540530562400818 0.53198425471782684326 0.27653594315052032471 -0.20869411528110504150
w112	0.00000000000000000000 -0.02760694921016693115 0.28889979794621467590 -0.14093130454421043396 0.00107948295772075653 -0.00605314783751964569
w613	0.00000000000000000000 0.16580373048782348633 0.48132894933223724365 0.41767859458923339844 0.72884756326675415039 0.17032696306705474854
w629	0.00000000000000000000 0.28910766169428825378 -0.05776368081569671631 0.40299941599369049072 -0.05631984770298004150 0.73676310479640960693
w1154	0.00000000000000000000 -0.67050296068191528320 -0.51322086155414581299 -0.03973373770713806152 -0.06829316914081573486 -0.34919095039367675781
w1235	0.00000000000000000000 -0.07543800398707389832 0.33801441267132759094 0.04118658881634473801 0.04788974020630121231 -0.01254670694470405579
w1445	0.00000000000000000000 -0.33529194444417953491 0.04596243053674697876 -0.12213250249624252319 -0.11899507045745849609 0.18575607985258102417
w1557	0.00000000000000000000 0.17652308195829391479 0.20525103062391281128 -0.02773645520210266113 -0.01504131406545639038 -0.05508396029472351074
w1895	0.00000000000000000000 0.08568058721721172333 0.25135900638997554779 -0.18579847551882266998 -0.00335819646716117859 -0.01170188933610916138
w2000	0.00000000000000000000 -0.32389245182275772095 0.10045782476663589478 -0.21377509832382202148 -0.17922178655862808228 0.09960488229990005493
w2143	0.00000000000000000000 -0.04365961253643035889 -0.15873938426375389099 -0.01450821757316589355 -0.61362037062644958496 -0.17978318966925144196
w2220	0.00000000000000000000 -0.12051438540220260620 -0.13557039946317672729 0.19066429883241653442 0.42870902270078659058 0.13693067803978919983
w2486	0.00000000000000000000 0.15643996000289916992 -0.02472847700119018555 -0.78718295693397521973 -0.65014898777008056641 -0.13970209658145904541
w2718	0.00000000000000000000 -0.26372909545898437500 0.79091775417327880859 -0.11128515005111694336 -0.13789509236812591553 0.23973204195499420166
w2719	0.00000000000000000000 0.33745231479406356812 0.23933304101228713989 0.03775449842214584351 -0.01158246397972106934 -0.16054474562406539917
w2990	0.00000000000000000000 -0.64041821658611297607 -0.61899834871292114258 -0.66719626635313034058 -1.15723592042922973633 -0.26912787556648254395
w130	0.00000000000000000000 0.22556984424591064453 0.27005369961261749268 -0.02840945124626159668 -0.11998799443244934082 -0.01150087267160415649
w772	0.00000000000000000000 -0.24216744303703308105 -0.47643736237660050392 -1.16551408171653747559 -0.39667106419801712036 -0.46505608921870589256
w831	0.00000000000000000000 -0.25343134254217147827 -0.07680262997746467590 0.11180498450994491577 0.18158917874097824097 -0.62136656790971755981
w1046	0.00000000000000000000 -0.79249057173728942871 -0.43829074688255786896 -0.36477660760283470154 -0.29747913032770156860 -0.61704392731189727783
w1053	0.00000000000000000000 -0.06264793127775192261 -0.03836739063262939453 0.18842555582523345947 0.37045787274837493896 -0.22492580115795135498
w1193	0.00000000000000000000 0.07438707537949085236 -0.08945649489760398865 -0.05273600295186042786 0.11498798057436943054 0.19101429358124732971
w1904	0.00000000000000000000 0.51654630899429321289 0.21586694568395614624 0.50936301052570343018 0.23862943053245544434 0.19395174831151962280
w1927	0.00000000000000000000 -0.09683340555056929588 -0.24124628305435180664 -0.08927216101437807083 -0.08653946500271558762 -0.08364064246416091919
w1967	0.00000000000000000000 -0.11958584981039166451 -0.11577933840453624725 -0.11840624036267399788 -0.19348218291997909546 -0.11999470368027687073
w2592	0.00000000000000000000 -0.44594536721706390381 -0.40481421351432800293 -0.05625329911708831787 -0.00642997026443481445 -0.07284295558929443359
w3260	0.00000000000000000000 0.30424147844314575195 -0.10203517973423004150 0.87037752568721771240 0.12028016895055770874 0.13989464938640594482
w3355	0.00000000000000000000 -0.12310649175196886063 -0.19537488371133804321 -0.12585699930787086487 -0.12496030889451503754 -0.13818593695759773254
w323	0.00000000000000000000 -0.00911311013624072075 -0.19697186397388577461 0.25194966746494174004 -0.02432884881272912025 -0.02199501590803265572
w644	0.00000000000000000000 -0.02129029156640172005 0.20887019624933600426 -0.12655445048585534096 -0.02119326172396540642 -0.05730020860210061073
w950	0.00000000000000000000 0.60981515794992446899 1.01991227269172668457 0.74785220623016357422 0.44974252581596374512 0.18637451529502868652
w1354	0.00000000000000000000 -0.57115432620048522949 -0.05908162891864776611 -0.32310909032821655273 -0.49325236678123474121 -0.18596079945564270020
w1416	0.00000000000000000000 -0.24921647459268569946 0.41003722697496414185 0.09058698266744613647 -0.14911656826734542847 -0.21897976845502853394
w1428	0.00000000000000000000 -0.01423865370452404022 -0.06524903140962123871 0.06265802495181560516 -0.00742891896516084671 0.02346234582364559174
w2073	0.00000000000000000000 -0.02532646711915731430 -0.20768824871629476547 0.34471821133047342300 -0.08243372198194265366 -0.02995787095278501511
w2084	0.00000000000000000000 -0.00539654120802879333 -0.25152742862701416016 0.61163035035133361816 -0.07712656259536743164 -0.02477557957172393799
w2379	0.00000000000000000000 -0.00715809501707553864 -0.12770288623869419098 0.17849869094789028168 -0.02015446498990058899 -0.01997614093124866486
w2661	0.00000000000000000000 -0.39715787768363952637 -0.23004591092467308044 -0.36561633646488189697 0.29454421997070312500 -0.41478531062602996826
w3312	0.00000000000000000000 -0.29045781493186950684 -0.05470087379217147827 -0.25238470733165740967 -0.15979556133970618248 -0.13875095453113317490
w3423	0.00000000000000000000 0.00749938003718852997 -0.00938377901911735535 0.09916896373033523560 0.00872454978525638580 -0.00374832190573215485
w3588	0.00000000000000000000 -0.00609259121119976044 -0.10209002625197172165 0.13456052262336015701 -0.01222341600805521011 -0.00979812163859605789
w3684	0.00000000000000000000 -0.46214255690574645996 -0.29608126357197761536 -0.31865687668323516846 -0.28793361037969589233 -0.21616686880588531494
w95	0.00000000000000000000 -0.59026566147804260254 -0.46055713295936584473 -0.55277474224567413330 -0.06120920181274414062 -0.35297559387981891632
w242	0.00000000000000000000 -0.25588171929121017456 -0.28942266851663589478 -0.18784824805334210396 -0.35645359754562377930 -0.06453850865364074707
w265	0.00000000000000000000 -0.59731392562389373779 -0.19527269899845123291 -0.32593587785959243774 -0.31911131739616394043 -0.74652868509292602539
w275	0.00000000000000000000 0.77657270431518554688 0.13144180178642272949 0.06666824221611022949 1.13190928101539611816 0.44184772856533527374
w286	0.00000000000000000000 -0.43796485662460327148 -0.37749941647052764893 -0.71112771332263946533 -0.64196369051933288574 -0.89170175790786743164
w511	0.00000000000000000000 -0.20219038426876068115 -0.07044740021228790283 0.13035786896944046021 0.43876582384109497070 -0.15640728175640106201
w898	0.00000000000000000000 -0.09110821411013603210 -0.06641009682789444923 -0.08095811679959297180 0.06887133419513702393 -0.20458169281482696533
w2061	0.00000000000000000000 -0.05001409351825714111 -0.07916449010372161865 -0.26724161207675933838 0.35957309603691101074 0.90484444797039031982
w2293	0.00000000000000000000 -0.30109422653913497925 -0.26671214913949370384 -0.28046519681811332703 -0.21490564942359924316 -0.47020585834980010986
w2305	0.00000000000000000000 0.23314352333545684814 -0.24307535588741302490 0.15868727862834930420 -0.14714904874563217163 -0.22284711897373199463
w2318	0.00000000000000000000 -0.20881853252649307251 -0.31952430307865142822 -0.26925246417522430420 0.19796170294284820557 -0.18331075832247734070
w2400	0.00000000000000000000 0.64722467958927154541 -0.17774607241153717041 0.19372976571321487427 0.13690668344497680664 0.15384130598977208138
w2428	0.00000000000000000000 -0.32463235408067703247 -0.23693369585089385509 -0.38876709342002868652 -0.30131534487009048462 -0.15815163403749465942
w2689	0.00000000000000000000 -0.57782027125358581543 -0.43111116439104080200 -0.50540477037429809570 -0.37265685945749282837 -0.21427123248577117920
w2800	0.00000000000000000000 -0.43177748471498489380 -0.42102912440896034241 -0.41055877506732940674 -0.36803334020078182220 -0.63687923550605773926
w3035	0.00000000000000000000 -0.02120016887784004211 -0.13726608827710151672 0.05060645192861557007 0.27190647646784782410 0.11201379820704460144
w3170	0.00000000000000000000 -0.42353634163737297058 -0.40988865029066801071 -0.42981426045298576355 -0.47299024462699890137 -0.59128946065902709961
w3377	0.00000000000000000000 -0.22338588163256645203 0.10261392965912818909 -0.18580931052565574646 0.06601159647107124329 -0.12366798892617225647
w3537	0.00000000000000000000 0.42287664115428924561 -0.25477994978427886963 -0.59079281985759735107 0.81797893345355987549 0.36895497143268585205
w3541	0.00000000000000000000 0.07503012567758560181 0.15945749450474977493 -0.05650658905506134033 -0.00708326697349548340 0.61464795470237731934
w140	0.00000000000000000000 0.18014432489871978760 0.40499734878540039062 -0.21313470602035522461 0.90104222297668457031 0.60617497563362121582
w236	0.00000000000000000000 0.67428869009017944336 0.36036241799592971802 0.00015345215797424316 0.30241599678993225098 1.06581267714500427246
w1072	0.00000000000000000000 -0.42722083628177642822 0.24327063560485839844 -0.38851469755172729492 -0.26728925853967666626 -0.28318462520837783813
w1555	0.00000000000000000000 -0.08552959561347961426 0.72625222802162170410 0.14181310683488845825 0.45171661674976348877 0.24486776255071163177
w1744	0.00000000000000000000 -0.00354971201159060001 -0.11785309691913425922 -0.40800716658122837543 0.50740469316951930523 -0.01001178589649498463
w1746	0.00000000000000000000 -0.09463644679635763168 0.12607692275196313858 -0.10032551642507314682 0.14976474735885858536 -0.03803240042179822922
w1831	0.00000000000000000000 -0.12337405979633331299 0.12045965529978275299 0.72078683972358703613 -0.05583375692367553711 -0.06777210533618927002
w2053	0.00000000000000000000 -0.14429582655429840088 0.12607434391975402832 -0.09785056114196777344 0.31001004576683044434 -0.10567415505647659302
w2124	0.00000000000000000000 -0.21140225976705551147 0.13730720430612564087 -0.42623374611139297485 0.00935788452625274658 -0.14898224547505378723
w2251	0.00000000000000000000 -0.09555540792644023895 0.14556531794369220734 0.02678034082055091858 0.00575190642848610878 -0.03919146768748760223
w2302	0.00000000000000000000 0.36585225909948348999 0.23272451013326644897 -0.06155190616846084595 -0.01411432027816772461 0.13687921129167079926
w2504	0.00000000000000000000 -0.15861372277140617371 -0.01090808212757110596 -0.36819680035114288330 -0.19573884829878807068 -0.12210397236049175262
w2886	0.00000000000000000000 0.15822569280862808228 0.38820750266313552856 -0.18291241675615310669 0.06729698460549116135 -0.07291578501462936401
w3284	0.00000000000000000000 0.25248860195279121399 0.33750212565064430237 -0.26496433839201927185 0.16030289605259895325 -0.10221707448363304138
w3306	0.00000000000000000000 -0.35799901187419891357 0.21811407804489135742 -0.44828855991363525391 -0.29336589574813842773 -0.14780653826892375946
w3330	0.00000000000000000000 0.12321870774030685425 0.20646241307258605957 0.45806896686553955078 0.11488162167370319366 -0.03504978120326995850
w3454	0.00000000000000000000 -0.09418294858187437057 0.02842775639146566391 0.27090660948306322098 -0.11234753858298063278 -0.02979075070470571518
w1151	0.00000000000000000000 -0.11548483930528163910 0.03295396082103252411 -0.31340616010129451752 0.35484821535646915436 -0.07621346600353717804
w2133	0.00000000000000000000 -0.04186654090881347656 0.49820755422115325928 -0.09836828708648681641 -0.17411515116691589355 -0.00080897286534309387
w2541	0.00000000000000000000 0.00228561460971832275 -0.27450796961784362793 0.25875544548034667969 0.33856835961341857910 -0.07158856838941574097
w2970	0.00000000000000000000 -0.48521824926137924194 -0.24034120887517929077 -0.38223128765821456909 0.18932024389505386353 0.30869502574205398560
w16	0.00000000000000000000 0.03788757324218750000 0.26092844456434249878 0.16516830399632453918 0.34869554638862609863 0.34258919954299926758
w381	0.00000000000000000000 0.15096113085746765137 -0.09786595404148101807 0.37684407830238342285 0.31966091692447662354 0.31245501339435577393
w501	0.00000000000000000000 -0.08974856371060013771 -0.26260622078552842140 -0.20045343274250626564 0.60543806618079543114 -0.12156690889969468117
w910	0.00000000000000000000 0.01565760746598243713 -0.14891196042299270630 -0.28375644236803054810 0.18630159646272659302 -0.01518491283059120178
w930	0.00000000000000000000 0.16239076759666204453 -0.05584925413131713867 -0.16749353706836700439 0.77636395394802093506 0.11464739590883255005
w1087	0.00000000000000000000 0.08049671351909637451 0.60619083791971206665 -0.08569381386041641235 0.03357875347137451172 0.06902349740266799927
w1089	0.00000000000000000000 -0.32616619672626256943 0.38611053023487329483 -0.27249349560588598251 -0.03996086027473211288 0.22193649504333734512
w1194	0.00000000000000000000 -0.09601573646068572998 -0.35062266513705253601 0.22937919571995735168 -0.05446656793355941772 -0.02977714315056800842
w1357	0.00000000000000000000 -0.00902212131768465042 -0.00861300248652696609 -0.21457071509212255478 0.29803371522575616837 -0.00406637135893106461
w1515	0.00000000000000000000 -0.22797027230262756348 -0.11184914410114288330 0.44993609189987182617 0.33896383643150329590 -0.07529550790786743164
w1824	0.00000000000000000000 -0.05712650157511234283 -0.18808764405548572540 0.21396753005683422089 0.20008648745715618134 -0.04690579511225223541
w2248	0.00000000000000000000 0.25914356857538223267 -0.07589008659124374390 0.18237741291522979736 0.16982707381248474121 0.09820320387370884418
w2686	0.00000000000000000000 1.12523576617240905762 0.58603470027446746826 0.22927479445934295654 0.42135839746333658695 0.22887398302555084229
w2865	0.00000000000000000000 0.20836653560400009155 0.59182468056678771973 0.05762556195259094238 0.50516691803932189941 0.47623763978481292725
w3379	0.00000000000000000000 -0.03004460409283638000 -0.32619155198335647583 0.00123006105422973633 0.11683057993650436401 -0.26327138394117355347
w3655	0.00000000000000000000 0.07656516134738922119 0.23093146085739135742 0.13555632717907428741 0.34956297278404235840 0.06301144510507583618
w11	0.00000000000000000000 -0.21159642841666936874 0.26427228841930627823 -0.15220282878726720810 -0.07710947003215551376 0.24080479238182306290
w683	0.00000000000000000000 -0.22954924404621124268 -0.09780201874673366547 -0.19334316253662109375 0.00761474668979644775 -0.23109805583953857422
w797	0.00000000000000000000 0.16820435225963592529 0.33632966876029968262 0.07249681651592254639 0.59250244498252868652 0.43665820360183715820
w1340	0.00000000000000000000 -0.09653872810304164886 -0.10584416612982749939 -0.10063371621072292328 -0.00769456475973129272 -0.12820367515087127686
w1532	0.00000000000000000000 -0.37165800482034683228 0.21953720599412918091 0.31635721772909164429 0.03158327564597129822 -0.30468348413705825806
w2723	0.00000000000000000000 -0.68672007322311401367 -0.45357974618673324585 -0.25706279277801513672 -0.56696516275405883789 -0.41305438056588172913
w2834	0.00000000000000000000 -0.02844088571146130562 -0.03884021937847137451 -0.06443506292998790741 0.04280104674398899078 -0.03630925249308347702
w2986	0.00000000000000000000 -0.17728136666119098663 -0.17227609828114509583 -0.15953166596591472626 -0.16593173891305923462 -0.18671049177646636963
w3013	0.00000000000000000000 -0.08709003031253814697 -0.39770565927028656006 -0.20587091147899627686 -0.13646083325147628784 0.43172346055507659912
w3152	0.00000000000000000000 -0.04640106111764907837 0.28011119365692138672 0.11339385062456130981 0.00183234736323356628 -0.02992887794971466064
w178	0.00000000000000000000 0.18089076876640319824 0.21538434922695159912 -0.02113548293709754944 -0.29091058671474456787 0.07515395432710647583
w197	0.00000000000000000000 -0.20732168306130915880 -0.40661113907117396593 1.06463987182360142469 -0.16696074057836085558 -0.24868939269799739122
w249	0.00000000000000000000 0.23798638582229614258 0.70861285924911499023 0.57120589911937713623 0.38571219705045223236 0.22347748279571533203
w500	0.00000000000000000000 -0.30047660320997238159 -0.30905549228191375732 -0.07032095640897750854 -0.23773018270730972290 -0.23002679273486137390
w1298	0.00000000000000000000 -0.33072225749492645264 -0.39214347302913665771 -0.11498032510280609131 -0.20837888680398464203 -0.30195815116167068481
w1446	0.00000000000000000000 -0.11892244219779968262 -0.42443440854549407959 -0.19189362623728811741 -0.24781977385282516479 -0.15174609422683715820
w1516	0.00000000000000000000 0.46792122721672058105 -0.06690159440040588379 -0.04776221513748168945 0.63120746612548828125 0.59971889853477478027
w1823	0.00000000000000000000 -0.22824516892433166504 -0.39984520524740219116 -0.62005430459976196289 -0.35720480233430862427 -0.20085483789443969727
w1859	0.00000000000000000000 -0.32056693732738494873 -0.62450072169303894043 0.16814449429512023926 -0.36367344856262207031 -0.42742443084716796875
w1876	0.00000000000000000000 0.06317293830215930939 0.10403537936508655548 0.24340900778770446777 0.01628407090902328491 0.10985829867422580719
w1891	0.00000000000000000000 0.03623038530349731445 0.11706843413412570953 0.18029391020536422729 0.20507401973009109497 -0.01703292876482009888
w1970	0.00000000000000000000 -0.07397626340389251709 0.52389265596866607666 0.12961133196949958801 0.33235786855220794678 0.03939646482467651367
w2228	0.00000000000000000000 -0.32124287635087966919 -0.47365155816078186035 -0.12342850863933563232 -0.28994451835751533508 -0.32172913104295730591
w2257	0.00000000000000000000 -0.48521925508975982666 -0.34132701158523559570 -0.58117777109146118164 0.10623639822006225586 -0.35652928799390792847
